#ifndef WEIGHTS_HPP
#define WEIGHTS_HPP
// Lord forgive me for what I'm about to do...
namespace PijersiEngine::NN::Weights
{
    const float dense_w[] = {0.01742123, -0.064444676, 0.054772764, 0.06347072, 0.029603042, -0.004994847, 0.049425036, -0.04354694, -0.06481612, 0.017443381, 0.017885111, 0.038838267, -0.0010618642, -0.046280604, -0.0570241, -0.04957582, 0.010919251, -0.0072900727, 0.0753039, 0.0733248, -0.050964825, -0.057406254, 0.05206737, 0.022443503, 0.004270889, 0.060116604, 0.040506966, 0.0052073747, 0.0593535, -0.018684667, 0.050496295, 0.06825915, 0.067728266, 0.04261574, 0.06664552, 0.022659726, 0.030226, 0.002703607, 0.0075813606, 0.028425857, -0.021221712, 0.06555708, 0.037781842, 0.021770276, 0.002818644, -0.03602682, -0.06035272, -0.02292015, 0.009939373, -0.0010115653, -0.038308214, 0.040857315, -0.0763152, -0.014893122, 0.046534404, 0.054685116, -0.045902006, -0.041315682, -0.058959253, 0.012360245, -0.017367356, 0.06450708, -0.019440372, -0.023195859, 0.039903462, -0.003373541, 0.03140018, 0.05703178, -0.043078408, -0.055215877, 0.04680638, 0.040918894, 0.037908323, 0.0380145, 0.033418253, -0.04550019, -0.06200209, -0.029912625, 0.037508734, -0.07307928, -0.014588244, -0.015444487, -0.060191587, -0.057927728, -0.03034766, -0.014732242, 0.06533226, 0.06292388, 0.046671912, 0.07299085, -0.03657398, 0.037236065, -0.046975743, 0.04012371, 0.020161808, -0.06445576, 0.076237395, -0.04920784, -0.07320883, -0.074408524, -0.02056316, 0.03716316, -0.051466893, 0.039517723, 0.042179026, 0.060168028, 0.035166487, 0.070750296, -0.033477325, 0.071805015, 0.042922243, 0.06911777, 0.050831094, -0.048341304, -0.06701681, 0.056351602, -0.0008230582, -0.030510928, 0.042655893, 0.054201737, 0.0781773, -0.02174173, -0.027873442, 0.033766456, -0.029827043, 0.048547864, -0.0053278953, 0.019883707, -0.059215035, -0.017978221, -0.048591442, 0.054608434, 0.032238618, -0.023284558, 0.03130161, -0.060053796, 0.0763028, -0.01833278, 0.0098563805, 0.00396581, -0.050766133, 0.013670355, -0.057323627, -0.054569736, 0.047216743, -0.019342512, 0.0031168982, -0.001203768, 0.024103299, 0.05302292, 0.044388898, -0.022478327, 0.059044942, 0.06643918, -0.01576364, 0.046379216, -0.05946263, 0.07222545, -0.021265361, -0.0015911385, -0.06272282, -0.008991279, 0.051189065, 0.013602912, -0.05277963, -0.0019031465, -0.0014727861, 0.007484898, 0.038716167, -0.024940152, -0.009394556, -0.030412152, 0.02119524, 0.052297488, -0.0517739, 0.01875645, -0.03688482, 0.052133456, 0.028445035, -0.061431415, -0.019710679, 0.0425955, -0.073131084, -0.057400625, 0.008361064, -0.05648068, -0.024527662, -0.056639016, -0.03557698, -0.0437098, -0.043171275, -0.023630295, 0.06946257, -0.031948086, -0.049416065, 0.03212644, -0.05425204, -0.05042555, -0.0014721155, 0.058371723, -0.035215244, -0.015360475, -0.07348318, -0.009965226, 0.0055969283, -0.033893723, 0.021821178, 0.07606198, -0.014870085, 0.0010694936, 0.034614526, -0.040480793, 0.018631205, 0.021854728, 0.05390644, 0.062016264, -0.014272511, -0.07276125, 0.008485809, 0.05131899, 0.04585641, -0.021472372, 0.056333542, 0.070816025, -0.032740783, -0.015479051, 0.05455181, 0.053399548, 0.07677187, -0.0056532174, -0.06605112, -0.038170144, 0.028402545, -0.015397675, 0.07349272, 0.019258596, 0.0646355, 0.071853235, -0.054162424, -0.06247881, 0.05994524, -0.06995971, 0.011990108, -0.039466016, 0.03815323, 0.05821778, 0.022499077, -0.044835016, 0.039272107, -0.0005692169, 0.014041461, -0.011934817, -0.015835717, 0.025718436, -0.040398635, 0.06504457, 0.022491954, -0.043104876, 0.015094563, 0.05338098, 0.016815394, -0.024398975, -0.013875239, -0.041228514, -0.036419723, -0.011885516, 0.048051536, -0.070248745, -0.03765783, -0.05039583, 0.03678707, -0.01742848, 0.0079919025, -0.062527865, -0.0017136559, 0.051035807, -0.018612958, -0.0028137267, -0.0036547855, -0.06484343, -0.076065555, 0.048903793, 0.03142362, -0.055862542, -0.0116631985, 0.07600847, -0.058425535, 0.041723162, 0.017256297, -0.021705389, 0.04522524, 0.028521098, 0.06512202, 0.03177067, 0.0661495, 0.017953679, -0.06990568, -0.0027746782, 0.07240173, 0.038579628, -0.038076155, -0.064447366, -0.014075033, 0.0073947385, -0.021668695, -0.014031887, 0.011840507, 0.05927153, 0.065820456, -0.05105263, 0.039111905, 0.0350525, -0.048611667, 0.049049005, 0.06652512, 0.0594268, 0.026229762, 0.009035133, 0.042573735, 0.03401082, -0.026312087, -0.060514607, 0.027553879, -0.074313425, 0.033533223, 0.035522826, -0.058037832, -0.027483195, -0.04710368, -0.0009174943, 0.03774018, -0.02164957, 0.020495862, -0.04556081, -0.020948656, -0.056342497, 0.019783713, 0.06940666, 0.07771236, -0.03194528, 0.0033722147, 0.03398282, 0.05601874, 0.034946524, 0.013038501, -0.025731035, 0.0027411953, 0.067458406, -0.0026035756, 0.05655381, 0.022494197, -0.05884984, 0.063441336, -0.026286121, 0.07154475, -0.038957458, -0.0658986, 0.06300643, 0.06468715, -0.050535582, -0.0717221, -0.0744252, 0.06464115, 0.04845567, 0.023701072, 0.07640913, -0.03528555, -0.040195193, -0.0001232624, -0.06570953, -0.050448656, 0.05464104, 0.07821818, 0.014499038, 0.043228105, 0.01798854, -0.025338247, -0.03336825, 0.06303203, -0.07346678, -0.05711043, 0.016976245, 0.037860185, 0.0076797605, -0.034284458, 0.074815765, -0.0065795705, 0.07699357, -0.059529856, 0.05759637, 0.022859715, 0.005316809, -0.025035713, 0.064676404, -0.036040206, -0.0039994195, 0.04557018, 0.05771379, 0.030401088, 0.0419942, 0.05893235, 0.041620895, -0.06582729, 0.004045926, -0.004112534, -0.007530533, 0.026134178, -0.0004126206, -0.008082211, -0.05029427, 0.062416986, -0.06589774, -0.025126882, 0.04156577, 0.06316689, 0.034701288, -0.051767282, -0.0575933, 0.0058477595, 0.04478933, 0.00349845, 0.0059021935, 0.07615055, -0.052812286, 0.03481619, 0.0051655397, -0.00018637627, 0.01978007, -0.05077344, -0.03489837, -0.029817622, -0.064426154, -0.05747048, 0.010840662, 0.05971709, -0.011973619, 0.07649784, -0.057188526, -0.005316101, 0.010100029, 0.011525109, -0.07208628, 0.005668059, -0.07007536, -0.019216236, -0.074714795, -0.040004354, 0.014746018, 0.05928102, -0.043235246, 0.026131898, -0.048034877, -0.048181377, -0.05201484, -0.06800777, 0.032785103, -0.052007288, -0.01983641, -0.03140444, 0.0035305843, 0.050053403, 0.06447892, -0.046524443, -0.033460896, -0.03135494, 0.073339105, -0.07760485, -0.07421953, 0.064004704, 0.0018521324, 0.0584078, 0.06866145, 0.07061303, 0.04236263, -0.036086753, 0.012185998, -0.019077267, 0.05368714, 0.00094439834, 0.00024735183, -0.0009403378, 0.0059319735, -0.01888635, 0.06498471, -0.039682526, -0.002208747, -0.0019028112, -0.024393179, -0.022920895, -0.0084842, 0.038362056, 0.02005563, 0.06355336, -0.0431512, -0.016105767, -0.030549642, -0.05308409, -0.06875329, 0.013107553, 0.058512643, -0.04553705, -0.031526137, -0.042312272, 0.005401343, 0.0763323, -0.0070102364, 0.043560266, 0.0002380833, 0.005484171, -0.024452027, 0.07507333, -0.003850691, 0.02624277, 0.026874498, 0.06625092, 0.07552579, 0.024662927, -0.037708133, 0.073843345, 0.027937077, -0.077202864, -0.016011793, -0.06815378, -0.03744983, 0.031250708, 0.034881882, -0.01394549, 0.011504225, -0.06914372, -0.0733532, 0.00740654, 0.0010119751, -0.0501573, -0.07790716, -0.0055518597, 0.020052493, -0.06831421, -0.06196676, -0.019174289, -0.051955335, 0.028181419, 0.0056541488, -0.05094729, 0.024661303, -0.06389791, 0.05980356, -0.011902757, 0.016374655, 0.012147002, -0.030268475, -0.0024044365, 0.01017379, -0.05596304, 0.035403304, -0.0196171, 0.018526092, -0.05236181, 0.017715223, -0.02017622, 0.051390454, -0.02204948, 0.005878173, 0.019179687, -0.04112905, 0.052598387, -0.003705278, 0.06292409, -0.037249267, -0.07782441, 0.060278267, -0.03039531, -0.019481666, 0.06526071, 0.026302107, -0.05370778, -0.0756198, 0.025587186, 0.049612492, -0.04903906, 0.007822171, -0.030469503, 0.013180211, -0.061020903, -0.04252534, -0.036777385, -0.00044926256, -0.061608948, -0.036732204, -0.070865095, -0.006967485, 0.06502046, -0.057719275, 0.019621998, -0.007104598, 0.00056957453, 0.069227204, 0.029130638, 0.0723073, -0.06833483, 0.060053512, -0.030178465, 0.03825307, 0.049108937, 0.029198572, -0.0037544072, -0.060430955, 0.019556344, -0.0758938, -0.030779816, -0.06688648, -0.032942448, -0.028440434, -0.0596013, 0.070118666, 0.0072722435, 0.07315035, -0.046021514, -0.073113084, -0.05413177, 0.046247534, 0.06491463, -0.01085452, 0.0375956, 0.0074997246, -0.046012744, 0.00041820854, 0.06717077, -0.01942794, -0.021166362, -0.036770225, 0.00976117, -0.044781815, 0.03535133, -0.0726575, -0.05906001, -0.018704277, -0.06610674, 0.0531262, -0.0142792985, -0.025465231, 0.02843219, 0.05047646, -0.03698746, 0.073928654, -0.06442706, 0.0041518062, 0.03571339, -0.05208522, -0.06420626, 0.0043225363, 0.04807307, -0.061544415, 0.042324178, -0.0376903, -0.04898511, -0.031661365, -0.040015776, 0.042864256, 0.041170172, -0.02148372, 0.046665803, -0.0017106235, -0.048557866, -0.025879722, -0.0012912527, 0.007984132, -0.0337041, 0.01665096, -0.017337482, -0.022622827, 0.069733724, -0.01465147, 0.003273271, -0.03334292, 0.028929666, -0.059993193, 0.0657763, -0.0019108877, -0.049814895, -0.062254056, 0.027404718, 0.0013032183, 0.012647241, -0.045075208, -0.014384016, -0.00479842, 0.050339118, 0.026843987, -0.0029622093, -0.046864234, -0.00019981712, 0.0013947636, 0.040362574, 0.05536373, 0.06265722, 0.05679451, -0.0733494, 0.019071452, 0.052132517, -0.021922886, -0.07399005, -0.06486203, -0.054314926, 0.026503675, -0.02283683, 0.06684126, 0.01949843, 0.016874313, 0.020287111, 0.0063904896, -0.02847141, 0.066973254, 0.0091807395, 0.0036229342, -0.0372851, -0.07339064, 0.07012631, -0.025185708, 0.055608884, 0.03676995, -0.0045088157, 0.0065470636, -0.070965104, -0.06749686, -0.0075949505, 0.06513725, 0.012114406, 0.040051423, 0.05396256, 0.01304768, -0.019509647, 0.0557227, -0.0022072196, -0.018280271, -0.027887687, -0.029802162, -0.033554904, 0.06775099, 0.019357242, 0.075503156, -0.06830758, -0.012107149, -0.051337086, 0.036664292, 0.06659268, -0.07665312, 0.052661985, -0.06353527, -0.00787621, 0.05753942, 0.0461917, 0.055859715, 0.022565193, -0.0504257, -0.07696901, -0.0276139, -0.06249182, -0.077869006, 0.040071517, -0.05784256, 0.026076794, -0.07073355, -0.034845054, 0.03182389, -0.021221358, 0.026092865, 0.029672153, 0.04965216, -0.029470474, 0.032309294, -0.06295091, -0.021978414, 0.40557054, -0.20444313, 0.030116843, -0.20707677, -0.062713645, 0.10813886, 0.014962011, -0.01465198, 0.016767362, 0.025885878, -0.24578865, 0.0355732, -0.0031016457, -0.053138465, -0.06453518, 0.0029704971, -0.15477355, -0.011503154, 0.050838437, -0.07349221, 0.00010806412, -0.023353567, 0.030354062, -0.021980327, -0.10538162, -0.08059538, 0.0113921845, -0.88786167, -0.16965279, 0.09164823, -0.13889918, -0.023481255, 0.02033414, -0.03573433, 0.021897923, -0.0751283, -0.06679844, -0.0074187955, 0.033184048, -0.44274282, -0.0684488, -0.0029393618, -0.122703895, -0.17172964, -0.0706572, -0.06682784, 0.06343022, 0.04885866, 0.078933984, -0.026921589, 0.100609176, 0.00029641675, 0.016723953, -0.07721319, -0.18921739, 0.060491204, 0.0069724554, -0.04857901, 0.07944297, 0.12454291, 0.038565427, -0.070492655, -0.012454877, -0.26596078, -0.032146007, -0.081272535, -0.00550984, 0.042885095, -0.19935495, 0.10159758, -0.6460822, 0.0036406408, 0.03803261, 0.11448051, 0.065903366, 0.052716002, -0.12862077, -0.05577391, 0.0040310672, -0.050287575, -0.04161314, -0.11461693, 0.059447087, 0.03075767, -0.10366919, 0.025012828, -0.13755105, -0.18918489, -0.04379868, 0.026000448, -0.0133289965, -0.04526426, 0.05766789, -0.04899891, -0.9390667, 0.10146801, 0.00036634604, -0.034571297, 0.08027026, -0.09006913, -0.029072901, 0.093436114, -0.0033902957, -0.09421265, -0.00015708043, 0.012852247, -0.016360583, 0.04595171, 0.20069681, 0.03431949, -0.039250627, 0.076939076, -0.035572145, 0.012084664, -0.05728111, -0.028852785, -0.098077476, -0.04914568, -0.23955087, -0.04659291, -0.004090036, -0.025745872, 0.27196488, 0.044141397, -0.08083817, 0.036018338, -0.56715065, -0.06420051, -0.070424885, -0.020376887, -0.018761134, 0.04428943, 0.011475499, -0.1391974, -0.011327913, -0.006529778, -0.1308202, -0.06971279, 0.019377455, -0.046642367, -0.06969952, 0.13159752, 0.13777632, 0.44321954, -0.18173085, -0.12761356, 0.031599347, -0.005055936, 0.113274716, -0.008256869, -0.010808619, 0.020140946, -0.050067283, 0.05538905, -0.63679165, -0.40812588, 0.09348589, 0.031102799, -0.015912915, -0.044392966, 0.04961648, -0.22287464, 0.037003066, 0.046038277, 0.12397554, 0.021038732, 0.11486506, -0.011660011, -0.15379955, 0.051621933, -0.10329751, 0.013393997, 0.04954442, 0.05165635, 0.03663214, 0.1611747, -0.09889123, -0.04784788, -0.11762567, -0.15170833, 0.01918552, 0.09411652, -0.060719587, -0.055857867, -0.12408539, -0.08228557, 0.018119907, 0.054716494, 0.024271429, -0.08179571, 0.1007022, 0.031044392, 0.2622307, 0.015443092, -0.0249439, -0.09553289, 0.0135253975, -0.22350356, 0.009945579, 0.14364854, -0.0108767785, -1.4995608, 0.0014626283, -0.041146442, -0.0801976, -0.04927772, -0.0043495884, 0.040446673, 0.02491463, -0.011693169, 0.0792976, 0.06706206, 0.030733768, -0.009587472, 0.13963617, -0.030871307, 0.010940628, 0.078382716, 0.023166835, 0.098801345, -0.14536098, 0.018421926, -0.19133857, 0.06121161, -0.06202829, 0.024928045, 0.0525559, -0.0023469122, -0.009920718, -0.020407889, 0.15346712, 0.042653386, -0.00548169, 0.053987045, -0.021704122, -0.012405132, 0.0811871, -0.061895486, -0.045074034, -0.02228501, 0.039167512, -0.016982684, -0.008360508, -0.0017255446, -0.03854816, 0.058088332, 0.005812056, -0.11736161, -0.92393875, 0.07844446, 0.09012404, 0.002970415, -0.004189962, 0.017639687, 0.0018190751, -1.3174807, -0.13798398, -0.16243073, 0.026037937, 0.43173906, -0.004033392, -0.16409267, 0.009648317, -0.015252151, -0.08999376, -0.11782802, -0.061396897, 0.016616441, -0.12992015, 0.0066983467, -0.043204907, 0.44391444, -0.121111006, 0.034495797, 0.05255929, -0.2116126, -0.08664172, -0.13457413, -0.033298954, -0.11080319, 0.0046194047, -0.028132642, -0.036711037, -1.1389027, -0.05007013, -1.4815819, -0.11690271, -0.05569932, -0.14094941, 0.016858283, -0.012638489, 0.015457709, -0.058657262, -0.37834686, -0.18320648, -1.784729, -0.16620506, -0.024480622, -0.06267572, 0.0067742066, 0.2190132, -0.04125417, -0.22736344, -0.19853583, -0.05993034, -0.0073633413, -0.038682442, -0.06909229, 0.01685578, -0.018990716, 0.017254101, -0.056122053, 0.028545924, -0.002773209, -0.15207142, 0.22181562, -0.04427022, -0.074584946, -0.16013344, 0.06482786, -0.047114678, 0.07431813, -0.005258278, -0.13276884, -0.30229253, -0.20868789, -0.1645268, 0.006427633, 0.060026973, 0.040243823, -0.16090378, -0.015270278, -0.25511348, -0.033541672, -0.07258318, -0.051743653, -0.050843865, 0.031565808, -0.063398264, -0.02297615, 0.022800058, -0.058129117, -0.020558305, -0.15979925, -0.0052867937, -0.053124912, -0.029346362, 0.017857034, -0.060078412, -0.15397948, -0.26356587, -0.17444268, -0.015902048, -0.11175821, -0.17621796, -0.026665954, 0.0014086455, -0.03768462, -0.009401576, 0.015733039, -0.0902095, -0.2293652, -0.08139966, 0.051307354, 0.044112258, -0.109831445, -0.0456563, -0.04051268, -0.02411133, -0.035345253, -0.024489187, 0.030563127, 0.010924937, 0.024231603, -0.3025399, 0.0010350889, -0.022465263, -0.099122874, 0.21127366, -0.14936148, 0.013891243, -0.015049573, -0.07112759, -0.04816287, -0.052498545, -0.03601969, 0.014738117, 0.023645418, -0.07768975, 0.051374074, 0.0019212461, -0.0049098264, -0.00063573755, -0.15675806, -0.02693736, -0.05567174, 0.015936237, -0.18703973, -0.019367961, 0.07317828, -2.673139, -0.4984701, -0.0020301628, -0.023304813, -0.13180053, 0.0007407855, -0.050168976, -0.16709873, 0.0108180875, 0.09658731, 0.074802995, -0.52259797, -0.086137615, -0.04334239, -0.09609443, -0.06721333, -0.030865787, 0.4699211, -0.054447044, -0.1500502, -0.0076094954, 0.003244642, -0.15499595, -0.012804197, -0.12018204, -0.16784176, -0.21649121, -0.13274585, -0.09687516, -0.15866707, -0.14772333, -0.045530252, -0.0022546728, -0.034652263, -0.065440245, -0.08589878, -1.8341185, -0.06259549, -0.37424096, 0.14098582, -0.12194577, 0.008689865, -0.023427557, 0.007925455, 0.030158537, 0.0977399, -0.04737735, -0.081585646, -0.018756965, -0.44755465, -0.04414724, -0.08127379, -0.017741665, 0.22218515, -0.03293786, 0.057807796, 0.021035258, -0.41629016, 0.0077316803, -0.026445288, 0.011956689, -0.0050638136, 0.02951872, -0.00026294764, -1.8884747, 0.061128333, 0.0013860665, 0.11590332, -0.0003525739, 0.015621036, -0.15122944, -0.004675866, -0.005659464, -0.09538589, -0.024901513, -0.04081545, 0.14179575, -0.019621586, 0.10709447, 0.015690396, -0.0221518, 0.01566449, -0.0006901873, -0.15316506, 0.018553637, -0.07440123, -0.18683319, -0.038692836, -0.1635145, -0.22225592, 0.013421383, -0.05236718, -0.050038632, -0.23305026, -0.041712146, 0.010786586, -0.0358973, -0.027033767, -0.1436764, 0.044200294, -0.0025070743, -0.038003135, 0.009775834, -0.006959733, -0.32717595, 0.008444293, -0.045833513, 0.007331372, -0.058908187, -0.06206521, 0.02651513, 0.057992972, -0.055270616, -0.25240144, 0.008893771, 0.46663317, 0.09035595, -0.19649553, -0.036577288, 0.010696503, 0.01792439, 0.07126299, -0.0035136691, 0.0066606463, -0.14245057, 0.0034287272, -2.270608, 0.44572407, -0.37834677, -1.7220796, -0.0012631662, -0.022728981, -0.079974115, -0.096246555, -0.035044685, -0.08158207, -0.007015191, -0.33230576, -0.012991197, -0.33116916, 0.023950763, -1.4098622, -0.021899695, -0.048198164, -0.073247276, 0.025996923, -0.020119268, -0.020599315, -0.12854078, -0.08330388, -2.3632472, -0.18998647, -0.0111775035, -0.006485182, -0.01864201, -0.07682384, -0.15979901, -0.16649804, -0.23511542, -0.0046833744, -0.027708843, 0.0014500576, -0.044311855, 0.011008525, 0.003498328, -0.045972534, -0.045352876, -0.021415487, 0.023815595, -0.07765633, -0.19885027, 0.2169839, -0.0067111114, 0.036835693, -0.027153194, 0.027508752, -0.020024477, 0.07422551, -0.026500788, -0.05453456, -0.028185235, -0.18598488, -0.2604667, 0.02886993, -0.052438222, -0.039400153, -0.049767945, 0.004170024, -0.1641403, -0.001253688, 0.007202099, -0.049964596, 0.0029272554, -0.024974125, -0.042062107, -0.023295363, -0.03781345, 0.01401557, -0.0074411035, -0.04231817, -0.1201476, -0.011095179, -0.031208562, 0.03412859, 0.05445196, -0.03463779, -1.7497414, -0.03762975, -0.091444574, -0.0811872, -0.16431546, -0.030097533, -0.023492958, 0.0013201223, 0.028260788, 0.017106013, 0.026867853, -0.036068548, -0.027343133, -0.009102868, -0.022733087, -0.09903905, 0.016161773, -0.0012110744, 0.0044517214, -0.042026237, -0.15855062, -0.028510844, 0.02236757, -0.015558428, 0.60431606, 0.013111017, -0.033766147, -0.06854614, 0.39108962, 0.013302743, 0.020219285, -0.060305066, -0.11756313, -0.0035531137, -0.023100572, 0.0049366443, 0.00067223876, -0.09868242, -0.0721256, 0.09795663, -0.027856829, -0.04583737, -0.070858724, 0.061895743, 0.006721041, -0.057165746, -0.07626301, -0.0034630345, 0.014642678, -0.40851292, -0.016311115, 0.040420085, 0.02603954, -0.06626776, -0.07708754, 0.014506459, 0.0016274339, -0.02454178, -0.0066436515, 0.025209177, -0.16074628, -0.5308368, 0.033776667, 0.013840864, -0.18126625, 0.0050969855, -0.008805906, 0.23318481, -0.010971354, 0.11624035, -0.02747271, 0.0065715327, 0.012962745, -0.01888401, -0.24178007, -0.034979656, -0.13612546, 0.033060506, -0.06431331, 0.16351655, -0.15554586, 0.14745668, 0.02260639, -0.0058959625, -0.0346859, -0.13185352, -1.9113103, -0.04593516, 0.1080377, -0.048435472, -0.16491708, 0.073840335, -0.04669624, 0.037571974, -0.07665524, 0.1720519, -0.00237924, -0.032674726, -0.41726112, -2.0978801, -0.035194658, -0.008363597, -0.004926934, 0.28469712, 0.010450537, 0.012942044, -0.06386218, -1.579478, -0.02004635, 0.01065833, -0.05192264, 0.0033013276, -0.21287516, -0.031279027, -2.089955, 0.041486274, -0.00066858006, -0.33867866, 0.0207185, -0.0044104117, -0.08424936, 0.016066426, 0.010266701, -0.078873396, -0.011109086, -0.064395726, 0.18221168, -0.0108642, -0.01851004, -0.0053694053, -0.050074898, -0.03969047, 0.045789223, -0.022452032, 0.006786659, -0.03545638, -0.12375812, -0.021074038, -0.038085207, -0.0045989756, -0.009152124, -0.028120581, -0.00090905855, -0.069664024, -0.08493501, -0.021980904, 0.016081506, -0.009593818, -0.056210637, 0.09866434, 0.02411566, -0.10349964, 0.031625815, -0.07066665, -1.0316212, -0.022079522, 0.0063229827, -0.0047047995, -0.053225428, 0.020623317, 0.0030140625, -1.295863, -0.14874345, 0.017373802, 0.0118914, 0.43169466, 0.0056698862, -0.20039636, -0.050644472, -0.050036956, 0.0040487754, -0.043496337, -0.06937168, 0.00556103, -0.1921174, -0.06782684, -2.533697, -0.48508456, -0.22041906, -1.8591834, -0.021574523, -0.173961, 0.013704018, 0.06840385, -0.016641218, 0.009353833, -0.027528506, -0.3452698, 0.033204835, -1.2027928, -0.081397794, -1.4267871, 0.003945296, 0.086456224, -0.07790082, 0.014509755, -0.05868168, 0.044593763, -0.02690152, -0.43225968, -2.0396488, -1.6089299, -0.07292008, -0.043242905, -0.065048315, 0.0056391377, 0.1957365, -0.042418737, -0.082571864, -0.1321812, -0.014152174, 0.014912432, 0.037468214, -0.02652477, -0.041964777, -0.042478517, 0.028453568, 0.012221196, 0.032628007, 0.0022182898, -0.18493925, -0.07990818, -0.056676544, 0.03059479, -0.0046067946, 0.0066842977, -0.00462551, -0.03861695, 0.010607276, 0.006966263, -0.06746892, -0.19636779, -0.12743671, 0.009132982, 0.06965876, -0.24637596, -0.054003898, -0.03923708, -0.35614398, 0.04376367, 0.044320323, -0.10898451, -0.028541598, -0.02882236, 0.016916793, 0.0071862857, 0.0005758506, 0.011752246, -0.005239375, 0.08491197, 0.05032813, -0.04916206, -0.009716953, -0.03492348, -0.03635709, -0.0049808575, -1.5200359, 0.025085943, -0.12385393, -0.023105117, -0.1671037, 0.009786761, -0.01416455, -0.007943867, -0.057136547, -0.045386653, -0.012784067, -0.009841834, -0.03017229, 0.065860674, 0.023272745, -0.00081522495, 0.022876168, -0.020541342, -0.028407112, 0.0049916147, 0.124026544, -0.015412187, -0.0733586, 0.06034343, 0.59120923, 0.020701153, -0.004686175, -0.036697756, -0.28906918, 0.02740459, 0.016385237, 0.051896527, 0.030821856, -0.0022686473, -0.0070598037, 0.008965055, -0.01476949, -0.048887156, -0.05770626, 0.12711436, 0.00047411484, -0.053906873, -0.1287158, 0.08244675, -0.00761353, -0.09848925, -0.18346977, -0.44974327, -0.019487726, 0.33085522, -1.8161184, -0.8314302, -0.007546325, 0.014711863, -0.24054036, -0.010756403, 0.013349108, 0.03877516, 0.0075808736, -0.121448316, -0.054366883, 0.0637597, -0.04809866, 0.0649474, 0.105653875, 0.02454306, -0.008714247, 0.26839638, -0.0588339, -0.09068967, -0.019051697, -0.060262382, 0.015676027, 0.0041582794, -0.047545247, 0.017990375, -0.08406195, -0.0052805794, -0.13064662, -0.07098831, -0.023757786, -0.088202834, 0.0042025726, -0.019364115, -0.069902435, -0.021544384, 0.05251968, -0.07502299, -0.016749194, -0.010978764, -0.02046081, 0.045496456, -0.007098606, 0.021976614, -0.016879741, 0.1571755, -0.05821489, -0.10108004, -0.09438615, -1.9929826, -0.0428664, 0.011694711, -0.011537614, 0.09484452, -0.018040068, -0.08248954, -0.0043058265, -1.6629742, 0.007815094, 0.0006862498, -0.009613588, -0.019175263, -0.165466, 0.022693338, -0.9370839, -0.08185208, -0.00901269, -0.29532915, 0.04643138, 0.0069762147, -0.062371522, 0.0056713712, -0.010168593, -0.12257549, 0.14848559, -0.02847764, 0.15091857, -0.09626769, 0.026756661, -0.028249808, -0.034578104, -0.001832634, -0.01904104, -0.11026283, -0.022401784, 0.015481875, -0.03981613, -0.006155888, -0.011691931, -0.2973272, -0.010285672, -0.07819862, -0.050418515, -0.098528065, -0.05776006, -0.006789278, -0.015088276, -0.011282676, -0.07743364, -0.059944723, 0.080317706, 0.0060731843, 0.019387404, -0.01343316, -1.0758686, -0.019458724, -0.013824757, 0.031023774, -0.059058074, 0.030408096, -0.031275846, -1.3904446, -0.2586225, 0.1113376, -0.04561197, 0.56027776, -0.03608185, -0.13859604, -0.08175416, -0.10059553, -0.029717367, -0.027396325, -0.1408138, -0.022952816, -0.025606638, 0.029187206, -2.6240585, 0.26318732, -0.21253581, -1.6255279, 0.026889792, -0.12173524, -0.039030258, -0.049840737, -0.004523873, -0.14975156, -0.06724365, -0.3270256, -0.026976172, -1.3705117, 0.08530169, -1.442737, -0.26119152, -0.1649492, -0.0788558, -0.0031342583, -0.008490707, -0.026528506, -0.028115014, -0.47680098, -2.5444422, -1.6213214, 0.013426165, 0.010821467, -0.09701407, 0.04277315, 0.0703434, -0.047583204, -0.32969907, 0.034917355, 0.015766732, 0.0013902241, -0.066629395, 0.020841856, -0.07161975, 0.020396579, 0.063524805, -0.04056148, 0.035123195, 0.0305401, 0.022558827, 0.0728663, -0.03575307, 0.056298543, -0.0116918795, 0.047758013, -0.0098252, 0.024477255, 0.070420586, -0.0340682, -0.038780864, -0.12759343, -0.08084412, -0.04695443, -0.002253385, 0.0007279228, 0.0139402645, -0.02392653, -0.0011282047, 0.06094896, 0.061962094, 0.007164018, -0.025344796, -0.008378509, 0.022691173, -0.00071813585, 0.05025213, -0.07702871, -0.022960274, 0.02586444, 0.1018101, -0.03729257, 0.0007133625, 0.030545743, -0.03449147, -0.09052542, -1.6745172, 0.047220632, 0.014033967, -0.07131287, 0.027634988, -0.0051764883, 0.019393262, -0.04726202, -0.034729984, -0.08702831, 0.06819016, -0.08437243, 0.0505644, -0.018886061, 0.046679266, -0.059649553, -0.026269313, 0.018290648, -0.021593077, 0.04013004, -0.029158212, 0.061553236, -0.030311741, -0.09168562, 0.4665926, -0.0739415, -0.100393035, 0.020129347, 0.4464261, -0.04418653, -0.025394436, -0.012157917, -0.0049850116, -0.072905816, 0.019647796, -0.03530362, 0.038320534, 0.048126046, -0.1537354, 0.06575318, 0.011730675, 0.04775923, -0.114734374, 0.029636575, 0.0089249, -0.0850388, -0.2881022, -0.31026173, 0.020183934, -0.20152223, -2.2409172, -0.72731346, 0.031898297, -0.05783989, -0.26481995, -0.036385816, -0.043328118, -0.05424945, -0.0013114392, 0.005859439, -0.41044816, -0.54914904, 0.019277152, 0.14219688, -0.22110374, -0.026510337, -0.036176402, -0.16654976, 0.07014241, -0.06817751, -0.1375375, -0.001817523, -0.018523939, -0.028861135, -0.1450102, -0.014944062, -0.26126975, 0.104796685, -0.1461975, 0.15368652, 0.078205995, 0.0069516054, -0.047925808, -0.02203342, -0.037603024, -0.2153809, -1.9000572, 0.03955796, 0.13732783, 0.05480633, -0.3622468, 0.090218134, -0.022188868, 0.016697055, 0.037993446, 0.07384859, -0.04445164, -0.044300552, 0.20959757, -1.7235596, -0.026788728, -0.03787066, 0.04046992, 0.30134502, -0.054802913, 0.006225486, 0.09350841, -1.6916687, -0.0051041446, -0.0682855, -0.020249767, -0.061030027, -0.18691474, -0.06462561, -2.2353878, 0.047257397, -0.001993516, -0.27337962, 0.014107051, 0.012917882, 0.029917525, 0.044171013, 0.0034585784, 0.10097444, 0.07353805, 0.029722976, 0.14088023, 0.054704122, -0.019183056, 0.0132141765, 0.026317427, 0.012747088, 0.045677885, -0.0478462, -0.058502324, -0.008090576, 0.029296106, -0.021801498, -0.16284741, -0.2092962, -0.04354761, -0.04528124, -0.10837918, -0.07849777, -0.01076406, -0.014384191, 0.014057476, 0.037548378, -0.04596908, 0.027152764, 0.07177727, -0.15072693, -0.0057291104, 0.0038203169, -1.2142197, -0.05111021, 0.011294908, 0.024291385, -0.19150272, 0.042719167, 0.05231593, 0.12190186, -0.11969848, -0.16742356, -0.22374494, 0.38380918, 0.17629667, 0.049830895, -0.2537066, 0.2768354, 0.20607023, 0.05329741, 0.3021847, -0.17986332, -0.35129344, 0.14394115, -0.05633683, 0.46514493, 0.49441463, 0.15391594, -0.22113138, 0.2664268, 0.03965476, 0.48528254, -0.058508426, -0.2064852, 0.06755216, -0.24078634, 0.28939232, -0.02386292, -0.07344035, -0.015754564, 0.0955508, -0.046898384, -0.021822046, 0.103683025, -0.20084885, 0.21268497, 0.12925005, -0.048232064, 0.05014836, 0.042217962, 0.07223807, 0.20226572, 0.3119978, 0.15117548, -0.20724103, -0.14840949, 0.36120963, 0.3735833, 0.1752434, -0.018522916, 0.014440812, -0.1401702, -0.24852292, -0.040632293, 0.31220317, -0.065016456, -0.110710524, 0.0074392823, -0.6644002, 0.12140045, 0.063232996, -0.10246743, 0.35086012, -0.4500162, 0.0657314, -0.20772113, 0.006168257, -0.4644985, -0.119195774, -0.041829914, 0.043139312, 0.0931241, 0.065771334, 0.6492159, -0.29252157, 0.006370127, -0.15950225, -0.18071066, -0.06802562, -0.022459343, 0.26181018, 0.13599944, -0.087737806, -0.032751516, 0.10230497, -0.19868408, -0.30346718, 0.5647338, 0.4326918, 0.24822171, 0.4791983, 0.13952655, -0.015196132, -0.21532278, 0.18265036, 0.0011950438, 0.5018824, -0.092727646, -0.15351409, 0.0027127697, 0.11866497, 0.03222409, -0.31684363, -0.2147114, -0.15779604, -0.10493595, 0.25538647, -0.5906657, -0.03798287, -0.20326783, 0.043737464, -0.31730902, 0.15589637, -0.42755842, -0.024879418, 0.10849053, -0.112029545, 0.23430963, -0.4534737, -0.02887335, -0.059774715, -0.012166922, 0.22377951, -0.23164795, -0.006574706, -0.15032813, 0.06075328, -0.19179422, -0.124418825, 0.00022264288, 0.07406513, 0.033259023, -0.11527536, -0.2173511, 0.09633368, 0.034671064, 0.4605391, -0.16074716, -0.008793117, 0.1389235, 0.09081284, -0.24626352, -0.19185556, -0.036743034, -0.030685062, 0.2297281, 0.05898153, -0.06246275, -0.24624084, -0.04405941, 0.3771052, 0.31869635, 0.20043856, -0.0015924352, -0.22465545, 0.0037561622, -0.14504221, 0.45689976, -0.02506331, -0.034143955, 0.07122517, 0.16571392, -0.22144109, -0.14003274, -0.110580206, -0.04666808, 0.06544888, -0.6590925, -0.2369144, 0.0253122, 0.056332067, -0.1478606, 0.050316665, -0.27966335, -0.15025285, 0.10268196, -0.0924547, -0.47933114, 0.06733326, -0.7590331, -0.047060113, 0.1221888, -0.5668964, 0.3585579, -0.48377764, -0.24035859, -0.095423125, -0.043326437, -0.030204022, 0.05080245, 0.14689569, -0.020836065, -0.03637263, -0.042929903, -0.02294995, -0.15509745, -0.025792884, 0.21862368, 0.1736287, -0.18734926, -0.032274496, -0.018726083, 0.05133674, 0.102923356, 0.030049505, 0.359656, 0.071829595, -0.06143085, 0.06539551, 0.042972732, 0.07149735, 0.0577645, -0.103371985, 0.05450597, -0.3542087, 0.22669594, 0.08867677, -0.030619778, -0.18129113, -0.0655289, 0.08156314, -0.12692945, -0.079030305, -0.24376358, 0.07482431, -0.028359294, 0.22459045, -0.051193167, -0.04439518, -0.052977912, -0.15117997, 0.12840283, 0.3653495, 0.3396101, -0.1763045, -0.15426567, 0.15047126, 0.037945658, -0.23465297, 0.2858268, 0.14298652, 0.29847953, -0.035522085, 0.2762488, -0.1001059, 0.20461023, 0.14939061, -0.40702042, -0.038872235, -0.2720163, 0.23747231, 0.13288486, 0.03592854, 0.20078708, -0.032286227, 0.13045785, -0.064541854, 0.3449996, 0.07307854, -0.15187386, -0.13529712, -0.15527883, -0.060276397, 0.18864995, -0.12528633, 0.042197783, 0.038773376, -0.29761255, 0.045866664, 0.037911855, -0.065415934, -0.13089423, 0.20569798, 0.14668602, -0.28828588, 0.026270946, -0.26077858, 0.27987903, 0.047136504, 0.11461726, 0.012258706, -0.1233192, -0.3331424, 0.19124019, -0.24605668, -0.041016184, -0.19071555, -0.16354732, -0.03368594, 0.47028947, -0.16660924, -0.136315, 0.5588857, -0.047809146, -0.062581226, 0.05864114, 0.00047083225, -0.35829192, -0.0132151935, 0.05405258, -0.47180545, 0.5756046, -0.1539675, -0.26557878, -0.236929, -0.0643644, -0.04902204, -0.10170266, -0.14878485, 0.014925159, 0.23942055, 0.227503, 0.061999347, 0.17077538, 0.026245212, -0.27686712, 0.13136269, -0.118106276, 0.073291935, 0.26886377, -0.08335634, -0.03144168, -0.021362176, -0.9202454, -0.2670265, 0.07711114, -0.28659582, -0.02493923, 0.0050195456, 0.1786964, -0.4579336, -0.1032793, -0.2942776, -0.13443191, 0.09364743, 0.08639419, 0.14769909, 0.12903239, 0.30620307, -0.15614417, -0.078717895, -0.35585108, 0.028344171, -0.22115347, -0.22008188, -0.1652856, -0.047806628, 0.25322792, -0.11732704, 0.2795679, 0.14541876, -0.06893806, 0.73269624, -0.13910243, -0.40660197, 0.018310372, -0.110395625, -0.034885876, -0.112989984, -0.09310718, 0.5070389, -0.074053526, -0.16238765, -0.26395002, -0.16984601, 0.1223835, 0.16106825, 0.02690127, 0.059861608, -0.1431354, -0.14747554, 0.1035783, -0.11250423, -0.43175477, 0.21470131, 0.023443762, 0.19841689, 0.0904969, -0.29263985, -0.24494666, -0.022361102, -0.4597914, -0.4524736, -0.17165866, 0.016149279, 0.026576845, -0.011553678, 0.26186556, -0.5596578, -0.054029882, 0.06072619, 0.00072620966, -0.089806214, 0.33665675, 0.20273589, -0.038786646, -0.14456303, -0.26389143, -0.30908743, -0.23670536, 0.19909056, 0.059565786, -0.086281754, 0.04385989, 0.09290084, -0.08535779, -0.20064141, -0.01735987, -0.12730457, 0.012518493, 0.36855653, 0.0140167745, -0.37346187, 0.14442785, 0.2446467, -0.10969341, -0.11393482, -0.035213716, -0.4336496, 0.030565545, -0.028112916, -0.052904073, -0.11624685, -0.8767064, -0.1463724, -0.14084001, -0.1885788, -0.30266336, -0.32150942, -0.17438102, 0.16580233, 0.090907335, -0.112937905, -0.32038128, 0.38042226, 0.045202177, 0.18366353, 0.1541795, -0.16830225, -0.18676361, -0.23569584, 0.045881055, -0.20534076, -0.028379131, 0.00071903144, -0.14082871, -0.5755696, -0.097070985, 0.044956803, -0.0835138, 0.0139051145, -0.114619754, -0.3334681, -0.21650186, 0.08140075, -0.08382812, 0.28534767, 0.052967098, 0.036865126, -0.22071446, 0.030408489, -0.035135236, -0.0068534263, 0.0200698, 0.024582393, 0.086405575, 0.14599383, -0.178065, -0.012130096, 0.100466, -0.06496389, 0.078437954, -0.12373841, -0.09466799, 0.047440972, 0.29444015, 0.077295616, -0.11095147, -0.11479046, -0.05941362, 0.22739293, 0.23671326, 0.24126042, -0.20971557, -0.016400926, -0.14457418, -0.007107507, 0.14844148, 0.089393266, 0.057764325, -0.1067033, -0.19060078, -0.2446321, 0.052475065, -0.042159148, -0.1812409, -0.013859131, 0.2140173, -0.062034134, -0.5254637, 0.11888267, 0.12452505, -0.025440805, 0.069663666, 0.10284409, -0.03021721, 0.04057708, 0.07025921, 0.15738526, 0.11284739, -0.018858492, 0.0153212035, -0.07429889, -0.15216327, -0.060076784, 0.04346849, 0.22116806, -0.14429599, 0.049610656, -0.079211846, -0.3469825, -0.04296684, -0.045008026, -0.04457364, 0.16291215, -0.015630791, -0.08028456, 0.0032417364, -0.24955638, -0.0981843, -0.19013073, 0.37262905, -0.08211946, 0.015068635, 0.10539358, -0.26635066, -0.57724005, -0.061969783, -0.41088414, 0.4003537, 0.1252967, -0.01370169, -0.07044189, 0.0035515518, -0.050947387, -0.12836568, -0.004047287, 0.10150024, -0.06660654, 0.23698728, -0.065333866, 0.2168874, 0.14536256, 0.27860495, -0.61220807, -0.058559954, 0.15868811, -0.10439208, -0.24902743, -0.048535183, 0.21356992, 0.13516818, -0.16520616, 0.0035271323, 0.12793823, -0.11462686, 0.0647884, 0.30031484, 0.26811245, 0.12509885, -0.10889139, 0.003306627, -0.06640732, -0.013276831, 0.102377966, 0.01256321, -0.064911954, -0.14591502, 0.08670556, -0.2681098, -0.47729698, -0.19719364, 0.26492473, -0.167681, 0.0392561, -0.064596295, 0.18226914, -0.009673418, 0.0011916553, 0.10327018, -0.14407106, -0.04684017, -0.023246013, 0.03751161, -0.14922759, -0.08154227, 0.024061756, -0.10800285, -0.051281597, -0.054081026, 0.24733496, 0.20266895, 0.21869723, 0.096777745, 0.12916842, 0.42619476, 0.09169653, 0.061431333, -0.098408565, -0.068915084, -0.25637907, -0.026585499, -0.15451378, -0.050378542, -0.23026437, -0.6505685, -0.06985312, 0.14094137, -0.022947188, -0.09362132, 0.16217771, -0.056367643, 0.15646695, 0.1272432, 0.013455031, 0.46640247, -0.029950341, 0.07158065, 0.05724489, -0.39824626, -0.32212713, -0.011023631, 0.1389883, 0.17899351, 0.006996582, -0.2940685, 0.30448234, 0.038860526, -0.1750171, 0.010342188, -0.27925506, -0.053342827, 0.14108737, -0.26442802, 0.33139345, 0.046032336, 0.11857952, 0.032876644, 0.14113182, -0.071402654, -0.009554533, 0.10900879, -0.16213529, 0.04640954, -0.46424156, -0.29185414, 0.14997771, -0.17481199, -0.43056542, 0.12626693, 0.048031993, -0.083524, -0.18160817, -0.060662266, 0.045251988, 0.42387742, -0.10003608, -0.043106697, -0.113574915, -0.49459514, 0.49637514, -0.065012515, -0.14628, -0.17737095, -0.37027344, -0.04052555, 0.076019, -0.04680737, 0.17263317, 0.2637744, -0.3393542, -0.1219347, 0.110626474, 0.056309186, -0.14752328, -0.099712804, -0.27971193, 0.16987452, 0.08918359, -0.047886048, 0.101320796, -0.16677728, 0.32775116, -0.2420884, 0.37090832, -0.091257975, 0.13871446, 0.377989, 0.06280755, 0.024412556, 0.24267024, 0.056575324, -0.70986474, 0.08728459, 0.058486067, 0.2456255, 0.07656996, 0.0906181, 0.095287085, 0.0515502, 0.20091899, -0.13521081, -0.02608705, -0.10771975, -0.08420803, 0.31634188, -0.03751294, -0.079533294, -0.020993546, -0.05106408, -0.053800292, 0.16264164, 0.07924004, -0.2960953, -0.13999951, 0.08683559, 0.09779062, -0.037080515, 0.00914146, -0.37854844, -0.043301713, -0.08890837, 0.050013725, 0.30369753, 0.13606991, -0.23700233, 0.006225868, 0.10268303, 0.044220068, -0.21948074, -0.011537293, 0.042919587, 0.090601325, -0.11046193, -0.06703495, -0.13874477, -0.029325308, 0.12429355, -0.21616468, 0.0007380651, 0.23027337, 0.1191232, 0.025077224, 0.043538425, -0.18488272, 0.43966573, -0.15855144, -0.33278063, 0.41106513, -0.15116389, 0.38999197, -0.17199568, 0.062794216, 0.03823253, -0.112887844, -0.124355905, -0.0806384, -0.9889149, -0.6439066, -0.15107062, 0.037075423, 0.95036656, 0.21452513, 0.18415505, 0.11124535, 0.030914534, -0.041165903, 0.14433493, 0.3892868, 0.09152864, -0.12603855, -0.21116096, -1.9232991, 0.3320445, -0.701257, -1.4183222, 0.019736199, 0.27317277, -0.0018123307, 0.024916226, -0.102306604, -0.31361324, -0.021785337, -0.11145282, -0.029149568, -0.27025753, 0.07324702, -1.6530917, -0.0942, 0.070781246, 0.052517805, -0.06109704, 0.17147018, 0.045243453, 0.08471911, -0.22581385, -0.06938224, -1.0598252, -0.098563634, -0.0378511, 0.040967397, 0.30069742, 0.15696158, 0.28542382, -0.2649636, -0.019233318, -0.02546446, 0.03799832, 0.004600681, 0.040579263, -0.014725876, 0.16321898, 0.043452717, 0.055201113, -0.079475075, -0.056944847, 0.081098944, 0.22488403, -0.015891334, 0.30771932, -0.15813468, 0.23585989, 0.09314305, -0.047833897, -0.0038898396, 0.06292024, 0.1159789, 0.20226508, -0.67490077, 0.06380318, 0.06585364, -0.19217743, -0.061046377, -0.099368386, -0.3841394, 0.03350732, -0.029322142, 0.103848755, -0.2858484, 0.0848633, 0.04642274, -0.0062499926, 0.33158928, -0.042333595, 0.15271935, 0.07802045, 0.082088254, -0.00024899567, 0.054192774, 0.051581778, 0.36714414, -0.08866758, -0.7896999, -0.0607101, 0.006546662, 0.060317095, 0.024499694, -0.006185884, 0.21172148, 0.027031226, -0.022081347, 0.16044243, 0.018996252, 0.031461764, 0.11336873, 0.036975667, 0.28153554, 0.03278735, 0.025014197, -0.014135827, -0.0776868, 0.058758132, -0.012194025, 0.04031709, -0.019657884, -0.0775444, -0.21106751, -0.011995384, -0.06523009, 0.20898366, 0.61305636, 0.004012623, 0.10460948, 0.11689955, -0.25007015, -0.07188493, 0.04588838, -0.023215786, 0.10254105, -0.10604192, 0.058149222, -0.06802025, 0.031528734, 0.0306564, 0.091841884, 0.067654215, -0.013219487, 0.036971774, 0.41752228, 0.1374079, -0.021514466, -0.15278196, -1.4363176, -0.6684738, 0.021483952, -0.027017375, -0.10640217, 0.04887032, -0.06601937, 0.0076446435, 0.07570124, -0.06333836, -0.19986577, -0.45496556, 0.0024305345, 0.022198102, 0.05129425, -0.005508325, -0.058858488, 0.26541725, 0.13415943, -0.08530805, 0.12729342, 0.045968156, 0.03981944, 0.12081274, -0.27532208, -0.052213132, -0.36264607, -0.12020768, -0.3129293, 0.29691818, 0.053169932, -0.015965922, -0.069271125, 0.08490525, 0.09102679, -0.14712253, -1.6333213, 0.1559907, 0.19307844, 0.16325875, 0.11611495, 0.23023139, 0.13798662, 0.059525337, -0.0994717, -0.19882081, 0.049697965, -0.03478501, -0.2833725, -1.4901723, -0.066455804, -0.12608467, 0.10908175, 0.43438235, 0.068716094, -0.011321392, -0.03215146, -0.15630293, 0.12431589, -0.09830962, 0.10338446, -0.018173462, -0.20648631, -0.011086412, -1.7002745, 0.28310433, -0.12246308, -0.5000808, 0.037493516, 0.065735474, 0.08977046, -0.08224633, 0.15029062, -0.025083533, 0.10383736, -0.015910303, -0.21895318, -0.13106273, -0.046879295, 0.010771907, 0.06652548, 0.034906086, 0.12348133, -0.031502545, -0.01920911, 0.031693686, 0.3869694, -0.03386677, -0.09757003, -0.38757175, 0.07129356, -0.07631334, -0.018521478, -0.034236107, -0.27082932, -0.1500658, -0.08240076, -0.05001884, -0.08112637, 0.18655069, 0.31056342, 0.04601109, -0.037105598, 0.18631937, -0.4557786, 0.070837036, 0.032468367, 0.08592662, 0.0039621, 0.029784001, -0.0071593937, 0.07607214, -0.1497971, -0.17261037, -0.072495006, -0.17235065, -0.02695335, -0.21214864, -0.20283605, -0.009223568, -0.010861158, -0.15223567, 0.08714568, 0.0010270763, -0.12756036, 0.06561358, -0.16939847, -0.0010638621, 0.07224904, -0.05081635, -0.23537222, 0.11215477, 0.023638107, -0.04677525, 0.0063581485, -0.24831375, 0.0014999752, -0.43098396, -0.022373825, -0.013285835, 0.005895897, -0.10061102, 0.027372649, -0.002752402, -0.039945472, 0.050388254, -0.09571045, -0.05817054, 0.11871808, -0.10491794, 0.12275076, 0.022972886, -0.08089033, -0.052990075, -0.01951236, 0.041057836, 0.046588656, -0.17757532, -0.1534043, -0.2091374, -0.03459176, 0.024865618, -0.05971744, -0.10348422, -0.14998336, -0.006060745, 0.18300755, -0.029455347, -0.04506601, 0.07020923, -0.14210556, 0.001344091, 0.012336564, 0.017763393, -0.09755672, -0.06869992, 0.082978204, -0.026031293, -0.00036338568, -0.04919484, -0.2410054, -0.23508331, 0.036240645, -0.16365433, 0.034159955, -0.13155131, 0.021216702, 0.104270704, -0.13151683, -0.03351401, -0.06090163, -0.03997941, -0.025193805, -0.021634733, 0.0031577246, 0.032794923, 0.015845837, -0.0343552, -0.047966093, 0.02391054, -0.031186918, 0.004318285, 0.0027622855, 0.05311217, 0.017188227, 0.1354417, 0.1496761, -0.11134321, 0.031271838, 0.034464777, -0.22890109, 0.026122065, 0.02404405, -0.020558305, 0.07747164, -0.06767196, -0.026484456, -0.23597951, 0.022874177, 0.055325635, 0.19090399, -0.06733741, -0.03157582, -0.042574134, 0.00070627296, 0.051802248, -0.12525675, 0.045094874, -0.023239698, -0.06290306, -0.4014878, -0.0222092, -0.1077017, -0.14358512, -0.07959432, -0.13794364, 0.050775446, -0.018431071, 0.10794551, -0.10912365, -0.041444063, -0.03456288, 0.0044976664, 0.031396374, -0.05142109, -0.024276905, -0.0025452003, -0.022534557, 0.01885136, -0.01279683, -0.016729355, 0.021071823, -0.025586862, 0.05849794, -0.13295275, -0.33554953, -0.049230423, -0.08073511, -0.03314219, -0.018075978, -0.19793701, 0.010232238, -0.06487148, -0.14633814, -0.072065555, -0.041643646, 0.13624126, 0.0098047005, -0.06982643, -0.08852555, 0.052849364, -0.05820367, -0.027330615, 0.16520415, -0.038673345, -0.27818385, -0.06285063, -0.026518993, -0.17062713, -0.88800037, -0.18288724, 0.0038124246, -0.16926216, 0.050130002, 0.06496331, -0.08975882, 0.06366778, 0.057921447, 0.009673333, -0.485637, 0.03933129, -0.057963036, -0.004759094, 0.02483273, -0.23089023, -0.078498445, -0.13957323, -0.0066311313, 0.0423333, 0.02711133, 0.019206777, 0.12809825, -0.04595834, 0.0035802738, 0.1382122, 0.006946885, -0.035515588, -0.04114336, -0.045528196, -0.023696331, -0.06424944, -0.0700341, -0.022982584, -0.030793192, 0.055957817, 0.017259525, -0.025822252, -0.004725325, 0.0045107994, 0.037105326, -0.04122788, 0.045836728, 0.04045626, -0.07074198, -0.054796256, 0.0353986, -0.15472558, 0.04861543, 0.0040535773, 0.070384435, 0.09066511, 0.0073063457, 0.17303202, 0.1085315, -0.04431985, -0.018183518, 0.015188195, -0.030672785, 0.013417504, -0.074079916, 0.0014367463, -0.010780118, -0.08834656, -0.04690202, -0.12852807, -0.03172629, -0.042103533, -0.10178292, -0.003760183, 0.030247869, -0.024189938, 0.027460475, 0.031002367, -0.04536897, -0.03361857, -0.036308557, 0.05704166, -0.20113274, -0.01982167, 0.12477974, -0.010515709, -0.025600357, -0.0015998653, 0.037380524, -0.047099803, -0.18690093, 0.028556654, 0.055161722, 0.037904024, 0.037951104, 0.055827916, -0.056964915, -0.1236032, -0.21912833, 0.026513973, 0.06427715, 0.08188301, 0.09715303, 0.03089434, 0.026627218, 0.018498179, -0.009144534, -0.08957711, 0.08774883, 0.114723995, -0.055622995, -0.04590412, 0.17024888, 0.004876852, 0.09219746, -0.01146926, 0.030646978, 0.042577732, 0.06567279, 0.033054452, 0.016970288, 0.115136266, -0.1276558, 0.10496261, -0.038159203, 0.0056011705, -0.023816073, -0.16062526, 0.0327342, 0.013395793, -0.0036143907, 0.03922356, -0.00051626045, 0.0055567157, 0.00588628, -0.05349539, -0.015462037, -0.015774785, 0.07716838, -0.0889552, 0.00852861, 0.046063542, -0.026684176, 0.027079687, 0.05176778, -0.05353543, -0.10468677, 0.11196122, -0.020121347, -0.0067424495, -0.034343194, -0.22145368, -0.009379113, -0.02179972, 0.11951489, 0.026392521, -0.019866047, -0.024276424, -0.008384532, -0.017763684, -0.09000446, 0.06453191, -0.2170092, -0.059464574, -0.17609748, 0.07260945, -0.2680362, 0.0078836465, 0.054673627, 0.020648383, 0.047836524, 0.016735809, -0.06799122, 0.04711215, -0.06099759, -0.04722747, -0.058738388, 0.022890165, 0.0370666, 0.002846966, 0.09311653, -0.103613585, 0.04020353, 0.010427838, 0.0021741742, 0.009337941, -0.061384004, 0.008655857, -0.05609852, 0.01606775, 0.07272858, -0.22078347, -0.0012551211, 0.015870916, -0.0064188596, -0.038641557, -0.009225579, 0.09609718, -0.066381626, 0.10807146, -0.053027004, 0.19752167, -0.030865915, 0.044629447, -0.027522, 0.030152451, -0.037391834, -0.031294666, -0.110760726, 0.0034868594, 0.12940271, -0.032781355, 0.027913487, 0.004287018, -0.029299475, 0.06037119, 0.03278718, 0.035878286, 0.038855635, -0.22909929, 0.0009801704, 0.08030258, -0.0058438336, -0.05932615, 0.17117552, 0.021657502, 0.10959735, -0.051998645, -0.015088764, 0.05177716, -0.0808451, -0.010809488, 0.0066748005, -0.1511128, 0.1680175, 0.041596375, -0.06576525, 0.043077458, -0.026073713, 0.035639822, 0.0103090415, 0.18097696, -0.042715624, 0.022060364, -0.07186089, -0.020744292, 0.013946113, 0.11594798, -0.034692753, 0.06658143, 0.08316234, 0.009675475, 0.0060152137, 0.009924816, 0.07772757, 0.008530681, 0.02216839, -0.0665341, -0.020788217, -0.040163912, 0.0063275676, -0.27905664, 0.021592643, 0.13393633, 0.11913626, -0.068373576, -0.054053184, -0.37869823, -0.073669575, -0.002672503, -0.011395648, -0.02313072, 0.010846117, 0.028810324, 0.06442531, 0.15246214, 0.0065927757, -0.06265048, 0.004807357, 0.07788752, -0.0008977764, -0.023326878, 0.19341612, 0.055504993, 0.15107943, -0.22445887, -0.015263599, 0.037929244, 0.04313919, 0.026578192, 0.08959765, -0.054259565, -0.06598874, -0.008435641, 0.006698586, -0.20483856, 0.0175248, -0.050254215, -0.010868655, -0.042402364, -0.053787608, -0.14330173, -0.20781577, -0.0036505205, 0.023180738, -0.061786972, -0.03264192, -0.11175091, -0.050379515, 0.03647694, 0.109202966, -0.0538124, 0.051919214, 0.21498376, 0.020582678, -0.09486563, -0.0022788376, 0.15976594, 0.008504816, 0.013495376, 0.038566645, -0.030833587, 0.0026050378, 0.0027436325, 0.054679673, -0.06205318, 0.29921183, 0.008567008, -0.0105355, -0.00073514815, 0.05816601, -0.0742642, -0.036982264, 0.030973436, 0.004005067, 0.11775234, 0.021147078, -0.03298284, 0.112762, -0.06932435, -0.029214794, -0.017944047, -0.07485457, 0.01155233, -0.0028918437, -0.013179163, -0.06407021, -0.05115334, -0.03053682, 0.013434698, -0.123592205, 0.036824644, -0.099095546, 0.015640631, -0.2116447, -0.021852583, -0.0041535427, 0.0100295525, -0.0039645904, 0.046965368, -0.017723387, -0.061436664, -0.01529243, 0.016207082, 0.004816386, -0.34071505, -0.020928673, -0.09796497, 0.21228501, 0.11002748, 0.0383549, 0.03352353, -0.49668437, -0.03552037, 0.03940886, 0.05797763, -0.017035265, 0.12436589, -0.0054552564, 0.02808967, -0.020611603, 0.003522505, -0.04810953, 0.06733507, -0.010405047, -0.043304734, -0.0015920991, -0.16955517, -0.016753688, 0.028167428, -0.04660971, -0.017264348, 0.06543669, -0.006755504, -0.0004964223, -0.020549411, -0.18211137, -0.011862466, -0.02978067, -0.05237368, 0.011584216, -0.05325306, 0.0021515822, 0.09485523, 0.034037504, 0.011362554, -0.10835196, -0.26304352, 0.0047782026, -0.07390797, 0.058422532, 0.10174215, -0.005033536, -0.062721305, 0.0019547874, 0.008942591, -0.08471374, -0.14332038, -0.2390931, -0.26996663, -0.08875367, 0.06408088, 0.08686294, 0.101674855, 0.010336252, -0.13797118, 0.06974373, 0.03623747, -0.014420887, -0.08749053, -0.039056454, -0.036846045, -0.002018768, -0.032529343, 0.05035939, -0.05763982, 0.074549034, -0.026155395, -0.0033001122, 0.030780822, 0.0077312547, -0.000550708, 0.0663187, 0.0050914283, -0.027564676, -0.06330379, 0.016872216, -0.20388727, -0.047897283, -0.05637607, -0.043798152, -0.05848879, -0.08874953, -0.040735383, -0.07332997, -0.019225666, -0.0777429, 0.106866375, 0.0031434183, -0.006745041, -0.034906376, 0.023647841, 0.020426309, -0.057874154, 0.07628417, -0.09789185, 0.00038061594, -0.11775161, 0.025766907, 0.019263744, 0.010823872, 0.07358287, 0.02686954, -0.0010513073, 0.01216074, -0.14531823, 0.046517786, 0.09896007, -0.01291105, -0.004613443, 0.090658486, 0.08492784, 0.14874417, -0.036531456, 0.0054092533, 0.062315628, 0.04464722, -0.016872838, 0.0344885, -0.050547868, -0.018943688, -0.06609553, 0.15198013, 0.036954917, 0.0141341, -0.023113638, 0.015280253, -0.079790235, -0.049063027, -0.013894685, -0.11813011, 0.010962988, -0.034396213, 0.24062514, -0.058072325, 0.041652918, 0.08628172, 0.016259989, -0.009876569, 0.0042431476, 0.11407881, -0.07130458, -0.07016601, -0.039733704, -0.064560376, -0.025026508, -0.019166421, 0.045988854, 0.029549163, 0.09275914, 0.018053953, 0.054324236, 0.019223785, 0.24091683, 0.09208052, 0.058739267, -2.3335757e-05, 0.03425692, 0.19044806, -0.098589055, 0.009643483, -0.1977983, -0.002166295, -0.12932408, 0.005050676, -0.042571355, -0.059736323, 0.007303231, 0.19758095, -0.0076937373, -0.03258462, 0.12683903, -0.09371984, 0.038071956, 0.040334556, -0.00011613543, 0.004608271, -0.09604612, -0.12007851, -0.066353105, -0.042878095, -0.11560608, 0.0062369993, -0.12820087, -0.012830604, -0.041487392, 0.0019664874, -0.041998997, -0.050875425, -0.022265801, 0.01662124, -0.0030391943, -0.015801197, -0.103792444, -0.001030689, -0.004974106, 0.09530545, -0.035106696, -0.008319525, 0.19331764, 0.007662422, -0.1822902, -0.04073454, 0.014993101, -0.072734416, -0.10888255, -0.067108616, 0.019679397, 0.007771695, -0.049170353, -0.035144556, -0.025008729, 0.14185902, 0.0047598737, 0.014447394, -0.06411894, -0.026747035, 0.08342744, -0.017641876, 4.5460954e-05, 0.009318565, -0.0014494729, 0.0045926557, -0.057193894, 0.038263835, 0.0029053574, -0.0061969697, 0.0039773374, 0.071986966, -0.029287297, 0.04729282, 0.0016063337, -0.02285559, 0.033203207, 0.040676862, 0.08204574, -0.49966392, -0.007133154, -0.052952394, 0.03889954, -0.18650281, 0.14511937, -0.024810623, 0.010828243, -0.14184552, 0.037311856, -0.018709432, 0.061400127, -0.4544738, 0.010764045, 0.09961118, 0.14784274, -0.047061756, 0.09567067, 0.039405063, 0.10257146, 0.025856767, -0.044577543, -0.037879307, -0.034510363, -0.04756282, -0.025304671, -0.029398588, -0.012339028, -0.20398091, -0.1640148, 0.06582259, 0.06123828, -0.028748542, 0.03702015, 0.018736107, 0.08085164, 0.002930729, -0.02185163, -0.07406558, 0.0035874723, 0.0033258249, 0.10973689, -0.027366146, -0.02546582, 0.101521514, -0.17420371, 0.054893803, 0.072956696, -0.011503105, 0.043785248, 0.035371397, 0.15596476, -0.0153386025, -0.037897952, -0.04477234, 0.028666938, 0.013563318, -0.03839272, -0.15060809, 0.026612181, 0.032795083, 0.060060773, -0.40005088, 0.023656366, -0.007926694, 0.04393281, -0.047951184, -0.7707913, -0.18485758, 0.21402416, 0.00026308192, -0.07655014, 0.17366204, 0.18044166, -0.007583806, 0.04904588, 0.007836903, -0.012081559, 0.061749455, 0.061095264, -0.0024841954, 0.13957885, 0.0017353606, -0.068102725, 0.031878546, -0.03851208, 0.10703036, 0.1504248, -0.04534718, 0.017083256, 0.0031285968, -0.021925814, 0.03564569, -0.045950554, 0.09100603, -0.05925228, 0.005492835, 0.01369096, 0.023985935, 0.022461507, -0.07589835, 0.0038100726, -0.15163136, 0.07064014, -0.2310142, 0.06356107, -0.065291725, -0.15351494, -0.043216858, -0.045397248, 0.1313116, -0.07538692, 0.10510633, 0.023145018, 0.0012059661, 0.05855577, -0.16151148, 0.035403468, 0.022849109, -0.036682785, 0.05429066, 0.019933598, -0.02144237, 0.011112229, -0.0058749164, -0.5193162, -0.00090927316, 0.1671099, -0.03382062, 0.016730977, 0.045554735, -0.0897115, 0.0623255, -0.08876738, 0.0041992003, 0.111874856, 0.10592896, -5.6898316e-05, 0.035153862, -0.028950283, -0.28865138, 0.09577132, -0.007903547, -0.014374516, -0.11724157, -0.0042340686, -0.065199375, 0.073428884, -0.044947196, -0.02687218, -0.0940037, 0.01542198, -0.080110885, 0.24254648, -0.027733246, -0.04014, 0.107148096, 0.20193832, 0.03515721, -0.027464721, -0.21709052, 0.075332396, -0.56673896, -0.032505486, 0.0533441, -0.057875358, 0.018405085, -0.06134098, 0.05459206, 0.0800427, 0.1119173, 0.02326028, 0.073852964, -0.008710671, -0.041187294, -0.088591345, -0.0075779837, -0.08494351, 0.047370832, 0.021127898, 0.13436712, -0.064634435, 0.017765062, 0.14767842, 0.011845806, -0.0037106334, -0.0446721, 0.053856857, 0.10980452, 0.03087314, 0.021011457, 0.06137273, -0.51379323, -0.062230006, 0.01876538, 0.038061824, -0.0024300094, 0.030431341, 0.022106286, 0.0054502822, -0.056114994, -0.01435088, -0.07232406, 0.032885358, -0.07611829, 0.044189673, -0.07682498, -0.1626401, 0.014932887, 0.07099239, -0.022149116, 0.020388851, 0.03404719, -0.019367918, -0.123624265, 0.0044382974, 0.012335487, 0.10597081, -0.05275576, 0.18468066, 0.01774563, -0.10823469, 0.010352981, -0.045382906, -0.042798497, -0.017816285, -0.10151587, -0.0076008006, 0.057078198, 0.0044000233, 0.02196298, -0.03420419, 0.55727184, 0.055252664, -0.04843205, 0.025068333, -0.007974099, -0.005771063, 0.07952112, -0.021029636, -0.042277016, -0.115053296, -0.08063311, -0.223844, 0.098293915, -0.013912579, 0.039572667, -0.038767066, -0.050368164, 0.0009318905, 0.009887329, 0.058077663, -0.03379534, -0.03156255, 0.039990574, -0.06040761, -0.026670065, -0.014262773, -0.060018875, -0.03305605, -0.058334477, 0.004338987, 0.02684199, -0.00039170682, 0.011496432, 0.034989037, -0.0321173, 0.0037702918, -0.020107746, 0.011925653, -0.04334522, -0.060135223, -0.06738991, 0.026607461, 0.02480565, -0.039524358, -0.020931046, 0.037892714, 0.06727384, 0.06386079, 0.06909673, -0.004510857, 0.051638186, 0.015226893, -0.05082666, -0.07440542, 0.04238441, -0.062036727, 0.038097635, -0.07183697, 0.0014859289, -0.05834147, 0.07079019, -0.067198694, 0.05256261, 0.041462973, -0.066007026, -0.03714245, -0.014703028, -0.03573393, -0.04471018, 0.029339723, 0.019746013, -0.067240834, 0.067484915, 0.039781936, -0.030413143, -0.035276856, -0.038912594, -0.055186115, -0.049256742, 0.057902083, -0.024552166, 0.030074678, 0.014284648, -0.035365783, 0.040217385, -0.056341413, 0.05225271, -0.05456465, -0.039500542, -0.015898079, -0.06505781, -0.07589641, -0.030404374, 0.05977562, 0.07446703, -0.027610313, 0.032663934, 0.020614155, 0.06918952, 0.027092524, -0.028460007, -0.0038388968, 0.074448615, -0.06675228, 4.0769577e-05, -0.038626697, 0.03891304, -0.020708371, 0.004750766, 0.029030256, -0.0048798844, -0.009630598, -0.047231205, -0.038199175, 0.023836263, 0.0004031062, -0.015471593, -0.048518777, 0.030042954, 0.013715036, 0.0200895, -0.01784303, 0.031835794, 0.062710285, -0.0049122646, 0.028758526, -0.07716882, 0.041468486, 0.040982082, -0.0105884895, -0.0026495457, -0.024931438, -0.03134982, -0.024240341, -0.029739916, -0.006620176, 0.04523758, -0.04422832, 0.046553195, 0.013023689, 0.02038385, 0.011579655, 0.029013507, -0.036263015, 0.031013802, -0.032011196, 0.05005096, -0.038695376, 0.029609472, 0.01759351, 0.013556793, -0.0013056695, -0.05785381, 0.054097757, -0.0083389655, -0.008276403, -0.046653595, 0.04971561, 0.049463302, -0.07553077, -0.06236678, -0.021108784, 0.019465834, 0.054770127, -0.029818915, 0.0723141, -0.06373514, 0.045435824, -0.010779835, 0.01356633, -0.049547896, -0.06869981, -0.019435901, 0.01603178, -0.07670795, 0.01711727, -0.06950768, -0.06871252, -0.008131638, -0.049547557, 0.011613496, -0.0060721934, 0.047405764, -0.025453642, 0.0062881634, 0.06482664, -0.07414096, 0.02139844, -0.06600648, 0.04140853, -0.0040218905, -0.061073095, -0.061381593, 0.061032668, -0.025552344, 0.008906171, -0.07617156, -0.014418118, 0.04023826, -0.06956193, -0.0019814745, 0.07618046, -0.047160227, 0.014422663, 0.0047098845, -0.051032886, -0.004570715, 0.033180453, -0.019368026, 0.06485258, -0.030501656, -0.025726419, -0.0460431, -0.006017089, -0.05934333, 0.025113754, -0.04765605, -0.04767742, 0.02421473, 0.010211438, -0.024453465, 0.073798716, 0.038814567, -0.031439472, 0.06251122, -0.074354686, -0.071011536, -0.040472288, 0.055833668, -0.049652033, -0.01625726, -0.05406501, -0.05776113, 0.0532905, -0.01550068, -0.039391205, -0.03992726, -0.00815323, -0.060286865, -0.06289126, -0.050805777, -0.0449938, 0.07492542, 0.044646733, -0.04756212, 0.066824615, 0.060683236, 0.046373308, 0.046187364, -0.04444752, -0.033820596, 0.029762216, -0.03709344, 0.047332242, -0.021991175, 0.051556885, 0.07812634, -0.060939867, 0.010617912, -0.045764964, -0.060399923, 0.06300892, -0.04788006, 0.061483636, 0.037974782, 0.0034859478, 0.07097876, -0.052291594, 0.040022768, 0.028811373, -0.0023004636, -0.07320524, -0.07476805, -0.06541748, 0.049171746, -0.06417444, -0.03170608, -0.008979388, -0.006613314, 0.06339806, -0.068561226, -0.012927629, -0.00022970885, 0.06187901, -0.0040841177, 0.063824475, -0.057959225, -0.044437535, -0.023467384, -0.01124426, -0.012374185, 0.02785819, 0.048011377, 0.030327566, 0.07545219, 0.060744688, 0.029144958, 0.06482613, 0.036080472, -0.040043086, -0.051295005, 0.009021431, 0.062044412, 0.044784114, -0.075001985, -0.031244386, -0.00997439, -0.016103823, -0.038358707, -0.02923749, -0.014978975, 0.00062426925, -0.0486933, -0.046363324, 0.07698247, 0.032382093, 0.057656184, 0.06760059, -0.055508748, 0.013529405, 0.025742196, 0.035571054, 0.04708919, 0.043198496, -0.061846223, -0.0648916, 0.040934764, -0.021858022, -0.03740818, -0.022880144, -0.053528376, -0.0259768, 0.06430657, 0.02769681, 0.00088082254, -0.060892403, 0.05003333, -0.07408045, -0.015968408, 0.03651607, -0.04951146, -0.020447634, 0.014628641, -0.059905984, -0.009785868, -0.011437811, -0.047417335, -0.070681855, 0.063623324, -0.052582037, 0.07425985, -0.072405234, 0.07789686, 0.044197775, 0.053211883, -0.05058516, 0.019053884, 0.075999826, 0.04810001, -0.056082994, 0.07451692, 0.040125936, 0.036371082, -0.024745215, 0.021433078, 0.00935363, -0.022349268, -0.07507236, 0.011696324, -0.035501555, -0.061861515, 0.028961271, -0.02973225, 0.06931268, 0.05510351, 0.048677847, -0.054785572, 0.031933017, -0.067467004, -0.068342775, -0.07232449, -0.03227524, -0.001828298, -0.02719526, 0.020639785, 0.034115016, -0.043131627, 0.0686712, -0.025101028, -0.067274384, -0.056218635, 0.04773797, 0.057629973, 0.024934247, 0.04089091, 0.040468775, 0.034334034, 0.046243027, -0.014996119, -0.06321707, 0.0067591965, -0.004377216, -0.07729185, -0.050815053, -0.0015163794, -0.07073059, -0.0731017, 0.057750374, -0.03849474, 0.00016859919, -0.0042907, 0.040518478, -0.014293097, 0.04961495, -0.005640708, 0.029001355, -0.030317843, 0.024260327, 0.057062194, 0.042301394, 0.027407058, -0.03895819, -0.0017754138, -0.07641377, 0.04404729, -0.04010627, -0.06918565, -0.055163853, -0.05363869, 0.0104408115, 0.0625765, 0.019972615, 0.057015896, -0.060644846, 0.005337894, -0.018628083, -0.023186717, 0.0048635826, 0.01228971, -0.016643897, 0.054662302, 0.008876167, 0.01529026, -0.013789937, 0.056922764, 0.006268233, 0.00860621, 0.072564036, 0.0691379, -0.07528484, 0.030258775, -0.026149977, 0.017552063, 0.0026923716, -0.038850963, 0.05151944, 0.020706296, 0.052566707, 0.039620966, -0.03789991, 0.04434289, -0.003845796, 0.033484153, 0.019978575, -0.020259485, 0.0100966245, 0.060644552, -0.051822484, 0.017827027, 0.075484276, -0.04090362, -0.0145328045, 0.07318792, -0.06645613, -0.056698106, 0.0032844841, -0.009873763, -0.048544165, -0.06978741, -0.06950576, 0.006651446, 0.007853515, 0.024533808, -0.0102213845, -0.07463793, 0.036965854, -0.039811004, -0.06170191, 0.04194949, 0.058724165, -0.045753222, 0.036913812, -0.01489944, -0.038126383, 0.04808615, 0.025482148, -0.024681788, 0.04609131, -0.03265455, 0.044777624, -0.007901408, 0.0762998, 0.0007335171, -0.0041168183, 0.057225153, -0.026208058, -0.01847614, 0.058618307, -0.060041927, -0.004018858, 0.06906071, 0.038903177, -0.037891332, -0.06343902, -0.051375985, 0.014679939, 0.0026439726, -0.046689544, -0.029801715, 0.022255443, -0.046624266, -0.049561575, -0.016212374, 0.020896465, -0.06461652, 0.010707416, -0.049401112, 0.0002713725, -0.06577515, 0.007129103, 0.02800493, 0.03169436, -0.0052739605, -0.058068395, 0.078317925, 0.051254734, 0.06845851, 0.030624583, -0.016918823, -0.025684714, 0.049058855, -0.055392906, -0.032500964, -0.04612623, -0.063141435, -0.01648704, 0.01190941, -0.02524136, 0.031042159, 0.07238108, -0.053903483, -0.021323014, -0.060343824, -0.027164511, -0.012156442, 0.065833285, 0.07091232, -0.024218582, -0.07199128, -0.0445359, -0.0058393627, -0.0077045113, 0.002029799, -0.013208255, 0.030611105, 0.03720648, 0.042150497, -0.05747196, -0.00492239, 0.020181976, -0.0035093874, 0.04086203, 0.046854556, 0.058485746, 0.056715116, 0.03219583, -0.06453584, 0.07787129, -0.0061452687, 0.03352438, 0.005975455, 0.003005527, 0.049725592, -0.027962107, 0.01992029, -0.062773384, -0.062194034, -0.07423949, 0.012127243, -0.012611389, -0.046870086, -0.054647163, 0.058062494, -0.046065684, 0.05593264, 0.027853794, -0.057051636, -0.03266397, -0.00040959567, 0.039733127, -0.05711194, -0.076372795, -0.029879406, 0.016724072, 0.06944665, 0.034006953, 0.014933512, -0.035830427, -0.050636493, -0.034649335, 0.027182251, -0.021951173, -0.012726687, 0.014300108, -0.076932766, -0.047630258, -0.068693355, -0.0566658, 0.003719762, 0.034323134, 0.0561734, -0.019051526, -0.0007794276, -0.008488819, -0.053856373, -0.06570984, 0.06403755, 0.005288057, -0.057419896, 0.015022144, 0.028407015, 0.03872209, 0.055878952, -0.019652132, 0.045259044, 0.0031415746, -0.04818383, 0.015372738, 0.045824483, 0.036089465, -0.026993912, 0.011427492, -0.02354595, -0.040124927, -0.067802705, -0.032275353, -0.034849543, 0.06462726, -0.047883086, -0.04124091, 0.07004267, 0.007060647, 0.0692852, 0.012928769, -0.05955537, -0.02601415, 0.019275792, -0.0076899678, 0.04582203, -0.031388383, 0.027444914, 0.060813487, -0.010028243, 0.062434644, -0.061208062, -0.017045472, 0.046700403, 0.0003787279, 0.004756488, 0.049433485, -0.065664634, 0.009006329, 0.0052311346, 0.022947758, 0.06833154, 0.06443398, -0.0714164, 0.05126944, -0.04653921, 0.046167225, -0.050544217, -0.00932885, -0.07235674, 0.06572759, 0.06905137, -0.008292943, 0.00664068, 0.03319326, -0.055095118, 0.011939056, -0.0037327036, -0.03547873, 0.073412806, -0.039937764, -0.028920166, -0.044202168, 0.051833063, -0.057645734, 0.01590208, -0.058601104, 0.063715205, -0.027895652, 0.055798754, 0.008284777, 0.064400226, -0.05933114, 0.041959167, 0.008280627, -0.047679663, -0.048730858, 0.03192962, 0.038184315, 0.05359423, -0.06546598, 0.02134335, 0.055030942, -0.05612212, -0.021128133, 0.0017745346, -0.021545503, -0.021257643, -0.0013092756, 0.07690914, 0.027762458, -0.019165147, 0.015177503, 0.03753367, 0.06412648, -0.005874045, -0.03228984, -0.022785835, 0.012151398, 0.024530947, 0.023121625, 0.0048055574, -0.066051796, 0.0216586, 0.02630435, 0.041415565, 0.033242464, -0.0045567304, 0.01695174, -0.059826538, 0.06514913, 0.068848014, -0.038133208, -0.015292227, 0.0029053092, -0.009546697, 0.03127951, -0.0703499, 0.07831158, -0.020131376, 0.04291282, 0.039194718, 0.025089249, 0.0028260872, 0.03769619, 0.029009633, -0.037870824, -0.014514372, -0.04177934, 0.0033010691, -0.040091988, -0.015891261, 0.035867497, 0.06533638, -0.0036219805, 0.009887204, -0.009232387, 0.07796413, 0.059294775, 0.0460566, 0.013145633, 0.04264109, 0.07772021, 0.004834704, -0.07045357, -0.07773744, 0.033898845, -0.052342817, 0.021030702, 0.008804627, 0.011370175, 0.0007932782, 0.045063585, 0.0019353926, 0.035479, 0.00052369654, -0.35059977, 0.01004518, 0.102587044, -0.073231846, 0.02509528, -0.048508544, -0.05443365, 0.10716305, -0.061318643, -0.052973878, -0.07358711, 0.037332546, -0.12161775, 0.0041496265, -0.13824558, -0.098012775, -0.032677785, -0.11372286, 0.35407904, 0.0034915556, -0.10068501, -0.062815, 0.0061654607, -0.018669603, -0.052920517, -0.06814156, 0.08516303, 0.007535928, -0.003345031, -0.038964357, 0.00800505, 0.081959575, -0.028805533, 0.12792875, 0.070870936, -0.99532497, 0.03882584, -0.071107745, 0.1064884, -0.043094806, -0.040050488, -0.2036734, -0.14904352, -0.037780188, -0.0010338055, -0.017930174, 0.19921981, -0.6467653, -0.2018273, 0.041969195, -0.107115336, -0.06848263, 0.030155223, -0.0041570836, -0.04167645, -0.062119294, -0.022096474, 0.041411, -0.3599351, 0.048528403, 0.040492307, 0.05525969, 0.029769005, -0.00949841, 0.029939316, 0.029387886, -0.05462208, 0.19593596, 0.047073063, 0.011629276, 0.15226094, 0.11977904, -0.7542419, -0.107378125, 0.039756276, 0.12093861, -0.00041805705, -0.059235286, 0.028487438, -0.022433443, -0.028489772, 0.0017173428, 0.005615077, 0.020283116, -0.04025361, -0.0072449865, -0.020275636, 0.0029470758, -0.3816682, -0.08953524, 0.08159491, 0.0485937, -0.020368611, 0.06121228, -0.0669196, 0.41322872, -0.15792832, 0.025015779, 0.010346072, -0.0513279, 0.063152015, -0.7712726, 0.05919291, 0.012685429, 0.040230606, 0.016074471, 0.0113570355, 0.04930243, 0.04658647, 0.07073926, 0.11082397, 0.07254968, -0.017418753, 0.020586945, -0.71719533, 0.035197575, 0.08887422, -0.023665268, 0.115417026, -0.10173356, -0.47317225, -0.008277545, -0.04024056, -0.042240005, 0.3671369, 0.016883077, -0.05577157, 0.06736427, -0.10060694, -0.047838617, 0.03455385, -0.031221027, -0.08561174, 0.04182461, 0.084643625, -0.09712768, 0.014651285, -0.021794897, 0.09632573, -0.091754764, -0.018249225, 0.0632002, 0.6163363, -0.108294025, 0.052308336, 0.049655207, 0.07641883, -0.114878416, 0.036181096, -0.0382103, 0.049723607, 0.047075182, 0.01899722, 0.06002712, 0.04441596, -0.0758905, -0.23132786, -0.050575573, 0.0070579825, -0.0027472489, 0.043407474, -0.08494279, -0.0119511755, -0.20157105, 0.0350855, 0.06165042, -0.061418895, 0.0048819794, 0.06906304, -0.18771864, -0.09053743, -0.013664342, -0.06486365, 0.028106976, -0.15001296, -0.0051463805, 0.06252337, 0.1690866, 0.016467284, -0.7551928, -0.01301487, -0.13231859, 0.14456193, 0.12436043, -0.028301891, -0.21692923, -0.0012100807, -0.120079435, 0.060042895, -0.038568743, 0.007242406, -0.08389216, 0.023481924, -0.0009255563, -0.16510455, -0.0013054244, 0.045564227, -0.11664734, 0.06171888, 0.37736857, -0.039990466, -0.024877597, 0.048457865, -0.00406042, 0.07309132, 0.07676328, 0.03400717, -1.188298, -0.08185583, 0.040972024, -0.002333344, -0.1235728, 0.026528452, 0.16478427, -0.061213024, -0.024036057, 0.058765937, 0.06543859, 0.0034701794, 0.0041920627, -0.65896136, -0.05316025, -0.15489991, -0.07275309, -0.25189555, -0.0020974546, -0.022050884, -0.06312026, 0.07743522, 0.03804608, -0.03961691, 0.0386573, 0.06960234, 0.0896026, -0.09375802, 0.094303384, -0.023726013, 0.02352313, -0.019148137, -0.07962157, 0.05533848, -0.11680238, -0.2291664, -0.07946831, -0.04848083, 0.068836585, 0.17170617, -0.078537636, -0.03232277, -0.028037027, -0.025944725, 0.019516611, 0.06511002, 0.013669359, 0.0049443454, 0.020048745, 0.07989108, 0.036596186, 0.011146307, -0.107063115, -0.039055742, 0.780625, 0.00019165476, -0.18574516, -0.0016340236, -0.03051845, -0.029593484, -0.10517856, -0.595634, 0.027559713, -0.043468527, 0.022994304, -0.03646715, 0.5403844, 0.4681414, -0.010964051, 0.048911043, -0.24208349, -0.11999064, -0.05261102, 0.007151641, -0.12207294, 0.007563967, -0.07382019, 0.0119911395, -0.015372853, -0.05112184, 0.06932475, -0.01257226, 0.06964425, -0.086573176, -0.8735015, -0.013922365, -0.02105876, -0.13388166, -0.4134882, -0.055960417, -0.08817873, -0.109043024, 0.02079126, 0.0034551667, 0.05220968, 0.3117475, -0.050116356, 0.09365979, -0.0036373485, 0.0009686344, -0.07560917, -0.06660958, -0.058191933, 0.0042271614, -0.06258843, -0.030848036, -0.037550263, -0.54941475, -0.0023428723, -0.16757625, 0.21969551, 0.0021525363, -0.05738579, -0.040596724, -0.70535403, -0.00074410794, 0.020893455, 0.03804615, -0.06837141, -0.3899455, -0.19206984, -0.35002872, 0.025377335, 0.018756097, 0.29250634, -0.04699407, -1.2691097, 0.011593917, 0.0054607745, -0.0396955, -0.04666302, 0.25834045, -0.022841938, 0.006555821, -0.038989242, -0.07667583, -0.024585791, -0.54859895, -0.13466744, 0.025109328, -0.047963876, -0.051786326, 0.0495709, -0.0858985, -0.06971499, -0.057964467, -0.022356821, -0.024004377, 0.00802988, -0.19109079, -0.5894464, -0.012618528, -0.0146542415, -0.027989727, 0.0033399595, -0.056568574, -0.17599712, -0.048481442, -0.047894146, 0.051215302, -0.079982, -0.057621475, -0.019769365, -0.33621168, 0.010855051, -0.05579683, -0.18622768, 0.0044310684, 0.054037724, -0.61463416, 0.001991714, -0.0029551692, -0.024775267, 0.39868125, -0.10905142, 0.025395127, -0.006037317, -0.037630167, -0.015838163, -0.036403798, 0.005909394, 0.0038598417, 0.037928164, -0.07899548, 0.036402747, -0.031101605, 0.027193291, -0.09161322, -0.1381191, -0.06809803, -0.03407766, 0.0552588, -0.09633716, -0.048491836, 0.6163191, -0.060728986, 0.052869853, -0.019765554, 0.06369853, -0.08088917, -0.024174567, -0.04494881, -0.09467357, -1.2192852, 0.00032476732, -0.23202276, -0.17614447, -0.0050151255, -0.007626883, -0.044719122, -0.018757908, -0.028565591, 0.21488096, -0.00042256087, -0.043005064, 0.0069579217, 0.023077773, -0.084113255, 0.09850038, -0.14242111, -0.046792127, -0.05387538, -0.018799076, -0.06373528, -0.13640667, 0.20366272, 0.008393558, 0.007942248, -0.87619513, -0.058820724, -0.11564328, 0.09928642, -0.092524454, -0.13669553, -0.7505809, -0.04976289, -0.006523394, -0.018431773, -0.020609047, 0.032562617, 0.097735815, 0.0306861, -0.03321441, 0.02300923, -0.46292508, 0.032350082, 0.015482381, -0.010166443, -1.4005954, 0.006199333, 0.08387823, -0.016371394, 0.039899375, -0.031239374, -0.027804088, -0.002537481, -1.8286346, 0.004821083, -0.012016295, -0.046722114, 0.13481179, -0.05654262, 0.091436714, -0.018977256, 0.0031466088, -0.09517704, -0.049468953, 0.038364865, -0.08306877, -1.0914668, -0.07195087, 0.13753165, 0.068877965, -0.1695965, 0.032007232, 0.021897947, 0.013019223, -0.063252516, -0.050165396, 0.049411044, -0.054172017, -0.22546226, 0.013071969, -0.20427258, 0.102561355, -0.37180737, 0.024318734, -0.04886715, -0.03408289, -0.026311843, -0.018114356, -0.23788223, -0.054650046, -0.101761185, -0.13746536, -0.09441698, -0.028107177, -0.006062652, -0.04540758, 0.019145159, 0.004844143, 0.02975763, -0.3214306, -0.029836727, -0.072862074, -0.25761288, 0.006018551, -0.28824523, -0.1396226, -0.039073642, 0.76772445, -0.051183987, -0.22297826, -0.037057184, 0.005288534, 0.04851612, -0.06779031, 0.08275406, 0.010870009, -0.18433262, -0.021842849, -0.100615986, 0.5300264, -0.015130344, -0.00067472947, -0.028829306, -0.20416917, 0.015492249, -0.097966276, -0.048107684, -0.06328391, -0.030277377, -0.27092853, 0.0063462583, 0.00019372598, -0.022314085, -0.09276918, 0.022164147, 0.034719393, -0.20076674, -1.9872873, -0.13231932, -0.007201796, -0.058006242, 0.005423628, -0.0022635735, -0.1315471, -0.1285065, 0.03743309, -0.0012487598, -0.045475204, -0.39955857, -0.108315125, -0.2346915, -0.10316773, -0.0004891803, -0.0158814, -0.08077772, -0.020921184, -0.07061746, -0.06382104, -0.05220446, 0.001273795, -0.51763785, -0.029120913, -0.21366036, 0.17948186, 0.060546417, -0.07941163, -0.08667914, 0.09950996, -0.007486163, -0.07306314, -0.60324585, -0.09176682, -0.22260085, -0.2066057, -0.22371025, -0.0675362, -0.06805723, 0.24981186, -0.0779991, -0.2281799, -0.108313225, -0.023319604, -0.033915065, -0.070907556, 0.34478673, -0.019230649, -0.01778773, -0.017242506, -0.13307224, -0.034545075, -0.036179904, -0.12289513, -0.1165713, -0.026281355, -0.04476427, -0.5291812, -0.14180307, 0.29086417, -0.04750285, -0.103116445, -0.10671876, -0.09665478, -0.17954145, -0.8771753, -0.08585446, -0.6663108, 0.00049154717, 0.02805659, -0.0013408506, -0.07862271, -0.17130066, 0.049870953, 0.16832827, -0.053297743, -0.061415464, -0.050922796, -1.685496, -0.05479314, -0.26963863, -0.11644214, -0.017628767, -0.08416098, 0.40220895, 8.181733e-05, -0.065277725, -0.0181792, 0.6928972, -0.028626183, 0.006795746, -0.019420614, -0.0487581, -0.020270227, 0.0064308997, -0.03445981, 0.00016669591, -0.09347914, -0.04178775, 0.035232022, -0.04626282, -0.008092016, -0.028659565, -0.04039673, -0.03761552, -0.012097454, 0.47999138, -0.14396328, -0.02742895, -0.050613537, -0.028027881, -0.0061002723, -0.0609925, -0.038900465, -0.08581431, -0.03237049, -0.014823218, -0.13471378, -0.10352951, -0.06794979, 0.009049783, -0.12311793, -0.08015773, 0.026493458, -0.15072067, -0.07496775, -0.045936476, 0.27597067, -0.026921134, -0.02729133, -0.04499362, -0.011907969, -0.06886128, -0.38247755, -0.30713865, -0.15007472, -0.18310685, -0.07675966, -0.07726638, -0.18949854, -0.113371775, 0.08140231, -0.029041683, -0.18576327, -0.09613464, -0.112550385, 0.046486076, 0.0006292623, -0.08769241, -0.10346822, -0.13797393, 0.1416317, -0.064543396, 0.0042689624, -0.038348593, 0.18168662, 0.0084611345, -0.065771155, -0.4413057, -0.56259084, 0.06373365, -0.05807921, -0.026738718, -0.81237197, -0.034899633, 0.07042756, -0.05070081, -0.031726353, -0.03616604, -0.03630766, -0.031049412, -0.37496912, -0.5222697, -0.036718283, -0.015918013, -0.036046878, -0.0022433002, -0.19996597, -0.009349148, -0.03591353, -0.12231164, -0.050809868, -0.021026751, -0.014320495, -0.3063272, -0.01955036, 0.1864706, -0.068722114, -0.09091312, -0.029472025, -0.016590964, -0.06518932, -0.017402891, -0.1488779, -0.011973969, -0.06371475, -0.30443063, -0.05075135, -0.17395994, -0.04286969, 0.10272971, -0.09582426, -0.040276796, -0.021512685, -0.1412253, -0.11563072, 0.05058262, -0.018647803, -0.029837226, -0.119855866, -0.23511647, -0.115352504, 0.012634249, -0.029017257, -0.039808895, -0.057489354, -0.03398718, -0.34660816, -0.049840868, 0.008119438, -0.34888718, 0.023453455, -0.26532552, -0.09549515, -0.15661292, 0.8208416, -0.0052487873, -0.19677657, -0.11568499, -0.015790591, 0.030103538, -0.061357033, -0.68272036, 0.0029240088, -0.13595843, -0.05684408, -0.009004275, -0.7097391, -0.6187015, -0.024813846, -0.062897176, -0.043930374, 0.01476267, 0.07975357, -0.014952061, -0.019455973, 0.02871268, -0.23907834, -0.008104091, 0.002054451, 0.038659424, 0.06670915, -0.07936401, 0.018388635, -0.003163194, -0.32684207, -0.12248369, 0.031534716, -0.1236016, -0.4268947, -0.0020299593, -0.16858408, -0.019351386, 0.009725763, -0.008643776, -0.045508586, 0.2550867, -0.0891266, -0.2883356, 0.10154745, 0.0017541046, -0.016471462, 0.018684456, -0.030709086, 0.012253103, 0.0062680696, 0.06485495, 0.009294421, -0.4144656, -0.104829974, -0.21737127, -0.18886407, -0.014377896, -0.08115283, -0.0019177624, -0.71850646, -0.0050793667, -0.058617506, -0.590269, 0.023429371, 0.026273709, -0.18472135, -0.23341718, -0.09797103, 0.038445078, -0.37637943, 0.05523192, -1.0506529, -0.1951555, 0.02122765, 0.057350468, -0.027908467, -0.48861405, -0.10372688, 0.009991622, -0.019712495, -0.101880655, 0.022485333, -0.48146623, 0.013546342, -0.045475733, 0.01962636, 0.056763504, -0.5318987, -0.023597587, -0.03362674, -0.18047938, 0.001383441, -0.069626115, -0.029647999, -0.17622213, -0.27108672, -0.0937031, -0.5528499, 0.008719625, -0.022692885, 0.015540138, -0.021977313, -0.044856627, -0.10939356, 0.19695115, -0.050218105, -0.010315832, -0.024245061, -1.5882823, 0.0193595, -0.029210696, -0.22020781, 0.09046003, -0.031105379, 0.47001618, -0.011399546, -0.023811629, -0.007869955, -1.1631584, -0.0140012475, -0.021908265, -0.031079233, -0.022638535, 0.022421863, 0.001735139, -0.03064185, -0.04232919, -0.05446736, -0.0047240863, 0.14486168, 0.024415359, 0.024686808, 0.031982616, 0.07817659, 0.019114513, -0.048986986, -0.15680009, -0.075231425, -0.034272835, 0.706937, -0.023555927, -0.0010077199, -0.016385714, 0.033566102, -0.053246718, -0.050669488, 0.013520399, 0.02806623, -1.3186092, -0.007420257, -0.21492518, -0.12275672, -0.008632591, 0.10325912, 0.05111809, -0.052114174, -0.021914862, 0.118659005, 0.007341921, -0.06573763, -0.012295291, -0.01651604, -0.080142446, -0.37032133, -0.22972345, -0.06997289, 0.07567079, 0.007005769, -0.027887898, -0.11060227, 0.0589478, 0.062734075, -0.019357001, -0.7475315, -0.018457877, -0.04515257, -0.0042672805, -0.054550134, 0.09823213, -0.7641555, -0.16214445, -0.065767854, -0.06442729, 0.0012269173, 0.008697313, 0.17619717, -0.025022624, 0.0104674585, 0.026829863, 0.017621145, 0.07402125, 0.051761772, 0.016633105, 0.15252252, -0.02980164, -0.06114579, 0.004611667, -0.028773196, 0.053802572, -0.072916634, -0.024480939, -1.2419592, -0.53050756, -0.058272645, 0.001962997, 0.015157866, 0.012977562, -0.26722348, 0.0015227407, -0.017471446, -0.09920506, 0.038592376, -0.059783768, 0.005816188, -0.6828607, -0.080417484, 0.15720604, -0.035319164, 0.112849854, -0.0022605315, 0.020041391, -0.017061569, 0.06597932, -0.03593446, -0.05269178, 0.031526234, -0.055595025, -0.013495036, -0.04580026, -0.11071391, -0.34447682, -0.03927167, -0.020797638, 0.03009431, 0.052672617, -0.06960131, -0.17537776, -0.011079332, -0.012519158, 0.035101768, -0.13613366, 0.040735293, -0.016051285, -0.05409563, 0.0019081582, -0.063286945, -0.020831885, 0.024986979, -0.008582414, 0.07039155, -0.35979506, 0.06595643, -0.46913248, -0.19035155, -0.11953305, 0.8726137, -0.0012063832, -0.16597913, -0.004047941, 0.027111122, 0.014426093, -0.058460094, -0.64814633, 0.009985891, -0.06796931, -0.098969385, 0.0047719567, 0.3371986, 0.12992702, 0.038514838, -0.04121882, -0.19555803, 0.067436494, -0.02283583, 0.0038562014, 0.07924226, -0.08607477, -0.3458247, -0.10622869, -0.041156664, 0.0792827, 0.017539334, -0.062229324, -0.13689049, -0.006359045, -1.8950088, -0.1285854, -0.06455229, -0.09434316, -0.4305648, 0.004237653, -0.13936959, -0.004719583, -0.005098002, 0.06477669, -0.007771346, 0.21787326, -0.28583515, -0.0038085822, -0.02006602, 0.093868986, -0.020556359, 0.011877739, -0.028067332, 0.014038579, -0.006602292, 0.003289538, -0.040841635, -0.47187483, -0.052268688, -0.01649876, 0.1841846, 0.0035401997, -0.042322543, -0.15995835, -0.82112545, 0.009125437, 0.1325231, -0.5247844, 0.06179746, -0.34183857, -0.13645816, -0.34466478, -0.001993048, 0.0094981305, 0.19635065, 0.036494855, -1.0623308, -0.12173908, -0.08063955, -0.0068994807, 0.02664121, 0.084967226, 0.063627556, -0.07168665, -0.050286267, -0.1591428, -0.045801517, -0.46814385, -0.01821267, 0.05830167, -0.076320775, -0.05289584, -0.4489801, -0.040596973, 0.1633674, -0.15507728, -0.023049437, -0.0051755263, -0.009542515, 0.029635895, -0.72663534, -0.021035891, -0.5166981, -0.06109652, -0.07102282, 0.07089158, -0.052907698, -0.07301298, -0.06187341, -0.11128329, -0.09874413, -0.029575633, 0.03811347, -1.671183, 0.015810555, -0.13236603, -0.24372762, 0.08461271, -0.015931496, 0.19766015, 0.030808533, -0.08713353, 0.0051426906, 0.54656166, 0.017745301, 0.017951254, 0.016626325, -0.06547309, -0.034367934, 0.018082323, -0.04215427, -0.008077871, -0.027353933, -0.09833902, 0.05183262, 0.013386067, 0.0032894923, 0.009349182, -0.14661217, -0.00065037364, -0.056661244, 0.3628422, -0.15557726, 0.020748315, 0.48577166, -0.104429334, 0.066208355, -0.04299723, -0.15023433, -0.13152836, -0.038004767, 0.02057236, 0.021485284, -0.9873939, -0.021543847, 0.04275958, -0.09515841, 0.04128686, 0.053571664, 0.014408673, -0.07868766, -0.062024094, -0.26409894, 0.12727597, -0.10414878, -0.11025592, 0.03381613, 0.02411762, -0.8509162, -0.02480306, -0.08316315, -0.08118541, 0.14744873, -0.12498903, -0.16487926, 0.007337963, 0.04789774, -0.1215008, -0.9070263, 0.015667094, -0.0215773, 0.07110446, 0.035964977, 0.03881627, -0.91930056, -0.17024507, 0.085559115, -0.04877313, 0.0070515564, -0.019288218, 0.06144473, 0.003599667, -0.033251017, -0.4972147, -0.25882933, 0.047662236, 0.011051075, 0.0340865, -1.1341236, -0.015544686, 0.08171884, -0.012128109, 0.018369844, 0.014884623, -0.096211486, 0.029642507, -1.7775387, -0.42670155, -0.07517191, -0.0032943473, 0.0074563464, 0.08558395, -0.29714665, 0.027889669, -0.0112323295, -0.0039688805, -0.10404639, -0.03999477, 0.020510515, -1.0867225, -0.048891217, 0.14306056, -0.07963568, 0.05927738, -0.02754564, 0.043244217, 0.0031770896, 0.040703766, -0.18467142, -0.038057826, -0.050408676, -0.019631222, -0.09190978, -0.17766255, -0.8655203, -0.3816078, -0.035145342, -0.06756101, -0.071294084, -0.056168746, -0.05413329, -0.18322907, 0.029491121, 0.0033926673, 0.08051756, -0.09539117, -0.30880272, -0.025409503, -0.017429885, -0.0035507272, -0.08197435, 0.032518484, -0.34321964, 0.079631045, 0.050716344, 0.091751926, -0.078713164, -0.006139019, -0.3290238, -0.041861672, -0.17394266, -0.3374583, -0.058243822, -0.13804518, 0.40025067, -0.33969182, -0.06899364, -0.050086617, 0.11253174, 0.22546953, -0.12730198, -0.19198577, -0.0016256103, -0.061975144, 0.0655288, -0.094748184, -0.2986323, -0.3676301, -0.32244807, 0.06085413, 0.18217203, 0.20470797, -0.2133748, -0.11828717, 0.09193702, 0.0464324, 0.0009920957, 0.10190181, 0.08025503, -0.0036765581, 0.0345284, -0.15525387, 0.04416449, 0.33374557, -0.127898, 0.006455956, 0.28944835, 0.3192682, 0.003353699, 0.016412074, 0.19981411, 0.02685798, -0.047460567, -0.34714478, -0.5986349, 0.27302232, -0.047693044, -0.05036423, -0.038847025, 0.024510225, -0.2414868, 0.2826138, -0.41126004, 0.17486839, 0.12197239, -0.059795026, 0.09455952, 0.197327, 0.20526488, -0.0019953286, -0.18249287, 0.30871272, -0.08177227, -0.30121756, -0.32701746, -0.14344583, -0.16732343, 0.09589224, 0.26360396, 0.007131655, 0.061598673, -0.3153559, -0.107917845, -0.0902059, -0.12282172, 0.034632932, -0.18734193, -0.0034673046, -0.02374629, 0.089514755, 0.046445943, 0.06774654, -0.047297828, -0.008865257, -0.12000452, -0.24063964, 0.2627851, 0.039432637, -0.025954083, -0.097678654, -0.1043153, 0.121820286, 0.10688728, -0.14264986, -0.038712364, 0.19966668, -0.025373382, -0.22550279, -0.14986457, -0.32876742, 0.4060664, 0.08810701, 0.028494982, -0.12222011, -0.09297832, 0.24383232, 0.25950316, -0.037659895, 0.26904908, 0.09643593, -0.085923836, -0.006537438, -0.013001467, 0.17444201, 0.37648383, -0.06731643, 0.04894166, 0.12635678, -0.062387533, 0.0128105115, 0.33848286, -0.26668167, -0.16502959, 0.100274935, -0.31978995, 0.09506571, 0.1408448, -0.05338107, -0.21712406, 0.33843052, -0.20551528, 0.0049015027, 0.036880605, -0.18998604, 0.028107654, 0.18072951, 0.07739614, 0.52088016, 0.018635966, -0.096073434, 0.13755858, 0.023426497, -0.019357724, -0.22793974, -0.17958245, -0.21857776, 0.20691283, 0.35415927, 0.06642107, -0.19660202, 0.18286112, 0.047934286, 0.2250691, -0.03333254, -0.5625344, -0.17932807, 0.010352396, 0.007525321, -0.054463893, -0.0808577, -0.1152678, 0.03902672, -0.06253274, -0.1697335, -0.28449526, -0.43192774, 0.043930896, -0.022536464, -0.14146313, -0.115092225, -0.15498857, -0.47384167, 0.011399956, 0.019422721, 0.019564793, -0.043927934, -0.36854568, 0.20882265, -0.25188205, 0.056417022, -0.22445513, 0.1792589, 0.2573154, 0.026903478, 0.047245864, -0.01960311, -0.18526644, 0.7621752, -0.24460573, -0.06650394, 0.0014254744, 0.18235096, -0.12789156, 0.30382437, -0.4099111, -0.043896455, -0.04370182, -0.14395998, -0.09532174, -0.10156693, 0.1533851, 0.07503661, 0.09523241, -0.12125512, 0.22561583, -0.00839, -0.274663, 0.11034815, -0.21064118, 0.05941264, -0.11723047, 0.17880362, -0.019676378, 0.32887122, -0.21059589, -0.16585179, -0.23484533, -0.33541003, -0.10105103, -0.302119, -0.19209582, 0.0035848492, 0.04839904, -0.108223386, 0.095863834, -0.096375816, -0.3668615, -0.2800681, -0.07262573, -0.15798695, -0.37082875, 0.07754243, -0.06067973, 0.6675447, 0.00201453, -0.11132553, -0.18191288, 0.09609628, -0.03611154, -0.15839346, 0.123741254, -0.21658024, 0.045332145, 0.10378624, 0.10655071, 0.22390853, -0.18556347, -0.07520201, -0.063237816, -0.13355854, 0.3222077, 0.084369995, 0.12211097, -0.0076767197, 0.13284235, 0.06974493, 0.21860185, 0.049809657, 0.2918734, -0.2707906, -0.36802962, -0.25888777, -0.016218107, -0.014441945, 0.09882856, -0.91667014, 0.08159724, 0.107501745, -0.07372076, -0.5292728, 0.123337425, -0.19769572, 0.16721871, 0.1131392, 0.842774, 0.046025004, -0.10398212, -0.19020201, -0.23074287, 0.5035706, 0.1694236, 0.02880477, -0.47263414, 0.018102081, 0.09258284, -0.08424471, -0.11884843, -0.15280432, -0.12128461, -0.09627909, -0.059019793, -0.2916834, -0.08033927, -0.30607268, -0.06605144, 0.7211235, -0.12471162, 0.02916785, -0.18600161, 0.04365249, 0.15449734, -0.010224013, -0.0059144413, 0.13381366, -0.29643077, 0.2789652, -0.11871218, -0.036370296, -0.018679537, 0.39403993, -0.21215662, 0.20915896, 0.2695545, 0.027120095, -0.19538951, -0.33579496, -0.016924301, -0.09654555, 0.041354176, -0.13599804, -0.113007896, -0.08807181, 0.26833054, 0.29443347, -0.12808496, -0.065946214, 0.4795624, -0.16768575, 0.08697641, -0.09710406, -0.16194275, 0.16904134, -0.16761711, -0.26554856, 0.090661936, 0.04866064, 0.095449165, -0.06745314, -0.15876858, -0.031061757, -0.061410446, 0.024460891, 0.28108588, -0.09914805, -0.14564149, -0.11210972, 0.058652196, -0.010232709, -0.17812455, -0.061109353, -0.14546315, -0.09059622, -0.07132011, -0.23091173, 0.19011244, -0.22363828, 0.340225, -0.13051294, -0.05101995, 0.011245886, -0.03870455, 0.0831683, 0.18324095, -0.018480197, -0.19402835, 0.14807978, -0.3325252, -0.05682301, -0.22133261, 0.09730044, -0.17335674, -0.11101822, 0.18302381, -0.9869528, -0.27265325, -0.04771016, -0.14222226, -0.048120458, -0.03569586, -0.048585624, 0.19118966, -0.083530895, -0.09364182, 0.056220055, -0.09664777, 0.29306602, -0.15217432, 0.08065034, 0.055000916, -0.15237117, 0.310223, 0.082684055, -0.04186438, -0.07205804, -0.056646094, -0.5160467, 0.19556184, -0.06590793, 0.04005437, -0.08054297, -0.2519006, -0.05762861, -0.026184669, -0.38678035, -0.21493332, -0.029087564, -0.101525165, -0.23763338, 0.11413017, 0.24901325, 0.03296789, -0.30262053, -0.1185895, -0.027032442, 0.022663496, 0.37614223, -0.39849183, -0.3435162, -0.016140103, 0.041726686, -0.03621831, -0.14426017, 0.12090808, -0.026043966, -0.2481165, -0.12524727, 0.0030289728, -0.12715648, -0.15216298, -0.08747703, 0.08725669, -0.041579723, -0.0063495263, -0.45366612, -0.1241453, -0.1761525, 0.07020871, -0.625037, -0.32377335, 0.12701711, 0.15423204, 0.07238563, -0.34847626, -0.5491607, -0.08392396, -0.068514265, 0.13455646, 0.038084585, -0.38237774, 0.275729, -0.6001234, 0.09949698, -0.009932247, -0.036062688, -0.11810902, 0.025646552, -0.085046686, -0.051074084, -0.11133599, -0.19660626, -0.049749583, -0.22798792, -0.22483261, 0.064840585, -0.26608777, -0.057087757, -0.024241084, -0.4020432, -0.09912754, 0.13709913, 0.100299805, -0.2252822, -0.04711472, -0.3043464, 0.48358083, 0.0912533, -0.21386217, 0.0038574217, 0.021916892, -0.12925315, -0.092336446, -0.064506695, -0.10193728, 0.27330637, 0.11000054, 0.25423473, 0.30379862, 0.11356091, 0.084569916, -0.16515481, 0.10699544, -0.021864126, 0.15861484, 0.10678689, -0.122273326, 0.002850949, -0.16394058, -0.23895301, -0.054324783, 0.2473931, 0.08522566, 0.03589034, -0.1838362, -0.23689905, -0.242524, -0.04448949, 0.05328153, 0.044788137, 0.0021064787, -0.19022544, 0.14221892, -0.061156318, 0.060538165, 0.050065406, 0.018725926, 0.100957714, 0.12123152, 0.22703664, -0.104645714, 0.094476044, 0.094369434, 0.17089568, 0.061252248, 0.043006074, 0.17875688, 0.075123236, -0.704797, -0.34057465, 0.27330077, 0.19829707, 0.25051463, -0.09007337, 0.013217811, -0.13172296, -0.21274209, 0.089792855, 0.054865602, 0.18881743, -0.2803033, -0.252921, 0.04539983, -0.059854712, -0.17769122, -0.1404648, 0.020388527, -0.0038863872, -0.058848575, -0.35179752, 0.11109912, 0.016488627, 0.04314718, -0.38587037, -0.05089491, 0.084723815, -0.07310945, 0.18573977, 0.23983932, -0.0326178, -0.009892861, 0.20879324, -0.18220772, -0.0296593, 0.11708605, -0.26836798, 0.028634502, 0.16465633, -0.3913802, -0.12014832, 0.03586202, 0.08385723, 0.07679414, -0.11166595, 0.027944691, 0.19600995, 0.20398876, -0.1587408, 0.49224296, 0.070382304, 0.06238105, -0.18245594, -0.20545693, 0.043567553, -0.19507587, 0.2200462, 0.06440948, -0.14343469, 0.099867634, 0.21141051, 0.02275397, 0.17587899, -0.0076527656, 0.0016683758, -0.0070600742, -0.2648954, 0.18560633, 0.21957536, -0.09771012, -0.16321406, 0.080582455, -0.05851531, -0.20545295, 0.2990295, 0.038333192, -0.19252728, 0.4850322, 0.14346126, -0.0006309511, 0.1640022, 0.03257202, -0.40720198, 0.03943067, 0.22053151, -0.84288657, -0.04075943, 0.63288426, -0.16290626, -0.00663971, 0.36592737, -0.3751665, -0.010587242, -0.4252389, -0.01629743, -0.21905185, -0.17644508, -0.051211372, -0.009657182, -0.4334685, -0.22710247, 0.080321066, 0.39964393, 0.29783824, -0.11881764, -0.31215405, 0.13578594, -0.10813089, -0.4711157, -0.01977096, -0.42225918, -0.14546233, 0.12893644, -0.3154568, 0.45759666, 0.01685344, 0.0015124785, 0.042058345, -0.06521241, -0.446487, -0.018596478, -0.0780279, 0.1739408, -0.035365164, -0.15901108, -0.5437628, -0.07298758, 0.28129616, 0.07684726, 0.19503857, 0.042004284, -0.24190748, -0.057048783, -0.09992911, 0.08239941, 0.022685722, -0.32627237, -0.19018021, 0.050996725, -0.2535422, 0.0435881, 0.0012333143, 0.065889426, -0.039993253, -0.04248161, -0.018468533, 0.09692855, 0.048917722, 0.21418454, -0.03381342, 0.016395677, 0.22332093, 0.007488212, 0.16808107, -0.14589913, 0.11289081, -0.13500336, -0.20313641, -0.049757127, 0.02053838, -0.07226624, 0.11181267, -0.06977708, -0.16554181, 0.5266889, -0.08860552, -0.027725335, -0.15861441, -0.15251304, -0.03335633, 0.075875714, -0.37406665, -0.6266308, -0.35251904, 0.05616248, -0.036252897, 0.06462374, 0.10581176, -0.18444534, -0.028773408, 0.20609471, 0.006957114, -0.11363489, 0.060425192, 0.15876997, -0.08283055, 0.014175252, -0.078112334, -0.1449003, -0.045501594, -0.06654984, -0.13182558, 0.05717473, 0.059315566, 0.0076752733, 0.12419803, -0.18519314, -0.14466593, -0.3498877, 0.21070093, 0.14946108, 0.0947988, -0.2637939, -0.3683617, -0.23119295, -0.09654058, 0.21503003, -0.07681845, -0.021883285, -0.127127, -0.014731575, -0.49649072, 0.029760994, 0.014493366, 0.21794, -0.08126095, 0.009121048, -0.06952527, -0.08828681, 0.061092097, 0.17664734, -0.013305112, -0.039439786, 0.117181815, -0.1369514, -0.28109637, 0.12480553, 0.46740818, 0.08963644, -0.18396421, 0.09089117, -0.023348281, -0.0070793764, -0.11693728, -0.09044357, -0.08134778, -0.09420841, -0.06738872, -0.30283806, -0.042909607, -0.10425952, 0.96915984, -0.09675864, 0.19395484, 0.14704183, -0.092457466, 0.06794125, -0.078188606, -0.20326775, 0.050564975, -0.060290977, 0.047835868, 0.10105578, 0.5688991, 0.12303982, 0.0026792004, -0.19991972, 0.028467666, -0.11447641, 0.024516607, 0.05890418, -0.37503418, -0.06044547, -0.35875848, -0.032523636, -0.041765667, 0.004434156, -0.11187882, -0.063595705, -0.17989239, -0.009612713, -0.20530742, -0.024806544, -0.09355575, 0.013393344, -0.37333187, -0.053133998, 0.05097921, 0.12673189, -0.35421184, -0.030834014, -0.03122537, -0.09031846, 0.26639435, 0.23736097, 0.09896036, 0.07899112, -0.007779571, -0.027995173, -0.029356502, 0.062222697, 0.027339304, 0.03134118, -0.0028679194, -0.1444379, 0.011176427, 0.10838415, 0.19649735, 0.20073685, -0.0018553305, -0.03360858, -0.7653727, 0.047834266, -0.23729852, -0.38290948, 0.09497672, -0.11570374, 0.18460806, -0.4356785, -0.0495583, 0.028745875, 0.32627797, 0.123661846, -0.05210453, -0.16984414, 0.027866088, -0.02028158, 0.026638879, 0.2397616, -0.061999284, 0.20019114, -0.016312437, -0.002605369, 0.0021070188, -0.18251286, -0.24241407, -0.083426006, -0.0032839805, -0.0038902077, -0.40532768, 0.4725497, -0.2641058, 0.040364776, 0.0629176, -0.0470668, -0.12396284, 0.08691513, -0.38532236, -0.053255264, -0.43861115, -0.035967223, 0.0062051704, -0.02285335, 0.053678572, 0.06776183, -0.044341825, 0.21692586, 0.04673541, -0.084066175, 0.04240339, -0.17213401, 0.009541512, -0.035845645, -0.47587225, 0.017510056, -0.094939604, 0.20916162, 0.03064484, -0.049095917, 0.1217411, 0.34319076, 0.0020237505, 0.02416239, -0.01843366, -0.4365856, -0.07805877, 0.00019929407, 0.09192781, 0.03937376, 0.07679572, -0.17415982, -0.17407258, 0.06318825, -0.04057164, -0.0028227777, -0.08494503, 0.06985808, -0.039551742, -0.33302626, -0.30073044, -0.09181286, 0.058328837, -0.0032846732, 0.24049507, -0.09316867, -0.09961275, 0.13908364, -0.0201724, -0.013304928, 0.029368604, -0.872951, 0.058501136, 0.07889478, -0.18791176, 0.12990922, -0.02234592, -0.13062555, -0.067245066, -0.0309298, -0.12561189, 0.07473692, -0.05093125, -0.056978125, 0.057571538, 0.0037356513, -0.12146149, -0.5464775, -0.077003255, -0.14178097, -0.15142635, -0.006973847, -0.13393115, 0.20448674, -0.16593683, -0.12606743, -0.05236096, -0.16421054, -0.18011615, 0.031883825, 0.09385705, 0.25502145, -0.6392881, -0.04862709, 0.16997902, 0.060739018, 0.07286688, 0.12306072, -0.17565691, 0.120904006, -0.0229373, -0.3476592, 0.08990045, 0.03355126, -0.11485062, 0.040840507, -0.6748367, 0.057472326, 0.17740759, -0.019675665, -0.012541294, -0.01701945, 0.029277507, -0.19928218, -0.07377992, -0.13176914, 0.0035212745, -0.024101403, 0.05053135, 0.04428013, -0.36654449, 0.07983482, 0.012190695, 0.14759411, 0.019771101, 0.11036559, -0.0867947, -0.76446325, 0.018925758, -0.17656937, -0.032616083, -0.031275235, 0.02005286, -0.13612513, 0.14566429, 0.032425486, 0.037994493, -0.04694425, -0.019070843, 0.22098592, -0.04718151, 0.15687886, 0.19558838, -0.24151677, -0.011091249, 0.05650336, 0.019479143, -0.413727, -0.09665625, -0.060744926, -0.07488895, -0.008402195, -0.08880687, 0.0042133224, 0.048436895, -0.1413442, -0.045799993, -0.029536862, 0.077136435, 0.04014486, -0.32794157, -0.1129338, 0.095722646, -0.44127098, 0.0057241227, -0.13120021, -0.30847964, 0.012002655, -0.006703163, -0.06505789, -0.20479497, 0.053189255, -0.022533014, -0.044147078, -0.015834656, -0.07769621, -0.057416447, -0.051540885, 0.029838828, -0.11050973, -0.07372504, -0.12208195, -0.054336227, -0.09708235, -0.104057305, -0.13913633, 0.052243423, -0.01741297, -0.04062531, 0.007574525, -0.2391486, 0.035801556, -0.007460911, -0.0032089937, -0.022106394, -0.071700655, -0.023523947, -8.308962e-05, 0.016348774, 0.13046113, 0.07294262, 0.066920236, -0.050625347, -0.16514447, 0.06822722, -0.17073695, -0.029104264, -0.005034612, 0.008261866, -0.028143061, -0.010664821, -0.07138549, -0.11852448, -0.0078008687, 0.029058795, -0.027307328, -0.01831169, -0.0076557077, -0.029806597, -0.15700692, -0.04927354, 0.001910096, -0.008101589, -0.20634604, -0.004394747, 0.002909596, 0.044022348, -0.09078568, -0.1215565, -0.0210621, 0.044634808, -0.00918633, -0.21338665, -0.21676867, -0.2405937, -0.22743657, -0.28601813, -0.11712843, -0.05266005, -0.12856188, -0.08358939, -0.056740165, -0.049450293, -0.068797685, -0.0821564, -0.0464159, 0.07174682, -0.06258978, 0.030545767, -0.109229274, 0.016306745, -0.076045714, -0.073527366, -0.18642737, -0.0278287, -0.021548094, 0.049681574, 0.039785516, -0.022723887, 0.05085493, -0.0933834, 0.024882507, -0.08488908, -0.22835518, -0.016190672, 0.089112125, 0.04664981, -0.025542555, -0.0366558, -0.0098672705, -0.20498288, -0.17022632, 0.025091924, -0.4571435, -0.048102956, -0.024178967, -0.034387752, -0.0020792275, 0.011129618, -0.061814923, 0.035788562, 0.033084888, -0.018637411, -0.19751598, -0.019399816, -0.022336282, -0.09422594, 0.035671048, -0.12796369, -0.010131847, -0.03644061, -0.21121338, -0.09303345, 0.008535601, 0.065102465, -0.03532296, -0.026050467, -0.0047664177, 0.032099266, 0.026996642, -0.03608498, -0.07519967, 0.05579113, 0.031800415, -0.019116832, -0.021317609, -0.17881945, -0.019232681, -0.12648055, -0.051045947, -0.04485999, 0.025092155, -0.09330433, 0.013426497, -0.044342466, -0.054684136, -0.0210874, 0.012705968, 0.0498397, -0.24313852, -0.10456371, 0.034779433, -0.0033916126, 0.042943746, -0.041625623, -0.04816332, 0.1638079, 0.007919927, -0.034193117, -0.07992801, 0.018824592, 0.041015673, -0.5704374, -0.08354851, -0.013321026, -0.21972583, -0.012534901, -0.11873217, -0.027674256, -0.22065012, -0.044567313, -0.000317704, 0.0052038087, -0.07445185, 0.24790587, 0.06308736, -0.016329871, -0.1317935, 0.06478883, -0.11135129, -0.042435672, -0.07103349, 0.023638427, -0.033541493, 0.14356811, 0.010893674, -0.08126721, -0.3753854, 0.057823274, -0.06126795, -0.05529306, -0.0033182316, -0.18747577, 0.006548309, -0.0043461765, -0.058983963, -0.023704326, -0.030566603, 0.01182621, -0.039246384, -0.023455635, 0.011115914, -0.050295334, 0.0014748621, -0.10866073, -0.0044011516, -0.06203495, -0.021624608, -0.04472489, -0.12726887, 0.06917948, 0.04255026, -0.15402131, 0.21565549, 0.059956584, 0.18278423, 0.13978039, -0.2651337, -0.024052085, -0.060031492, -0.017577728, -0.006593911, -0.12162143, -0.021091621, -0.003908178, -0.06988615, 0.033848792, -0.008837147, -0.29127443, -0.10061349, -0.08328484, -0.041421764, -0.14678967, -0.22593777, 0.05671153, -0.124262884, -0.028946113, -0.093566075, 0.0868464, -0.037376326, 0.005866571, -0.0021461581, -0.10293774, -0.011588055, 0.051688958, -0.1032406, -0.010639027, 0.025178058, -0.04228842, 0.016580114, 0.010851544, -0.005538107, -0.02160823, 0.054431267, -0.096889116, 0.045067735, -0.23907718, -0.12667051, -0.008213898, 0.04816245, -0.015811976, -0.08896148, -0.031589355, -0.15768145, -0.005713731, 0.19292049, -0.07380049, 0.0295742, 0.03679512, -0.06090925, 0.07003072, -0.041513138, -0.02342803, 0.029347697, 0.08309402, -0.041776277, -0.043038815, -0.016424876, 0.047549907, 0.038010668, -0.08242984, -0.09886586, 0.0033496434, -0.09399871, -0.01717322, 0.095993824, -0.06879027, 0.001664792, -0.09001693, 0.00881938, -0.037899513, -0.12455253, 0.01880965, -0.09009647, -0.08400599, 4.1414925e-05, -0.0077295993, -0.1572157, -0.14660199, 0.026580077, -0.0010027384, -0.10906659, 0.0034603418, -0.003935267, -0.0019055225, -0.16798553, -0.10077506, -0.0056808605, -0.09047756, -0.20034099, -0.04217628, -0.015379374, -0.09785157, 0.10761839, -0.05960425, -0.033746716, 0.009934191, -0.005711625, -0.049029298, -0.078358166, -0.22314194, 0.05820255, -0.11069203, -0.008375466, 0.028274454, 0.03407091, -0.111229524, 0.009688173, 0.06803496, -0.048809662, 0.054822657, -0.05269965, -0.020909365, 0.03805978, -0.036325485, 0.026954103, 0.005531353, -0.038062777, -0.02867735, -0.08567773, 0.027935484, 0.014257451, 0.016157726, -0.035664074, -0.007962225, -0.024546565, -0.04743272, -0.13882671, -0.11971822, -0.19778827, -0.004786103, 0.018828006, -0.021322617, 0.038690247, 0.09776385, 0.101514585, -0.042442884, 0.09700612, 0.028007822, 0.09340917, 0.066574514, -0.01731596, 0.063950896, 0.008179662, -0.040592402, -0.045142375, -0.033668626, -0.029002674, -0.065931655, 0.0049704346, -0.008888018, -0.007940409, -0.07670085, -0.02010784, 0.03148228, -0.03468407, -0.023430793, 0.027710669, -0.045992382, 0.033996496, -0.006819744, -0.01823532, -6.152921e-06, -0.044464365, 0.13931666, -0.05960933, -0.0738492, 0.00642805, 0.13161504, 0.0055912263, 0.020135673, 0.11965002, 0.039487205, 0.051522, -0.0719746, -0.038643565, -0.033129033, 0.0029856914, -0.010348048, -0.08365284, -0.0061878418, -0.09350398, 0.027642572, -0.06686347, -0.019358687, -0.041289773, 0.053763367, 0.051043157, 0.014854492, -0.05506371, -0.012521103, -0.044573896, -0.11630203, -0.022477567, -0.096749224, -0.1532457, 0.012463543, -0.06487559, 0.011385716, -0.060229942, -0.06312614, -0.11900245, 0.0680965, 0.030177964, 0.039279837, -0.49384975, -0.0143993925, -0.01692293, 0.0053955773, -0.04666471, 0.10137539, 0.009261128, 0.05315585, 0.002525938, -0.0040761214, -0.124240585, 0.13667038, -0.04374899, -0.0067674527, -0.042582322, 0.20179059, -0.09254832, -0.08075275, -0.4620022, -0.017429668, 0.014672326, -0.024702772, 0.06267594, 0.06579449, -0.008687104, -0.18049178, -0.071512416, 0.028052326, 0.051855862, -0.021851338, -0.18839632, 0.037040133, -0.06662599, 0.0122520225, -0.022422805, -0.0016404885, 0.073786825, 0.03168215, 0.016942795, -0.037983485, -0.10318691, -0.056757648, -0.01493021, -0.09464578, 0.059494134, -0.0078196665, 0.21560732, 0.012646508, -0.011713401, -0.040742062, -0.043734115, 