#ifndef WEIGHTS_HPP
#define WEIGHTS_HPP
// Lord forgive me for what I'm about to do...
namespace PijersiEngine::NN::Weights
{
    const float dense_w[] = {0.009215973, -0.021656841, 0.059744194, -0.0038451254, -0.040140517, -0.018644288, -0.041251995, -0.04365852, -0.023499534, 0.020852983, -0.01220727, 0.014215812, -0.007313423, -0.007346384, -0.036883283, -0.023799736, -0.05341427, 0.030492887, 0.005248055, -0.030724354, 0.041861437, -0.02639389, -0.020126179, -0.040047813, 0.039982483, 0.036711194, 0.0631277, 0.07514429, -0.011289306, 0.035642408, 0.07243034, 0.060595438, -0.05789301, -0.043642145, -0.06960304, 0.06386669, 0.07625869, 0.07568602, -0.024038468, 0.06296322, 0.029375486, -0.048585646, -0.056903735, -0.009704888, -0.016999204, -0.025575582, -0.016009625, -0.04655843, 0.0021985248, 0.06744796, -0.060864516, 0.0544222, -0.029567525, -0.044963066, -0.05897103, 0.07776137, 0.024041519, 0.037535653, -0.07495288, 0.0071045607, 0.012682311, 0.06987193, 0.03567344, -0.0163185, 0.06938717, -0.049128093, -0.046492346, 0.038549528, 0.03499163, 0.02177424, 0.038221344, -0.021866117, 0.040600732, -0.072044075, -0.0012389347, 0.077925295, -0.0320237, 0.073926345, -0.07774045, 0.051962465, 0.031960048, 0.052386522, 0.047133237, -0.07502172, -0.047612984, 0.0116909, 0.05449997, 0.052366644, 0.0346862, -0.025228236, -0.049650013, -0.025979903, 0.0471794, 0.017126076, -0.033860657, -0.0015141591, 0.052429438, 0.037110783, 0.05375853, 0.011916235, -0.06616779, -0.07654807, 0.05413562, 0.014018558, -0.07444082, -0.07074213, -0.075894564, -0.028214917, 0.068794474, 0.073875904, 0.06363715, -0.03338012, -0.025851086, -0.068265066, -0.050372727, 0.062083155, -0.046757944, 0.031552307, -0.008377492, -0.008771427, -0.050996378, -0.057121195, 0.022652812, 0.040266827, 0.04746996, -0.00038888305, 0.07378186, 0.033626013, -0.042425554, 0.021323688, -0.018254548, -0.04971447, 0.00018044561, -0.03327551, -0.030476063, -0.055996798, 0.063553974, -0.009484619, 0.031188957, -0.067003876, -0.0034313798, -0.07224572, -0.07506401, -0.061719477, -0.03351806, 0.04239189, -0.01528389, -0.07155393, -0.0006983131, 0.051236242, 0.0009317249, -0.07058177, 0.025756553, -0.037104934, 0.046404526, -0.025557578, 0.04450001, -0.03398278, 0.048337728, -0.0011579096, -0.06504603, -0.05854495, 0.02888912, 0.07358901, -0.0110511705, 0.022142142, -0.009281516, 0.04665865, 0.044898577, -0.015518233, -0.00776048, 0.030411705, 0.039392307, 0.025866471, 0.056676105, 0.025143646, 0.055555373, 0.03021153, -0.030766938, 0.007635869, -0.058817536, 0.06662834, 0.031454615, -0.059377164, -0.0045028552, 0.008711159, -0.050369266, -0.03571821, 0.01602836, 0.006907217, 0.0348894, -0.020180184, 0.04475162, 0.03885033, 0.024314888, 0.07505192, 0.06148745, -0.02784456, 0.014817543, 0.05106978, 0.015699632, -0.06593135, -0.06981996, -0.013311721, -0.011304915, 0.004954174, 0.05826904, 0.07608406, -0.060034484, -0.032019496, 0.07699722, -0.023188364, -0.041907556, 0.025822394, -0.054057796, 0.040959045, 0.023738623, -0.07803078, -0.063526206, 0.04369077, -0.044698853, -0.049437527, 0.02117937, 0.0037723705, 0.00044802576, -0.052280884, -0.068439946, 0.07083924, -0.037095305, -0.020568412, -0.0450524, 0.00062995404, -0.033967208, -0.059955895, -0.007260576, -0.012912169, 0.022538014, -0.01768221, 0.041062348, 0.027204461, -0.07091108, 0.058956414, 0.0012994409, -0.027362455, 0.05012119, -0.053823173, 0.07020633, -0.037762478, -0.061012045, -0.009072728, -0.033286467, 0.0073018745, -0.029912755, 0.05775225, -0.046166126, -0.065278105, 0.05680442, 0.016534954, 0.011871241, -0.043698322, 0.067809135, -0.06570694, 0.064545795, -0.0656402, -0.07702159, -0.023958761, 0.03891003, 0.0076585785, -0.06948521, -0.017919503, 0.018426284, -0.050187826, -0.024756748, -0.009524882, -0.0066829696, 0.03094282, 0.049371988, -0.013678752, -0.00081679225, 0.0059110373, 0.024938017, 0.05950369, -0.006717086, -0.009056427, 0.046823874, 0.044688195, -0.050530985, 0.008448981, -0.0598288, -0.028813988, -0.0033946857, 0.062878385, 0.07198295, -0.04136036, -0.011248909, 0.05143237, -0.05229692, 0.014188655, -0.07069285, 0.07790333, -0.015738703, -0.033699837, 0.035990052, -0.039600424, 0.062191397, -0.048065722, 0.038949966, 0.024997294, 0.002509363, -0.06827004, 0.044470385, 0.07111299, -0.04993444, 0.061272785, 0.03804344, 0.0753234, -0.0064871535, -0.04956249, -0.013305649, 0.05689551, -0.005254723, -0.042806305, -0.03760867, -0.04448272, -0.020940691, 0.047890827, -0.02566731, -0.0069327876, -0.07415461, -0.038060937, 0.06088902, -0.011452429, -0.061345518, -0.011636749, -0.047912642, 0.013312474, -0.070884906, 0.0018055663, -0.022357233, -0.061448067, 0.04830794, -0.059080534, -0.012538299, 0.06614457, 0.050331578, -0.009621419, 0.026710667, -0.01133088, 0.016506813, 0.042950302, -0.038085688, 0.010745063, -0.021972183, -0.04052078, -0.023017112, 0.00601054, 0.075097606, -0.0112139955, 0.036800563, -0.042127542, -0.06479542, -0.051909387, 0.014885396, 0.019432105, -0.039708417, -0.0006031096, 0.013120674, 0.04145112, 0.056796238, 0.038752563, 0.045545354, -0.063783936, -0.05344338, 0.030139245, 0.033617847, 0.06356782, 0.05971685, -0.07401741, 0.064504564, 0.01880528, -0.06910532, 0.026115395, 0.048964918, -0.07058598, -0.07117632, -0.050451368, -0.055547107, 0.052598074, 0.058272123, -0.06674194, 0.0136340335, -0.056859672, 0.017443776, 0.057632, 0.058371216, 0.050899863, 0.023054011, -0.027569842, 0.034614958, -0.008247539, -0.061132357, 0.06468375, -0.017049339, -0.056246076, 0.053356513, 0.03628595, 0.06490396, 0.06533402, -0.051570043, 0.0011074618, 0.035325162, 0.017335966, 0.012365304, 0.027936235, -0.063409746, 0.043896213, -0.052351303, 0.04679799, -0.075684525, 0.008766584, 0.047997132, 0.014525458, 0.001515314, 0.044918127, 0.048557863, -0.052796602, -0.03553105, -0.046702124, 0.03562785, 0.035527483, 0.01836837, -0.01967159, 0.02848807, 0.074043736, 0.038962655, 0.04722272, 0.024988607, 0.01628799, 0.0025204048, -0.036257163, -0.048263032, 0.0075153336, 0.036337398, -0.07127508, 0.018643245, -0.047040477, 0.06923868, -0.04629255, -0.053052984, 0.0029390901, 0.042045422, 0.023617417, 0.03453753, 0.03262634, 0.05550933, -0.07397098, 0.036152594, 0.05875081, 0.01030837, 0.04869218, 0.068700925, -0.051664725, 0.06879558, 0.05034028, 0.04120606, -0.07079535, 0.05435452, 0.022408262, -0.053399898, -0.01372356, -0.03542063, -0.07793765, 0.03392777, -0.063922755, -0.0019963905, 0.036472663, -0.050463893, 0.06430562, -0.056175806, 0.010374427, -0.07628673, 0.0022919178, 0.05102104, 0.006622754, 0.0373191, -0.076670624, 0.040776335, -0.015947957, 0.06917396, -0.02907652, 0.053320915, 0.016742185, -0.07335277, -0.010733567, 0.0011746809, -0.03510742, -0.07129966, -0.019335162, 0.03253018, 0.041177668, 0.037997007, -0.062188596, -0.055134673, 0.06255552, -0.06384703, 0.046846196, 0.04245591, 0.06163326, 0.0014567673, 0.019163035, 0.020855933, 0.032560743, 0.03771802, -0.04179031, 0.024108961, 0.06988138, 0.017680734, -0.0054297745, -0.028871134, -0.061636202, -0.029559746, 0.0026296377, -0.008056961, 0.018248096, -0.06436491, 0.06826353, 0.047746122, 0.048427522, 0.071140036, -0.06724203, 0.0328381, 0.05913523, 0.06138487, -0.07400891, -0.035946496, -0.05704055, -0.014024764, 0.022886336, 0.04136578, -0.021703556, 0.07536574, -0.069774814, -0.030228544, 0.016362838, 0.032391928, -0.058589064, -0.07648804, -0.047949597, -0.030574411, -0.05291523, 0.02300945, -0.019635007, -0.05790206, -0.035351127, -0.0096929595, 0.021168232, 0.0022233129, -0.018128403, 0.052566394, 0.029142529, -0.07785787, -0.022829466, -0.028403684, 0.049896747, 0.0039724633, 0.029579952, -0.037860766, 0.04281324, 0.049109936, -0.070354424, 0.0011664927, -0.042328384, -0.037777618, -0.03647382, 0.016543888, 0.0620393, -0.05706616, -0.07264683, 0.0074965805, 0.07306597, -0.041923314, 0.031006157, -0.043256667, 0.030094437, 0.06286694, 0.021231413, -0.053582646, -0.004475765, 0.013246596, -0.064686686, 0.010817036, 0.026026808, 0.061815187, 0.0015108287, -0.063937485, -0.031090952, -0.07660222, -0.025755618, 0.024029627, 0.07014337, 0.020655058, -0.059324466, -0.06130869, 0.0008717701, 0.061415374, -0.07219065, -0.012750864, 0.0002657622, 0.03406799, 0.046408378, 0.015866585, -0.0117587, -0.011324413, 0.0659567, -0.042623106, -0.006458774, -0.03150537, -0.07772088, -0.0051612034, 0.03174842, 0.07578871, 0.036658697, 0.051489085, 0.026362874, 0.03922431, -0.031264164, -0.068391904, -0.02807393, -0.05684913, -0.015704177, 0.035375334, -0.01311288, -0.07397573, -0.07194851, -0.016074304, -0.023243003, -0.037093155, -0.06921474, 0.014777072, 0.064625084, 0.036296308, -0.0019375607, -0.0075974315, 0.047189534, -0.030379549, 0.023016736, 0.018684983, 0.07080804, 0.016820848, -0.013250984, -0.060788114, 0.060076058, 0.020695955, 0.03928172, 0.027392998, 0.048750967, -0.016085315, 0.04683949, -0.027235676, 0.02225855, 0.059709504, -0.027490731, -0.055274367, 0.07836099, 0.0147731975, -0.021622892, -0.01348307, 0.052236706, 0.035031825, -0.017697182, -0.011731558, -0.035273325, -0.04551733, -0.05832562, -0.067895986, 0.046977192, 0.025513053, -0.044655878, -0.037247077, -0.067165814, 0.05500391, 0.045619436, 0.01982686, -0.014038861, -0.03171591, -0.0018700063, 0.04852812, 0.067466736, 0.047991157, -0.019910324, 0.03787159, 0.069691435, -0.0071016476, -0.07589673, -0.043106034, 0.01565148, 0.0381305, -0.0023880377, 0.07345979, -0.0006377846, -0.025500488, 0.007350996, -0.05587101, -0.0014396235, 0.028176688, -0.0021894947, 0.03650803, -0.02534438, 0.050601125, -0.07819906, 0.047809497, 0.05042939, -0.068313204, -0.050404713, -0.012857504, -0.04945697, 0.077299654, 0.019450262, 0.059439942, -0.034164127, -0.0038044825, 0.053041488, -0.001411438, 0.07648833, -0.037164193, -0.07039125, -0.018916652, 0.007892683, 0.022971705, -0.070840046, -0.07240634, 0.06500107, 0.00093816966, 0.03701429, 0.014580749, -0.013487235, 0.07451999, -0.0184859, -0.0641433, 0.021806449, -0.05382321, 0.021885946, 0.015139088, 0.040393025, -0.049811434, -0.047271136, 0.06386571, 0.048125505, 0.064995855, -0.069942154, 0.066515446, 0.01981888, 0.06693061, -0.02091815, -0.033886246, -0.06143164, 0.044621684, 0.061670333, 0.056885257, -0.030682836, 0.02217441, -0.00417269, 0.0281559, 0.051971138, -0.06199392, 0.0339221, 0.010962285, -0.03762078, 0.03853917, -0.019401629, -0.3904543, 0.054482967, -0.24996887, -0.6666342, -0.03728743, -0.11555049, -2.1279626, -0.047638703, -0.05590494, -0.23874937, 0.23587273, -1.7157873, 0.12099262, -0.005920568, -0.02843464, 0.13364688, 0.13993263, 0.49734154, -0.091889545, -0.16609457, -0.023954378, 0.078708164, -0.010088229, -0.3459736, 0.7864688, -0.14120562, -0.25101796, 0.04822839, -0.23194899, -0.05191405, -0.11216508, -0.52199125, 0.38971272, -0.10545711, -0.11840935, -0.1086014, 0.15987901, -0.3204087, 0.0056397435, -0.07803875, -0.073727675, 0.13082685, -0.16181841, 0.16738361, -0.13879718, 0.05137412, -0.12900415, 0.14272635, -0.09983971, -0.12591778, 0.048013512, -0.02475002, -0.1016063, -0.21956821, 0.26664183, 0.99741465, 0.17802121, 0.077909715, -0.08604193, -0.008960537, -0.050971113, -0.07905016, -0.02828665, 0.08834062, 0.07666393, 0.3473059, 0.0012135919, 0.60309964, -0.33551878, 0.10267123, 0.0027371456, -0.24233645, -0.19726828, 0.026477553, 0.05637756, -0.042442285, -0.011675158, -0.46685758, -0.2688023, -0.28992122, 0.11306943, -0.07552361, 0.051192235, -0.27336892, -0.10597254, 0.03719675, -0.008459373, 0.22377788, 0.04807617, -0.23402905, 0.1931306, 0.19018492, -0.023833692, 0.66778266, -0.17192383, -0.058289398, 0.7454333, 0.14815892, 0.15231697, -0.32530472, 0.072703704, 0.1234709, 0.33489785, -0.0899135, 0.19858506, -0.43411595, -0.053261627, 0.19588798, -0.20075275, -0.09438773, -0.06614187, -0.19962874, -0.01932777, 0.19646983, -0.29841518, -0.041414984, 0.12758312, -0.10381631, 0.7662973, 0.009224759, 0.06047076, 0.87833685, 0.10099819, 0.26004487, -0.017646398, -0.47729462, -0.13624018, -0.13997674, 0.2272138, -0.45048416, 0.34184232, -0.076914735, -0.040668774, -0.03091914, -0.30509308, 0.18410446, 0.11218346, -0.012451285, 1.0409197, -0.3710792, 0.03607679, 0.021861691, -0.014289516, -0.17118852, -0.1272522, 1.0779545, -0.027734134, 0.043396946, -0.04197936, -0.27492934, -0.4747622, 0.03158376, 0.1800516, 0.062278137, -0.09554474, 0.20952496, -0.032985736, -0.137126, -0.3530308, -0.12954195, -0.032251474, 0.15057355, 0.025749784, 0.031885967, 0.15445518, 0.06555629, -0.06464904, 0.70007014, 0.08624112, 0.09789832, 0.032910332, 0.019872367, -0.06184107, 0.0523925, -0.9201438, -0.09939747, -0.054303285, -0.20957336, -0.00806061, 0.028661104, 0.032782715, 0.02282413, -0.16291662, -0.32533327, 0.011731419, 0.020010235, 0.10351757, 0.03716941, 0.5774162, -0.01502259, -0.0011607101, 0.4480891, 0.54701024, -0.26055226, -1.7963628, 0.008361623, -0.12350928, 0.3887085, -0.2536573, -0.09207435, -0.017233321, -0.10350481, -0.14589667, -0.13928059, 0.16183205, -0.14944991, -0.2191804, 0.023802537, -0.099117495, 0.04566761, -0.10756387, 0.3574331, 0.1936288, 0.031369824, -0.034234997, 0.12706627, -0.06411961, -0.43915066, -0.13500251, 0.38724816, 0.0076646768, 0.26794848, -0.08506859, -0.032594204, -0.3222026, -0.055618946, -0.029375209, -0.18733905, 0.028023884, -0.06520886, -0.63372326, -0.2928799, 0.050670493, 0.1245879, -0.054062754, -0.14850488, 0.44899037, -0.031743854, 0.028825326, -0.10554585, 0.98168856, 0.48239222, -0.0065175625, 0.19344687, 0.15197739, 0.027825328, -0.17319533, 0.026438097, 0.14715508, -0.011632651, -0.081446655, 0.19488013, 0.010711049, -0.02242199, -0.07135011, 0.015719114, 0.019305054, 0.0097850235, -2.5945537, -0.1140373, -0.03976947, 0.004984289, -0.1984271, -0.011471563, -0.04215292, 0.10603748, 0.09665894, -0.039599136, 0.0033868933, 0.012470991, 0.051352873, -0.0031215523, -0.045236662, -0.15762226, -0.0420535, -0.5342905, -0.021407247, 0.008739181, -0.033250395, 0.02109285, 0.3862449, 0.01232507, -0.016421624, 0.018343436, 0.01733484, -0.03054188, -0.064479105, -0.09880666, 0.20987467, -1.1421053, 0.024685634, -0.012478221, 0.01519311, 0.008145064, 0.02116126, -0.048465706, -0.0037968466, 0.023667205, 0.013343079, 0.05802044, -0.036355324, -0.06510883, -0.013741493, 0.02115372, -0.037040588, -0.031686757, 0.0029470813, 0.03606818, 0.20789343, -0.028413095, -0.057805136, -0.3737391, -0.021123832, 0.011025383, 0.23614211, -0.03157853, 0.0012764959, 0.018393539, -0.023851197, -0.011586579, 0.029001724, 0.01299236, 0.008137619, -2.4749804, 0.036814064, -0.008772418, -0.0019780807, -0.08250364, -0.096579894, 0.0035979068, -0.20780256, 0.03028085, 0.1257322, 0.042549558, -0.0046888446, -0.023109416, -0.04767865, 0.037799288, -0.03821829, -0.0010197324, -0.015861843, 0.026120534, -0.018221153, -0.038513236, -0.007518532, -0.049981687, 0.027096251, 0.027146189, 0.06514408, 0.14315961, -0.043314878, -0.027461924, 1.6567283, -0.085728325, 0.12781005, 0.022013964, 0.01113919, -0.19634986, 0.07858533, 0.0005344866, -0.47079808, -4.1180997, 0.006305013, -0.09488645, -0.0365948, 0.026000747, 0.16269541, 0.019080313, 0.08052677, 0.013777163, -0.030036407, 0.06589442, 0.16922043, -0.033920407, 0.0059511308, 0.007330259, -0.07259721, 1.8536098, 0.051168825, 0.111027226, 0.0014121657, -4.1488266, -0.23231348, 0.0061804303, 0.13258448, -5.288716, -0.01606284, -0.031256124, 0.06303663, -0.0084319385, 0.016868662, -0.011436014, 0.02505135, -0.029375542, 1.1284581, 0.03856395, -0.0106127625, -0.0025488648, 0.0022113172, 0.043532483, -0.0125493305, -0.07324711, 0.06257159, 0.0046914984, 0.015386107, -0.08186654, 0.04853156, -0.02226717, -0.024438506, 0.016779823, 0.07067039, -0.00026788266, -0.0687165, 0.006266206, -0.047622617, -0.004288884, -0.031726312, 0.013463682, -0.030264376, -0.030422049, 0.023484558, -0.0012922975, 0.036598746, -1.0827563, -0.0006417675, 0.032010492, -0.016418442, 0.0051588765, -0.011391052, 0.020921163, -3.1249433, -0.07584156, -0.0020056607, 0.012360279, -0.012890417, 0.015352817, -0.010382631, -0.006916181, 0.10018839, -0.0012774676, 0.0061385604, -0.36462235, 0.01588061, -0.04636812, 1.4994866, -0.033714317, -0.044631694, 0.024471268, -0.069138855, -0.044742655, 0.033632066, 0.025732506, -0.052050415, -3.0204341, -0.17342825, -0.03829953, 0.021807706, -0.053434364, -0.01936156, -0.033753578, -0.01227625, -0.0014111939, 0.004828252, -0.02965048, 0.004976291, -0.043391302, -0.015981235, -0.16099203, 0.70860314, -0.014031988, -0.03862127, -0.024019076, 0.01435855, -0.051042944, 0.07090951, 0.0126756625, -0.041148063, 0.029093802, 0.08901527, -0.030556766, -0.09357137, -0.008661597, -0.008166156, 0.03791333, -0.0052952804, -0.03362913, -0.0044054566, -0.07957658, -0.014398365, -0.02011131, -0.062316213, -0.016567107, -0.009493041, -0.0036537948, -0.02485817, 0.016083524, -0.3815404, -0.17466407, -0.07346397, -0.026045078, -0.008907324, -0.017667789, -0.033952832, -0.03400795, 0.08504074, 0.020985417, -0.03408359, -0.060949765, -0.48787814, -0.018415615, -0.05038988, 0.04301411, 0.0148771545, -0.011202421, -3.1353028, -0.10635354, -0.033016175, 0.045905974, -0.3497751, 0.005160943, -0.010042575, 0.1265297, -0.01761056, -3.1071694, 0.008850564, -2.1094587e-05, -0.04845513, -0.026230333, 0.007706653, -0.110152215, -0.017483702, -0.101119, -0.058091186, 0.025236964, -0.0014785553, -0.0055532656, -1.3931338, -0.07509606, -0.024765601, 0.05371383, -0.1291499, -0.03329551, -0.027377615, -0.03308337, -0.08350122, 0.016038818, -0.03450412, 0.05159973, 0.017415706, -0.052334964, -0.03874923, -0.03846621, -0.024497995, 0.005858448, -0.038682036, 0.072012715, -0.0590687, -0.10099211, -0.007764009, -0.003208699, -0.012103385, 0.02341881, -0.030501604, 0.049558043, 0.33552548, 0.009475901, -0.005690569, -1.4911529, -0.09522587, 0.022555498, 0.24540474, 0.038213946, -0.019055838, -0.040477086, -0.036441293, -0.0050928663, 0.021790404, 0.03760464, 0.044546753, 0.5544797, -0.007288617, 0.028265938, -0.002492724, -0.09182658, -0.13527057, -0.0016472936, -0.19441782, -0.023351151, -0.013938831, -4.2539954, 0.06657698, -0.018585665, 0.02619033, 0.01254764, -0.04500802, 0.010313634, 0.028556995, 0.055846296, -0.026569989, -0.005666695, 0.012698062, -0.050229087, 0.046753485, -0.00953012, 0.024030417, 0.056055747, -0.031929184, 0.0318682, 1.6284264, -0.040664773, -0.08257238, 0.027543452, -0.0023491771, -0.005452742, 0.057323724, 0.017718093, 0.29177168, -4.0740976, 0.0002836255, -0.06834238, -0.00832194, 0.05903039, 0.1670109, 0.009775203, 0.09428757, 0.048225116, -0.076255165, 0.06682625, 0.08788719, -0.060000338, 0.020829113, -0.013995905, -0.008730764, -1.4663901, -0.022171149, -0.07957147, -0.008752123, 0.080006436, -0.10950742, 0.020784007, 0.13623579, 0.09429499, -0.16576055, -0.003048107, 0.14672175, -0.031124935, 0.022604384, -0.034965917, 0.0002371996, -0.023246843, -0.045057803, 0.036867704, 0.024173912, -0.0012732716, -0.01761554, -0.019548098, -0.06925111, 0.11309563, 0.054314107, -0.019934021, 0.027955389, 0.012333927, 0.026827676, 0.030698298, -0.013926396, -0.013971796, -0.028948726, 0.030158903, 0.016139816, -0.01916391, -0.026588744, 0.014565362, -0.026881859, -0.01809613, -0.0021005652, 0.0038544338, 0.00051384536, 0.05329371, -0.035094198, 1.6626995, -0.028340103, 0.042620417, 0.013361349, 0.023010777, 0.022715792, 0.0040496914, 0.19146097, -0.020054072, -0.034400884, -0.06565961, 0.021521645, 0.06241782, -0.006871829, 0.018157197, 0.17921264, -0.010647523, -0.029531963, -0.39623806, 0.07769682, -0.0061915503, -1.0605891, -0.07121444, -0.027547637, -0.244022, -0.09056466, -0.057618987, -0.015810248, 0.032359663, -0.022312813, -0.8274853, -0.13990077, 0.06326096, -0.02902085, -0.00016357862, 0.03847527, -0.025641384, -0.08960112, -0.022133093, -0.013626648, 0.0032021266, -0.016489865, -0.03397604, 0.022149293, -1.2551522, 0.50359756, -0.00093492214, -0.028618073, 0.054569963, -0.018864537, 0.09564744, 0.09680523, 0.033260327, -0.0632528, 0.04962865, 0.09575885, -0.09947166, -1.0814719, 0.0302892, 0.022033932, -0.0021026975, 0.012192633, 0.0013146938, 0.037341055, 0.055769607, -0.035899807, -0.015147624, 0.032970395, 0.06307414, -0.21280226, -0.08366536, -0.028089792, -0.005658977, -0.55618423, -0.14895146, 0.01249988, 0.037185695, -0.052562304, 0.0012815162, -0.00034429284, -0.075310126, 0.030318499, -0.0014314215, -0.06341007, -0.018086784, 0.17909959, -0.024835832, -0.064822406, 0.038041197, 0.03668487, 0.025021786, 0.31603774, 0.013467616, -0.07179509, 0.029778972, -0.18208382, -0.011992213, -0.0028592795, 0.18280135, 0.03634295, -3.0964174, -0.08817071, 0.01538097, 0.03626082, -0.0021914826, -0.041338198, -0.27055678, -0.036131382, -0.19461863, -0.04163535, 0.012657513, -0.0007868452, -0.064478144, 1.0701245, -0.13681547, -0.018530192, 0.0812173, -0.04581379, -0.023266317, 0.006194734, -0.17788438, -0.22370176, -0.24813616, 0.0085138455, -0.025147168, -0.0034992981, -0.09298087, 0.057949897, -0.0224558, -0.034891695, 0.030413784, -0.007935857, -0.031280696, -0.039908048, -0.036427505, -0.028389852, 0.08863938, -0.026546394, -0.0007058793, -0.028710969, 0.03801076, -1.2090527, -0.1068228, 0.017954463, 0.8620807, 0.029040767, -0.07479404, -0.8758493, -0.02868633, -0.0041173412, -0.0048616044, -0.06725717, -0.015566044, 0.038371842, 0.038282152, 0.03163994, -0.047817472, 0.034964144, 0.031189995, -0.010446863, -0.07525146, -0.13052046, -0.022427607, -0.29416594, -0.038408633, -0.11352107, -4.2460275, 0.020626843, -0.032798495, -0.070860274, -0.013923357, -0.029055748, 0.050182458, 0.02448711, -0.0024835635, -0.048418276, 0.007776003, 0.003980105, -0.036278978, -0.045966562, 0.043170884, 0.036771998, 0.08805834, -0.06577395, 0.021100514, -0.87873036, -0.049602672, 0.17701687, -0.025154527, -0.023122445, -0.2488983, -0.0008914974, 0.0015868857, 0.15829034, -0.007243547, -0.028359808, -0.056985468, -0.015738346, 0.1627191, 0.22625117, 0.0807281, 0.092763215, 0.038773086, -0.018354269, -0.026805248, -0.016612375, -0.036296878, -0.033604164, -0.05583943, -0.09360575, -1.2048692, -0.07458565, -0.18043531, -0.0173404, -3.8638015, -0.13275404, -0.019866968, 0.09565041, -4.9567313, -0.11423489, -0.0075284196, 0.03132302, 0.0020688358, -0.034350656, 0.020377707, 0.010923874, 0.045413006, 0.9843158, 0.004083463, -0.011476201, -0.004803669, -0.056081533, 0.0564868, -0.022832818, -0.5647676, -0.0117114885, -0.022083981, -0.021775506, -0.04578008, -0.077245, -0.0115480125, 0.009354184, 0.057146654, -0.0053662364, -0.06596042, 0.06440431, -0.07103045, 0.03809364, 0.054538894, -0.018935446, 0.018605629, -0.022615993, -0.009859449, 0.03639654, 0.004226668, 0.087006405, 1.6155076, -0.0012845168, -0.046791364, 0.016441518, -0.026538217, -0.0014615688, 0.010139229, -3.2656324, -0.029916687, 0.021086704, 0.0006207762, -0.013782817, 0.04541258, -0.002348803, -0.07610406, 0.2231512, 0.002408233, -0.014722133, -0.31499678, -0.0066836444, -0.012705893, 1.435787, -0.016102973, -0.045335133, -1.1111765, -0.0878803, -0.04128279, 0.010889684, 0.03982695, -0.012823957, -0.09865187, -0.13515088, 0.013722864, -0.091514915, -0.035683602, -0.024100095, -0.01050937, 0.05234615, -0.049277358, -0.0006088938, 0.0046552233, 0.03077098, -0.03870345, 0.005874375, -1.7446675, 0.4682517, -0.039134692, 0.009032, 0.00013844167, -0.020711731, -0.0047476515, 0.015858762, -0.09821254, -0.026675183, 0.14880988, 0.09935743, -0.027060699, -0.26458308, 0.020857561, -0.028126026, -0.0002943192, -0.019362774, -0.026353002, 0.0012743649, -1.2339536, -0.013383127, -0.063101746, 0.041032664, 0.045988277, 0.44884643, -0.055055495, -0.019918766, 0.0014190716, -0.053450473, -0.23850541, -0.09758873, 0.04443115, -0.074924916, 0.02394898, 0.004849184, -0.06717288, -0.013857322, 0.018816281, 0.00042943875, 0.014377757, 0.013993417, -0.019829718, -0.030285457, -0.022656307, 0.022592705, -0.025944602, -2.4099755, 0.044697713, 0.04705646, -0.014435106, -0.62326485, 0.0024873575, -0.11232908, 0.13808566, 0.026697794, -2.5112255, 0.015149686, -0.09568695, 0.025406191, -0.16389687, 0.02935149, -0.22379027, -0.10079529, -0.39940926, -0.08946724, -0.038028866, -0.08523668, -0.10207272, 0.5086541, -0.000169785, -0.011881847, 0.087208964, -0.18709195, 0.04644713, -0.022768231, -0.2644527, 0.02661616, -0.66867185, -0.11298522, 0.039395906, 0.013815158, -0.10040873, -0.11861045, -0.014925376, -0.05305382, 0.0319695, -0.06992122, -0.055090718, -0.047176905, 0.045403857, -0.12751843, 0.23427282, -0.091045976, 0.08872951, 0.005775438, -0.19103995, 0.14406922, -0.1495475, 0.025615713, 0.1292829, -0.058154833, -0.01004533, -0.04108364, 0.14029999, 0.03586005, 0.061875362, -0.1244926, 0.030106641, -0.004846869, 0.11123137, 0.046610795, 0.54717284, 0.013548537, 0.039759237, 0.059208512, 0.0316296, -0.11959759, 0.012790695, -0.2882985, -0.053319488, -0.018509153, -3.8088617, -0.1000275, -0.13324483, -0.25596526, 0.0434454, -0.032772727, -0.05367435, -0.127449, -0.05716191, -0.03343573, -0.04221893, 0.040011965, -0.016779622, -0.010028249, 0.032924626, 0.036793653, 0.13182147, -0.110544406, -0.036453456, 1.516535, -0.37088636, 0.039257154, 0.12880976, -0.0014002147, -0.086015314, -0.06947616, 0.009206151, 0.022627452, -3.2292035, -0.04550519, 0.023802457, -0.08947905, -0.103645004, 0.2490134, 0.12935787, 0.085128054, -0.029278057, 0.0066006393, -0.028721834, 0.13635062, -0.054103836, 0.04144431, 0.07180909, -0.034519594, 1.4231368, 0.043256227, -0.03378475, 0.012913555, -3.5567677, -0.23597787, -0.09817376, 0.10679089, -4.04021, -0.14159828, -0.067452, 0.110872634, -0.04241862, 0.008602464, -0.021695463, 0.06769656, -0.041481577, 1.2176628, 0.05216899, 0.033790603, -0.04372766, 0.060588688, -0.005695897, -0.042980865, -0.15896335, 0.09046667, -0.101323776, -0.0011128555, 0.04525161, 0.003953565, 0.07457179, 0.1088662, -0.039355222, 0.01273655, 0.05734943, 0.30573556, -0.052594353, -0.19857487, 0.06779469, -0.08213434, 0.07821271, 0.035962798, -0.059938982, 0.08565808, 0.114076294, 0.10343066, 1.543514, 0.03483099, 0.08096531, 0.01245311, -0.062143497, 0.12445227, 0.040014353, -2.871048, -0.24832806, -0.063108996, 0.08602333, 0.053858705, 0.06109492, 0.031412836, -0.023503134, 0.19458568, 0.03919717, -0.061271954, -0.4633648, 0.00031107845, -0.021627821, 1.2101531, -0.06569064, 0.034961067, -1.0206953, 0.16034435, -0.0032559095, 0.034947556, 0.038156174, 0.043205377, -1.1079589, -0.14040953, 0.052009087, 0.015553282, 0.18240857, -0.04406875, 0.03990414, -0.19953507, -0.052202724, -0.052485846, -0.025777778, 0.010954675, -0.0032663548, -0.26923725, -1.4739255, 0.75823826, 0.024713295, 0.036598217, -0.02629472, -0.057062306, 0.04355988, 0.17549399, -0.11834238, -0.18145883, 0.0028651138, 0.30282333, 0.011881814, -0.65351427, -0.012493352, 0.021754982, 0.080835395, -0.011755463, 0.0014274523, 0.085788265, -0.72317225, 0.034022518, -0.18763025, -0.0688293, 0.0056827054, 0.008950471, -0.1154912, -0.018291187, -0.006925982, -0.44072297, 0.09545245, -0.022708852, 0.011679478, 0.0044305227, 0.0791218, -0.0489626, -0.03174709, 0.09694954, 0.036207125, 0.0826297, 0.14945804, -0.073509745, -0.05348216, -0.14101158, -0.017327638, 0.07134531, 0.08475609, 0.020507222, 0.19293633, 0.02761571, 0.16048738, -0.11739303, 0.06505064, 0.06449204, 0.03885219, -0.15679723, 0.008690758, 0.051872764, -0.06286929, 0.12863004, 0.054668635, 0.07932524, 0.12818372, -0.06991074, -0.071444795, -0.00050405075, 0.17717515, -0.08078794, -0.026957493, 0.09097831, -0.08526309, 0.28594208, -0.08737584, -0.040357724, -0.009255799, 0.13416821, -0.21193789, -0.15404843, 0.10807656, -0.05998449, -0.021076992, -0.17125517, 0.010267695, -0.15398626, 0.1025157, -0.0870602, -0.29056048, -0.01499468, 0.08810547, -0.068779886, -0.41422334, -0.09073798, 0.029511424, 0.07867286, 0.24822961, -0.048284594, 0.09466315, -0.004705853, -0.36714357, 0.011781008, 0.013963875, 0.28648135, 0.13531718, 0.24302721, -0.13089992, -0.020366475, -0.03531752, 0.0363172, 0.13200513, -0.14832024, -0.08511732, 0.17235287, 0.39498925, 0.07450712, 0.050135907, 0.006727798, 0.5777119, -0.055426158, -0.08175312, -0.035197593, -0.09249495, 0.051033884, -0.27265972, -0.037154146, -0.06031649, -0.23198481, -0.012267387, -0.03529202, -0.031675417, -0.08511023, -0.23024923, -0.024298588, -0.059076604, 0.23590498, 0.022758719, 0.05596883, 0.05120639, 0.029498545, -0.057161, 0.16615115, 0.03504061, 0.0061680325, 0.030201133, -0.04904187, 0.111832686, -0.1111872, -0.114480875, -0.27999786, -0.04688148, -0.16158207, -0.42816836, -0.09017597, -0.06358624, -0.11021424, 0.2086465, 0.15483926, 0.020198226, 0.22886238, -0.1497942, -0.019548845, -0.06682064, 0.23907228, -0.027843583, 0.10184448, -0.09868847, -0.15272631, 0.2048213, 0.10422821, 0.00526932, 0.07422898, -0.1673943, 0.23172858, 0.13117829, -0.06784713, -0.030743448, -0.046833415, -0.018792817, 0.36968982, 0.0035743495, -0.12641518, 0.053387538, -0.016624117, 0.40939343, -0.08919935, 0.10628545, 0.004691874, -0.03410162, -0.08206014, -0.14304744, -0.22657165, -0.0886868, -0.006431413, -0.059698936, -0.040507976, 0.03196965, -0.04912273, -0.035701506, 0.14086874, -0.07509887, -0.08107487, -0.09598255, -0.22655416, -0.078663364, -0.3508024, 0.11763938, -0.021198932, 0.012099493, 0.020310935, -0.009949171, -0.050893757, -0.48945603, 0.057787042, -0.005226629, -0.05066312, -0.0073604463, -0.093356244, 0.048486855, 0.05226712, -0.03586193, 0.029160587, -0.056598578, -0.08396651, -0.14071712, -0.14264165, 0.11603205, 0.05085268, 0.022699052, -0.039651714, 0.009925492, -0.008581011, 0.14129055, -0.13019526, 0.0986848, 0.075245924, 0.09112549, 0.022749225, -0.5601212, 0.0075151683, -0.29649755, 0.16651037, -0.112615675, -0.10695908, -0.13671055, -0.1923614, -0.051356718, -0.094373904, 0.24248722, -0.011791204, -0.08647189, 0.017143358, 0.10734291, 0.059266806, -0.07565094, -0.012656245, -0.028384412, -0.017678492, -0.1887359, 0.27047405, -0.08262376, -0.11889737, -0.25686723, -0.10774643, -0.1830657, -0.13972141, 0.3104173, 0.012387021, 0.09732179, 0.12532979, 0.11163285, -0.035476197, -0.24450661, 0.06773445, 0.038120277, 0.006728713, -0.41632196, 0.13381962, 0.0625896, 0.0918748, -0.26065117, 0.04703601, -0.092090905, 0.23888382, -0.03090897, 0.009201724, -0.07654919, -0.024032947, 0.060128216, -0.011957227, -0.010598179, -0.1274793, 0.0096926065, -0.07608456, 0.10122383, -0.015079947, 0.016112894, 0.113486774, -0.2608761, -0.03713358, -0.06599515, -0.012984908, 0.12277211, -0.13582796, 0.15507942, 0.09022206, 0.16556641, 0.060661625, 0.046095397, 0.26151675, -0.001426349, -0.2502311, 0.059786182, 0.004142765, 0.05850296, -0.08502353, 0.03220291, 0.14775543, -0.080789715, 0.19856921, -0.24135539, -0.056933466, -0.13262483, -0.1991556, -0.14915329, -0.008042506, -0.0022773962, 0.41376287, -0.29477793, 0.09940815, -0.029079325, 0.082679115, -0.050806314, -0.064729705, 0.16653402, -0.24006534, 0.11025228, 0.25895572, -0.13704108, 0.0018354767, 0.25151977, -0.0631607, 0.124052234, -0.33692932, -0.14771011, 0.04353451, 0.124294765, -0.18531542, -0.18575679, -0.06372675, 0.045253273, -0.09651138, 0.0921312, -0.2139222, -0.0938472, -0.11284548, -0.21577209, -0.044585593, 0.04606517, -0.009359245, -0.12636474, 0.15842551, -0.19730152, 0.038351778, 0.11788095, -0.010504468, 0.15072007, -0.1243429, -0.08033969, 0.005949861, 0.11010187, 0.19110736, 0.03866644, -0.028704736, 0.027113527, -0.025616169, -0.08048474, 0.029180186, -0.04289972, -0.10376034, -0.03826077, 0.14381091, -0.06570089, 0.057364594, 0.034793872, -0.005076448, 0.084272504, -0.048420236, -0.22532853, 0.0452942, -0.004453131, 0.12872273, -0.020688167, -0.05110022, -0.075968556, 0.16402623, 0.1973565, -0.015158728, 0.037099913, 0.049669456, -0.12491541, -0.31392193, -0.17604527, -0.016255006, -0.113782264, 0.21102466, 0.18221006, -0.004923654, -0.038882785, -0.00017496519, 0.01032305, -0.02153472, 0.158959, 0.14558403, 0.14976543, 0.2106574, 0.22054856, 0.01986648, 0.0037697132, 0.057499807, -0.09132219, 0.06936901, -0.26830983, -0.14516987, 0.19700019, -0.1101339, -0.03316375, 0.45931804, 0.093344525, -0.14567496, 0.0774964, 0.010059906, 0.102867275, -0.12842652, 0.036465883, 0.006464856, 0.027770415, -0.37050793, -0.13875982, 0.092521735, -0.08619215, 0.19605112, 0.036044158, 0.032367654, -0.018220088, 0.030625423, 0.14253084, -0.012528561, 0.2851102, -0.01255157, -0.07643077, 0.19589514, -0.138793, 0.13544758, 0.059802417, -0.039221697, 0.034350354, -0.04296447, -0.0045980616, -0.4200418, 0.1134699, -0.0505777, 0.0066644736, 0.020735769, 0.022253497, 0.033389386, 0.11680365, -0.08984668, -0.13062955, -0.20815676, 0.01621846, -0.0997203, -0.022689758, -0.060660556, 0.005785377, 0.04044784, 0.09591026, 0.0010648514, -0.06822363, 0.05474971, -0.19993669, -0.07208626, 0.04260482, -0.06732179, -0.21568714, 0.15158845, 0.023955252, -0.006415311, 0.053463135, 0.03861514, 0.10241905, 0.2155774, 0.1797419, -0.1456323, -0.10335885, -0.18593009, -0.11517279, 0.09844544, -0.19196819, 0.15979323, 0.0218358, -0.18693754, 0.17420734, -0.13852595, -0.0077697756, -0.05948377, 0.16887611, -0.20364767, -0.040598866, -0.17137434, -0.032122653, 0.14299025, -0.085669644, -0.106970586, -0.052843507, 0.16576566, -0.05613151, -0.0039796107, -0.23221667, -0.019817926, -0.09452016, 0.02084028, 0.39344788, -0.1401376, -0.24546397, 0.12905, 0.00071062933, 0.04116705, -0.2962987, -0.00030746937, 0.040234085, 0.0014222788, 0.09563495, 0.2524412, -0.066852495, 0.0009003267, 0.27565348, 0.057643916, 0.17901424, -0.24932815, -0.08838346, -0.031227125, 0.11288885, 0.2841257, -0.19514355, 0.15264429, 0.044620555, 0.13391168, 0.05719974, -0.10819334, -0.07546396, -0.06678796, -0.05157156, -0.11807787, 0.040973987, 0.07486079, -0.010901047, 0.034487527, 0.042686477, -0.080885485, -0.057154715, 0.043247037, 0.10623175, 0.05407695, 0.05389607, -0.015737835, 0.04511948, -0.29200813, 0.14523111, 0.036143932, 0.15784878, 0.0041925367, 0.084160894, 0.15360264, 0.00026901474, 0.2300776, 0.039518047, -0.09890823, -0.15195005, -0.18651861, 0.091205776, 0.039438896, 0.13037015, -0.18304974, 0.07751694, 0.12706594, 0.11509232, -0.23589993, 0.068411715, -0.09233503, -0.053560495, -0.10804745, 0.06663811, -0.08635205, -0.20651488, -0.13155827, -0.13143691, -0.0360969, -0.21704416, -0.44558176, 0.02109921, 0.056388337, -0.06671855, -0.009950606, -0.27153286, 0.021469014, 0.1432348, -0.069632314, 0.048592392, -0.0282762, -0.043290984, -0.25838572, 0.10548595, 0.025880132, -0.014270534, 0.012740114, 0.27429187, -0.05711356, -0.15478621, -0.013942903, -0.035314742, -0.022667054, -0.052717045, 0.24158639, 0.0123952925, -0.10609815, 0.17997988, -0.07478738, -0.004838857, 0.05891848, 0.3756302, -0.05334116, -0.108372435, -0.11312221, -0.0291996, -0.017974084, -0.30748686, 0.11175209, -0.2595708, 0.054510772, 0.21952267, 0.15601498, -0.19356956, -0.074360736, -0.09736757, 0.06891838, 0.15570988, 0.20585622, -0.061814483, 0.021338997, -0.035123706, 0.2834428, 0.058397613, 0.036162578, 0.09374115, 0.10050859, 0.123141274, -0.16330932, -0.20633037, -0.10490325, -0.029293677, -0.010371658, 0.03567196, -0.31250897, -0.21251927, -0.02103816, 0.027788427, 0.13266514, -0.33213347, 0.18318136, -0.02110039, 0.15087381, -0.21207625, 0.07494041, 0.031182554, -0.08016182, -0.16876507, -0.01171346, -0.5300171, 0.15523082, 0.24494718, 0.2352938, -0.26473057, -0.18840826, -0.073910065, -0.1618074, -0.039907098, 0.21017964, 0.008056725, -0.067260295, -0.040811352, -0.103333, -0.08478504, 0.015333769, 0.09341574, 0.19202085, -0.069488145, 0.009133543, 0.0069843763, -0.13966073, -0.022490729, -0.017846685, -0.100835174, -0.17340176, 0.054232348, 0.14957987, 0.23061824, 0.114585415, -0.22175647, -0.1038611, 0.0059449854, -0.19385353, 0.10072197, -0.023009442, 0.20801298, -0.1865673, -0.063696824, 0.045110174, 0.036190286, 0.09291175, -0.031731807, 0.00057374756, -0.10168074, -0.017652264, -0.06478082, -0.05675665, 0.07122753, -0.04631742, 0.012247112, -0.07924648, -0.064581044, -0.13070032, 0.099307775, 0.020689104, 0.019639459, -0.0029542753, 0.07649918, 0.04249652, 0.074005984, 0.08596162, -0.027021367, -0.07922936, -0.1356564, -0.06013608, -0.06177636, -0.43083045, -0.09205272, 0.27674025, -0.087893166, -0.1838581, -0.23457761, -0.22801977, -0.3601174, 0.042492278, -0.08514966, -0.08828153, -0.07236636, -0.16281405, 0.088041954, -0.2033902, -0.022301132, -0.09369373, 0.07390515, -0.13244013, 0.12455043, 0.18103395, -0.048335686, -0.10280581, -0.053988475, 0.03140923, -0.15939099, 0.5741004, 0.06721419, -0.08295737, -0.3166052, 6.643919e-06, 0.17217937, -0.26894146, 0.010269661, -0.061801706, -0.10312932, 0.028034192, 0.26184043, -0.16830692, -0.20603961, 0.038508363, -0.12001052, -0.019935317, -0.10998918, 0.17239521, -0.09522978, 0.14074941, 0.24500161, -0.1954601, -0.056375653, 0.002347464, 0.10055569, 0.09167988, -0.09741667, 0.3833433, -0.16302696, 0.09988472, 0.022778846, -0.09387881, -0.009306132, 0.04345778, -0.060230985, -0.010522967, 0.020613547, 0.00048052374, -0.3270823, -0.12757438, -0.034797024, 0.26275188, 0.18517683, 0.3199422, -0.10436742, -0.22908767, 0.25011626, 0.013531069, 0.17010292, 0.3181419, -0.050832547, -0.07106565, 0.0054096817, 0.4234953, 0.34648278, -0.046401422, 0.035689093, 0.08120378, 0.08951586, 0.5064921, -0.42282248, -0.26664793, 0.50058323, 0.093638204, 0.11444324, 0.06839576, -0.09778761, 0.75463086, 0.1426854, 0.11989216, -0.13555752, 0.09172374, -0.15127638, 0.19213851, -0.41351238, -0.23592763, -0.17435022, 0.016987912, -0.21969758, -0.14840786, -0.3368468, 0.0034342608, 0.21418223, 0.0625259, -0.13583465, 0.03707406, -0.42318356, 0.075822696, 0.27357578, -0.050166626, -0.052894916, -0.06893796, 0.07965415, -0.15939595, -0.67684513, 0.0694907, -0.3938423, -0.46146744, 0.25648147, -0.29484633, -0.11101503, 0.09135664, -0.22321868, 0.1838261, -0.11443482, 0.05967465, 0.10218985, 0.12902595, -0.4017975, -0.097762525, 0.8811956, 0.08599519, -0.12585858, 0.13098145, 0.35602084, 0.14850082, -0.101881996, 0.15682347, -0.08235669, 0.0029592009, -1.2324704, -0.0036947124, 0.2604531, -0.28214407, 0.03298873, -0.13112357, -0.18495628, -0.65188134, -0.21183579, 0.20183873, -0.4568422, -0.041733656, -0.104834, 0.19413662, 0.18811066, -0.26012042, -0.09889413, 0.04368686, 0.029312346, 0.30525494, 0.086924836, -0.031613905, 0.23046218, 0.063583314, 0.15063295, 0.07787764, 0.061462693, -0.10819999, -1.1178641, -0.25740552, 0.0065974337, -0.17911969, -0.048432786, 0.17116658, -0.059677735, -0.34292066, 0.22417328, -0.04566742, -0.8581157, 0.3836036, -0.24319695, -1.235291, 0.15566684, 0.14621377, 1.3938844, 0.16928524, -0.52274233, 0.22027364, -1.6262307, -0.020310897, -0.22348581, 0.033260383, -1.1765827, -0.08640387, 0.16629991, 0.03920487, 0.008043529, -0.5706786, -0.039560843, 0.2006415, -0.21884759, -0.15686105, 0.42453155, 0.19184089, 0.19916575, -0.021395152, -0.39222783, 0.013402028, 0.0013911364, 0.11299593, 0.23665537, 0.16340393, -0.11129618, -0.7102465, 0.0744579, 0.034539662, 0.12294302, -0.15660578, 0.079051375, 0.14799882, 0.031670637, -0.17198694, 0.25056815, 0.042111833, 0.10357742, 0.018193776, -0.34296954, 0.20502731, -0.24670225, -0.14452428, 0.09488319, -0.05958051, -0.13327931, -0.04015741, -0.03504219, -0.026636243, 0.13008823, 0.012770694, -0.214934, 0.21070161, -0.21578683, 0.014951016, -0.0012895846, 0.075441085, -0.3903694, -0.12451766, -0.049028877, -0.62479687, -0.3522417, -0.38680476, -0.0063997726, 0.22613944, -0.14618267, 0.04874508, -0.041649487, -0.08155828, 0.22874953, 1.3187448, 0.029523358, 0.22252744, -0.16416205, -0.27933365, -0.011502096, -0.613645, -0.15313488, 0.031590052, 0.03823437, 0.018591419, 0.07919241, -0.18293606, -0.06561637, 0.07528825, -0.13616778, 0.1319126, -0.5383045, 0.32674697, -0.21793912, 0.1404518, 0.3327769, -0.09456223, -0.04925235, -0.15145834, -0.06034552, 0.21773803, 0.66554224, -0.5251816, 0.019607551, -0.06617343, 0.12528121, -0.27778265, -0.044551913, 0.05196353, 0.015488435, 0.45327535, -0.13424996, 0.031818956, 0.0958885, -0.10111943, 0.2594296, -0.4991944, 0.25373217, 0.026456477, -0.012383264, 0.9585506, 0.15393466, 0.4733451, -0.03998178, -0.103321835, -0.061763603, -0.08267491, -0.24354964, 0.109585345, 0.06371115, -0.32686654, -0.09956712, -0.24604672, 0.012564574, -0.040387183, -0.004653685, 0.03513307, 0.00054689596, 0.03729001, -0.020072194, 0.021426784, -0.019396892, 0.062359132, -0.008407614, -0.045480456, 0.104612224, 0.041856315, 0.05932884, -0.011912089, -0.09569479, 0.010684241, 0.06294851, -0.009540285, 0.020145932, -0.024601644, -0.033956032, -0.027147546, -0.048111387, 0.0026209475, 0.0030356739, 0.13850743, -0.078954235, -0.015983323, 0.01746502, -0.0067024096, 0.0010604094, 0.016566563, -0.07893679, 0.045388456, 0.009818741, -0.008257759, -0.020546935, 0.009567233, -0.04905903, -0.07044688, 0.059428785, -0.08274615, 0.018924413, 0.04743305, 0.014924554, -0.023484267, -0.04470464, 0.012726356, -0.0077322284, -0.041361745, 0.07363158, 0.018569382, -0.10008386, -0.09078136, -0.08678444, -0.03827372, 0.1515429, 0.057521377, -0.08510028, -0.093967415, -0.009864913, -0.025696406, -0.057588335, -0.047230892, -0.037706338, 0.00055408897, -0.025500854, 0.03460861, 0.28287372, -0.024237726, -0.04002313, 0.001394661, -0.084688336, -0.09386521, 0.016328517, 0.008639048, -0.07073357, -0.0056896717, -0.08709243, -0.05382814, -0.067086525, 0.007986692, 0.025137836, 0.005275872, 0.02788957, 0.037020598, 0.026577318, -0.026381925, -0.054573487, 0.021336738, -0.047981024, 0.003298123, 0.05117689, 0.02975928, 0.03358968, -0.035573795, -0.012587178, 0.033426408, -0.0394068, -0.031365845, -0.02004181, -0.04099778, 0.032190967, -0.027611729, 0.00026393158, -0.05010971, -0.0045939274, -0.0041979505, -0.0026025327, 0.005219674, -0.15888721, 0.22726737, 0.021987434, 0.09555731, -0.03092906, 0.049111787, 0.066713266, 0.06980707, -0.025320489, 0.016858276, -0.044493433, 0.026591962, 0.23520887, 0.07409037, 0.016927848, -0.04923213, 0.02353598, -0.08599816, 0.014584567, -0.018265856, -0.07040185, 0.05001522, -0.083299845, 0.18821853, -0.0020724304, 0.0023637372, 0.065372266, -0.01562133, -0.028306887, 0.14147149, 0.059344806, -0.022496562, -0.05144247, 0.028292473, 0.023201093, -0.045440547, 0.25148356, -0.064777374, -0.0071156267, 4.6826317e-05, -0.075273454, -0.019022737, 0.027560966, -0.1001662, 0.044932738, -0.081991255, -0.036808003, -0.072138734, 0.01032171, 0.0043725264, 0.021783516, -0.051933877, 0.0044899713, 0.00011763192, -0.0024421744, 0.007462581, 0.03558917, -0.0066255387, 0.051644363, -0.006182388, 0.0062984256, 0.0106698405, 0.010230296, 0.00447986, 0.0024463665, -0.019185236, -0.03925088, -0.028667135, 0.05012789, -0.0318758, -0.0651265, 0.0020742437, 0.0039967084, 0.0029745575, -0.05297728, 0.007583139, 0.045361117, -0.05570645, 0.0034037565, 0.024262533, -0.011339351, 0.019429546, -0.001077568, -0.112614706, 0.0051991944, 0.07305878, 0.025350522, 0.047161225, 0.09590286, -0.15116209, -0.05627076, -0.060246825, 0.0023642548, -0.072496764, -0.037379477, -0.016907165, 0.017273868, 0.0044628032, -0.021679798, 0.011854803, -0.044560663, -0.0681156, 0.06758126, 0.14912298, 0.038270038, -0.05856284, 0.021705547, 0.023145337, -0.030203076, 0.09187814, 0.012701438, -0.040800616, 0.0076884083, 0.09485222, -0.014032705, 0.013744777, 0.009869332, -0.008118993, 0.016179841, 0.0014579673, -0.028998079, 0.057416156, 0.00069662964, -0.055832196, -0.017666064, -0.0019523775, -0.017967088, 0.093862355, -0.019933352, -0.033309672, -0.00792536, 0.20788616, -0.08515336, -0.008411967, -0.07093986, 0.032985847, 0.027080001, -0.04482997, 0.016254647, -0.020255554, -0.003539911, 0.0051500225, -0.14671026, -0.017136734, -0.008476641, -0.00401175, -0.0533909, -0.04178484, 0.08868945, -0.015889892, -0.016800558, -0.0035208391, -0.004177933, -0.040477067, 0.008298461, 0.049840882, 0.25427046, -0.075674795, 0.07727972, -0.020908432, -0.027288863, -0.07805161, -0.08142589, 0.1285385, -0.08954883, -0.00042204882, 0.025906619, 0.0009622112, 0.061945044, 0.0369509, -0.00265507, 0.06893874, -0.059426874, 0.025282279, 0.05284688, 0.11939036, 0.033865415, 0.05247776, -0.030915754, 0.071980916, -0.04106405, 0.014280404, 0.040405277, 0.08182395, -0.064357415, -0.035259623, 0.15818018, -0.0064557847, -0.021676498, -0.009497048, -0.009888784, -0.002314163, -0.14246579, 0.0034798079, 0.0860353, -0.065167546, 0.1721319, 0.038027164, -0.06295533, 0.0077848453, -0.16623288, -0.024049683, 0.1117533, 0.013832031, 0.020532133, -0.10769616, 0.052929685, -0.04175933, -0.005232495, -0.009240293, -0.0553476, -0.0963292, -0.030497666, 0.022919832, -0.114911936, 0.064055234, -0.002484764, 0.0024836557, 0.06324994, 0.08984373, 0.0038892345, -0.0060271583, -0.05972322, -0.07101254, -0.08275989, -0.102996044, -0.035797633, 0.10195516, 0.038932458, 0.026744504, 0.040502124, 0.06733623, 0.17009115, -0.034699515, -0.0472247, 0.09200902, -0.055238314, -0.038654894, -0.0056670113, 0.1590348, 0.064651795, -0.047201093, 0.041257303, -0.031693578, -0.077320635, -0.061182007, 0.13032643, 0.095854126, -0.026064279, 0.06609478, 0.0019104247, 0.013958413, 0.021666639, -0.009864534, 0.04876201, -0.026317082, -0.070853576, 0.26919696, 0.052837934, -0.07408864, 0.01721303, 0.019623345, -0.030426435, -0.09071592, -0.043159302, 0.046836086, 0.07136239, 0.04972772, 0.03474945, 0.061265077, 0.02073471, -0.07442674, -0.11915726, -0.047292653, 0.0051065516, -0.015450266, -0.016511286, 0.07759169, -0.037566274, 0.22844224, 0.015796756, 0.1637138, 0.040738862, 0.024771282, -0.06283998, 0.0022635695, 0.08150023, 0.022639483, -0.033952612, 0.048719626, -0.063372314, -0.020597532, 0.1936178, -0.11110561, 0.010185839, 0.10065835, -0.06290885, 0.02824564, -0.03977927, 0.043036576, -0.051536325, 0.02276568, 0.013627395, -0.048650034, 0.081417546, -0.023390807, 0.035297222, 0.046427857, 0.0858887, -0.0059243776, 0.037313312, 0.0019796614, 0.08427838, -0.013048775, -0.003968106, 0.025516503, 0.030567072, 0.023348352, -0.050737504, 0.09291887, -0.005754274, -0.024795879, -0.055677194, -0.02453391, 0.057830516, 0.008316436, 0.07003331, -0.014966758, 0.11367041, 0.01516622, -0.044177096, 0.010176482, 0.0071105636, 0.014368537, 0.03406694, -0.042503964, -0.06177025, -0.034924548, -0.06032719, -0.16021615, -0.031081354, 0.018522013, 0.08553835, 0.015844962, 0.0419904, -0.14581116, 0.00040864118, -0.019511107, -0.047709834, -0.0672453, 0.003084435, -0.045514345, -0.04603321, 0.01611229, -0.020668028, 0.03692144, 0.018980429, 0.078265935, 0.04752924, -0.25680795, 0.018121492, -0.08053612, -0.023661569, -0.022466123, 0.15095976, 0.056661896, 0.051480237, 0.036107294, 0.18228148, 0.07704576, -0.022243433, -0.034631275, -0.0053964374, -0.007298077, -0.0015630308, -0.02254042, -0.0020545376, 0.060969237, -0.067711696, -0.05062613, 0.121425405, -0.03183172, -0.022000836, -0.0074392376, -0.04985161, -0.014629947, -0.023287203, 0.06867902, -0.13558379, 0.18307643, -0.01587411, 0.05942767, 0.015278234, -0.09223547, 0.02889452, 0.045577478, 0.043122333, 0.06405829, -0.1152559, 0.017322386, 0.0224212, 0.013232435, 0.023158148, -0.025747752, 0.02728467, -0.027783187, 0.010453453, 0.039668106, 0.10325977, -0.10775158, -0.017752092, -0.024245583, 0.18637249, 0.008501073, 0.012075167, -0.03555947, -0.038387347, 0.061327685, -0.015148784, 0.025492882, 0.10736259, 0.04057688, -0.11821652, 0.08638987, 0.015860729, -0.10551336, 0.13515118, -0.066370115, -0.08781851, 0.006534001, -0.060127404, -0.040489733, 0.0453615, 0.071940124, -0.25263613, -0.0531827, -0.033661738, 0.020599434, -0.019452892, 0.024971794, -0.06833184, 0.0024197497, 0.02084788, 0.024107171, -0.002638505, -0.0348164, -0.09255383, -0.0892054, -0.08525633, -0.006412803, -0.04742622, 0.09637757, 0.12946562, 0.024729071, -0.1118953, 0.061451916, -0.118535504, -0.016016478, 0.1086502, 0.1346709, -0.10544138, -0.06899934, -0.1170761, 0.040103126, -0.0036479996, 0.014460346, -0.0011317208, 0.003950095, 0.027715098, -0.08184852, 0.081847504, 0.017259141, 0.073106684, -0.026450364, -0.07596994, -0.017749574, 0.07989374, 0.047512855, -0.08157841, -0.02206625, 0.05776807, -0.03171215, -0.0052289637, 0.025177829, 0.0057779686, 0.029566316, -0.04760538, -0.11742088, -0.031229215, -0.051551245, -0.09581326, 0.02229729, -0.1059941, -0.044465814, 0.0077762306, -0.08161474, 0.06864564, 0.011203526, -0.09179119, 0.0026328259, 0.11941788, -0.14488482, 0.026004093, 0.056781854, 0.090363406, -0.09332198, 0.10010771, -0.16510713, -0.16441691, -0.1038411, -0.025056014, 0.14986043, 0.19641562, 0.27008003, 0.028317463, -0.030707695, 0.04102707, -0.012006074, 0.0830501, -0.17099746, -0.012043603, 0.0361946, 0.07314207, -0.09530777, 0.119694, -0.030154403, -0.024615912, 0.058037903, -0.14595215, -0.019125694, -0.05489141, 0.048796583, -0.075237535, 0.030086692, -0.0066650887, 0.09335789, 0.023724549, -0.04486566, -0.037671864, 0.030343393, 0.008659926, 0.087398306, 0.009885281, -0.07230043, -0.08165287, 0.020425854, -0.057709884, -0.104115926, 0.046037707, -0.06980744, -0.047126826, -0.22869885, 0.01876768, -0.007873382, -0.02928014, -0.104856834, 0.034891814, 0.10589318, 0.05046824, -0.045243476, -0.0121286, -0.17895725, 0.073657416, 0.049742535, -0.015024485, 0.0241429, 0.091974065, 0.10827403, 0.14158528, -0.07932582, 0.03046894, -0.058396768, 0.056455445, 0.013602515, 0.03534707, 0.06878437, -0.01898786, 0.03133734, -0.048896164, -0.16369495, 0.048554488, 0.05959475, -0.11509614, -0.013874808, -0.052388646, -0.07351332, -0.14568737, 0.0015924965, 0.09212694, 0.007101989, 0.0019731752, 0.058512844, -0.008874247, -0.04293322, 0.34463763, -0.22122023, -0.07429603, -0.010021178, 0.11507219, -0.07991312, 0.046932418, -0.1654022, 0.0049226903, -0.153614, 0.039494146, -0.06844395, -0.06638672, -0.0072163865, -0.016264932, -0.026808618, -0.0147784585, -0.023245731, 0.016713774, 0.16158405, 0.08033825, 0.0748062, -0.11727005, 0.007590089, 0.011754164, 0.007944265, -0.18608592, 0.059890863, 0.15944993, -0.0819795, 0.119402766, 0.05887679, -0.120351166, -0.10628216, 0.091334306, -0.043604758, -0.092271574, -0.018245848, -0.16815035, 0.006366713, 0.033070542, 0.07714283, -0.08129678, -0.06440086, -0.015215946, -0.09560049, 0.14794816, -0.104293406, -0.039244726, 0.07703224, -0.21440929, 0.050651845, -0.042474695, 0.0156117985, 0.050607074, -0.061625533, -0.017193863, 0.031118868, 0.024199035, -0.14900483, -0.15725906, -0.20975439, 0.010572986, 0.036791403, -0.13248615, -0.1807246, -0.02999747, -0.028090686, -0.08595629, -0.102523625, 0.08094007, -0.0068299123, -0.03368127, -0.058894597, 0.22251199, 0.32614756, 0.06308628, -0.0449084, -0.12365985, -0.14975308, 0.026320867, 0.0070324624, -0.17329665, -0.065719426, 0.0037433652, -0.080652066, 0.052424226, -0.07861029, -0.08863411, 0.12877244, -0.017256275, -0.051070534, 0.022240222, 0.23518331, 0.083419554, 0.14765546, -0.1535421, -0.17504387, -0.059063215, -0.12521909, 0.024133284, 0.07571332, 0.08812844, -0.001699504, -0.0223843, -0.016036058, 0.057609033, 0.11388182, -0.09944058, -0.11057251, 0.101067334, -0.021154702, -0.049249385, -0.13681892, -0.10295419, -0.0068433345, -0.2630464, -0.034798052, -0.1989854, 0.05478822, -0.09558843, 0.16561742, 0.10285946, -0.23626405, 0.08794406, -0.16756348, -0.17025429, -0.08436837, 0.25134188, 0.11269687, 0.25765565, -0.081255786, 0.034110732, -0.015121712, 0.17607796, -0.003998801, 0.09732885, 0.10789187, -0.035509046, -0.04615338, -0.045943152, -0.050975982, -0.0026086904, -0.057172514, -0.1838464, -0.18191151, 0.15447536, 0.018327812, -0.29413778, -0.0052635684, -0.29061264, -0.042603478, -0.04714776, 0.10537938, 0.12968045, 0.061514527, 0.0012944384, 0.23724504, 0.14328793, 0.12889388, -0.014236002, -0.14124382, -0.09697947, -0.098786935, -0.21020956, -0.02967681, -0.16908383, 0.28774372, 0.007876056, -0.11029163, -0.12731671, -0.32371527, -0.020238644, -0.053403046, -0.27197143, 0.32426947, -0.2356864, -0.020318715, 0.25376526, -0.05304455, 0.0810434, 0.22607212, 0.06785645, 0.24001926, -0.35286734, -0.18622947, -0.14833447, 0.0333435, -0.31925714, -0.062839754, -0.09355372, -0.013091701, 0.043797698, -0.05353745, 0.024828775, 0.034280308, -0.16307014, 0.089573756, 0.029830454, -0.010681462, 0.060464203, 0.05931911, -0.113671064, -0.079664774, -0.008478908, -0.047290716, -0.018697219, 0.00792994, 0.046377003, -0.21315372, -0.12466211, 0.027880115, -0.20762034, -0.020987943, -0.08769986, -0.044642583, 0.07849807, 0.032295, 0.10491118, 0.10562865, -0.12491339, 0.07091974, 0.027683532, -0.09116935, -0.015974456, -0.17018312, 0.1405075, -0.023691261, 0.07409814, -0.0011936567, 0.09739064, 0.1660177, -0.036481872, -0.024520388, 0.050596785, 0.0141607, 0.06362621, 0.13610592, 0.06798856, -0.032599818, -0.026385263, -0.074224986, 0.046965502, 0.042840436, -0.17584242, 0.052203592, 0.05668884, 0.07613034, -0.18606247, -0.17940556, -0.16343154, -0.010435433, 0.05716393, -0.12172452, 0.27207652, -0.09856343, -0.8148468, -0.0596453, -0.04520476, 0.066068314, 0.03240112, -0.027618293, -0.021433372, -0.10861244, -0.227845, -0.29036123, 0.22629918, -0.123723015, 0.046458635, -0.26045495, -0.061302815, 0.022460407, 0.02508325, 0.07024616, 0.01767755, 0.06259678, -0.0686245, -0.21949436, 0.019594317, -0.07263743, -0.17674223, 0.02659786, 0.02399935, 0.06667255, 0.038718887, 0.15674356, 0.16859643, 0.26771492, 0.015681945, 0.042440366, -0.013765071, 0.09410608, -0.05014042, -0.0232462, -0.057376042, -0.07118046, -0.00033579266, 0.011582459, -0.095835276, -0.013701211, -0.0035923433, 0.2142284, -0.034828972, 0.039343275, -0.0041084685, 0.005288985, 0.06890218, 0.090082355, 0.053127192, -0.0025195759, 0.06425611, -0.0253006, -0.16133347, -0.07512286, -0.117342494, -0.114870325, -0.076695316, -0.17476901, 0.022576291, 0.03967654, -0.026202992, -0.02402813, 0.046163417, 0.007148154, -0.034419388, 0.0229683, 0.051035017, 0.043654375, -0.055856913, -0.020399626, -0.046062414, -0.022132684, -0.06957281, 0.03939367, 0.069526434, 0.07697579, -0.052707247, -0.0037957355, -0.067704655, -0.0008472055, -0.07683636, -0.052806824, -0.03854106, -0.05113686, 0.03231276, 0.052884355, 0.06638686, 0.026331171, 0.033558942, -0.039174773, 0.06354952, 0.002610907, -0.012874275, -0.07051315, 0.04649418, 0.041214794, 0.06905919, 0.009917133, 0.015368439, 0.017374903, 0.027429849, 0.004567288, -0.009347953, 0.07774645, 0.052196115, 0.05693899, -0.021866601, -0.031652093, -0.055910528, -0.026203644, 0.048519015, 0.011241473, 0.05230862, -0.046731286, 0.003326118, -0.077815674, 0.0674956, 0.053404197, 0.0487227, -0.0015126616, -0.069450445, 0.053435296, -0.014444441, -0.06606847, 0.059223652, 0.032875754, 0.05552955, -0.048590936, 0.013494283, 0.053035706, -0.022212863, -0.04811429, 0.022778325, -0.03968413, 0.029286131, 0.071131125, -0.028463747, -0.0130448565, 0.053225935, 0.047413737, -0.038244713, 0.06974161, 0.01036714, -0.077030495, -0.011844248, -0.051557276, -0.015189916, 0.029169425, -0.06884918, 0.0021343306, -0.04646137, -0.01022163, 0.06534153, 0.062395602, -0.044669803, 0.014941104, 0.03348718, -0.04704147, -0.01605681, -0.02751303, 0.015480883, -0.0013615415, 0.017575711, -0.007887542, 0.00022729486, -0.06354922, 0.042665914, -0.008180223, -0.060163617, -0.028943405, -0.039148096, -0.027523875, -0.0015217289, 0.026671752, 0.060248867, -0.0022154972, -0.025598068, -0.05355262, -0.05825576, 0.049021304, -0.055185817, -0.023274336, -0.006517321, 0.026750602, -0.05090213, -0.02069166, -0.06410169, -0.034825373, 0.058950707, -0.07260088, 0.053691328, 0.016514182, -0.047070555, -0.057575673, -0.009520009, -0.047394775, -0.0010304078, 0.0024261028, -0.024666067, 0.06493892, 0.00837598, 0.03229694, -0.038037684, 0.029291734, 0.04479365, -0.024994139, 0.023550086, 0.006922506, -0.035876077, 0.031512022, -0.06748302, 0.045883402, 0.0015091673, -0.037086558, -0.061222643, 0.005238481, -0.056099556, 0.008252963, -0.02531692, -0.048519135, -0.058031026, 0.037001856, 0.07030709, 0.011220127, -0.073770046, 0.07169528, -0.0028882995, -0.035545614, -0.01887719, 0.033443414, -0.04836499, -0.013294727, 0.017884046, 0.045844674, -0.032974023, -0.055438556, -0.0031063184, 0.06154473, -0.0045623034, -0.018540706, 0.024994157, 0.0021453053, 0.0062864795, -0.051307738, 0.06346351, 0.020860277, 0.045965582, -0.03235964, -0.06971716, -0.013971247, 0.026206471, -0.0193916, -0.029900435, -0.062036954, -0.016335137, 0.05596696, 0.009017728, -0.021682508, -0.02072082, -0.07642718, 0.031212889, 0.056126863, -0.0066144913, -0.06261679, -2.4840236e-05, 0.03602144, 0.05928625, -0.071665116, -0.006496966, 0.040680967, 0.062470168, -0.032091483, -0.057653043, -0.028360501, 0.07628466, 0.00037171692, 0.0051719695, -0.0654545, 0.048506677, -0.076785274, 0.00016394258, -0.014038824, 0.05557646, -0.0394648, 0.028816603, -0.009164795, -0.008817613, -0.041813437, 0.017681964, 0.030237742, 0.028920151, 0.051070333, -0.046315804, 0.0053730384, 0.05570604, 0.037864752, 0.008988231, -0.0122000575, -0.01859219, 0.055780247, 0.014861621, -0.038193025, -0.032996323, -0.02719558, -0.0022574812, -0.018653933, -0.03445827, -0.077367574, -0.05507078, 0.046821177, -0.05945108, 0.0414949, 0.015949585, 0.078391254, -0.013930045, -0.0042129904, 0.07024801, 0.062470466, 0.054663107, 0.046046846, 0.007693574, 0.066077605, 0.053731784, -0.07775363, -0.0014990866, -0.05582121, 0.011922665, 0.020086646, 0.07741995, 0.019293495, -0.07003506, -0.06663363, -0.033007838, -0.033846766, 0.055374995, -0.060120586, -0.02427556, 0.011216588, -0.05790664, -0.02040372, -0.059692204, 0.03651975, -0.070099235, 0.035507478, -0.06884492, 0.045150116, -0.07175047, -0.04349157, -0.0351512, -0.07277336, -0.074703656, 0.02674295, -0.025261417, -0.057657532, -0.06557799, -0.06037323, -0.060921267, -0.013600759, -0.0438122, 0.018403701, -0.027282186, 0.026978582, -0.0768956, 0.061892107, -0.029208101, -0.044902872, 0.0103033185, -0.07067115, 0.01716505, 0.06541982, -0.0019109994, -0.009682544, 0.035471305, -0.021474317, 0.014956661, 0.015558422, 0.066815645, -0.06475052, 0.060101405, -0.0025748238, 0.06477621, -0.043231692, -0.008377813, -0.026245333, -0.076652676, -0.044574037, 0.0013069585, -0.053051654, -0.048103146, -0.061427563, -0.015956387, 0.051117837, 0.012342088, -0.00062660873, 0.06010425, 0.05740571, -0.013643421, -0.025699444, 0.04087816, 0.049966678, 0.03410861, -0.07138346, -0.018582955, -0.025609266, -0.008944452, -0.06925141, -0.016850851, 0.0046664625, -0.018414564, 0.06269199, -0.064882495, -0.07643763, -0.03749, -0.07160969, -0.046511788, -0.053912044, 0.038530372, 0.02861946, 0.018341005, 0.025311388, -0.02295176, -0.04076258, 0.0359253, -0.016837224, 0.06738649, 0.065882266, 0.055382535, -0.06181091, -0.022084437, -0.068603106, -0.040436696, -0.048812754, -0.06695286, 0.07003312, -0.042965982, -0.07514585, 0.058658004, -0.07656259, 0.020411216, -0.014738485, -0.071575, 0.06844254, 0.042929046, 0.043706916, -0.007322602, 0.015300617, 0.032087125, 0.05996859, 0.0072021782, 0.06155187, 0.008957945, 0.05472824, -0.019157726, -0.026771985, -0.059567202, 0.07239197, 0.06028439, -0.027124412, -0.0034017712, 0.05391702, 0.056400523, 0.04488655, 0.07156555, 0.06033887, 0.05398287, 0.07559134, 0.041743204, 0.015469737, 0.018616773, -0.020122629, -0.04460935, 0.03962207, -0.026378412, -0.07371725, -0.0074228346, -0.04897935, 0.00090265274, 0.05021456, 0.0327966, -0.025979549, -0.037669215, 0.0666472, 0.0051394254, 0.04068081, -0.039532248, 0.06840739, 0.034911044, -0.017274726, 0.039614983, 0.03966961, -0.040982902, 0.031016007, 0.03571208, 0.07309513, 0.02924586, -0.07693142, 0.07190704, -0.03427051, 0.07593416, -0.0674272, -0.06667195, -0.06399016, -0.05556666, -0.04465829, 0.04259041, 0.03131458, -0.06616678, 0.022556879, 0.0028306842, 0.028328575, -0.052668475, -0.06839327, -0.04884971, 0.016304106, 0.015935771, -0.015749842, -0.01744413, 0.0051060766, 0.024920858, -0.03860967, -0.01960839, 0.060594276, -0.059812702, -0.0685292, -0.028471485, -0.02202858, -0.05383252, -0.07835111, 0.035483062, -0.028662868, -0.058372576, 0.030007496, -0.0111024305, 0.00828962, 0.05983235, 0.045278013, -0.06983306, -0.06609368, -0.057227038, -0.02589006, -0.066399515, 0.077052936, 0.0059606135, 0.0208456, -0.07260809, 0.004057035, -0.049152397, -0.049131945, 0.052618325, 0.07016872, -0.022045441, 0.04537963, 0.0068323687, 0.07535462, -0.06933737, 0.05536054, 0.010810159, -0.04560104, -0.022663955, -0.06759004, -0.028326236, 0.0045744106, 0.005005859, -0.031330638, 0.06261879, -0.03324379, -0.05667328, -0.032745626, 0.024703637, -0.058775887, 0.033155665, 0.06256734, -0.046776917, 0.058109924, 0.025090948, -0.064276904, -0.055501252, 0.010304272, 0.054566264, 0.012797669, -0.052821144, 0.04173094, 0.023134224, -0.025740419, -0.03780295, -0.035529576, -0.004346244, 0.018504143, 0.00657434, -0.0741255, 0.05955565, 0.044759423, -0.07312166, -0.05251625, 0.068678826, 0.035798088, 0.06933892, 0.038638905, 0.0022587404, -0.061329924, -0.005276166, 0.03797181, 0.07272489, 0.061292693, -0.018105898, 0.002907738, 0.06265649, 0.059210986, 0.02920337, 0.040186614, -0.054874066, 0.060774088, -0.06001299, -0.07430266, -0.07013371, -0.027777582, 0.06042503, 0.05597481, -0.058487445, -0.032613218, -0.07574008, -0.038872216, 0.05980952, 0.03951729, 0.06654976, -0.06080505, -0.038788676, -0.07216227, -0.03480034, 0.035395376, 0.007835552, -0.04008935, -0.026414976, 0.024303414, 0.0056704506, 0.0752587, 0.05566196, -0.06503064, -0.029616836, -0.032331977, 0.07778074, -0.00048767775, -0.05763676, 0.06528577, -0.07263912, 0.015352681, -0.03817798, 0.024668872, 0.044817634, -0.014811575, 0.0073666647, 0.02325721, -0.0058555007, 0.030098453, -0.07358419, 0.039123103, -0.05777545, -0.042156126, 0.076799065, 0.005117722, -0.017743822, -0.07373432, 0.04947059, -0.009970911, 0.04196427, 0.053091317, -0.04332247, 0.009794913, 0.033165053, 0.03878688, 0.034563005, -0.013152607, 0.05685094, 0.04689227, -0.05343132, 0.0042115524, 0.05647199, -0.037300933, 0.06298815, -0.058096547, 0.062624305, 0.06460683, -0.059506133, 0.07549791, 0.020513266, -0.03888936, 0.024921924, 0.04275512, 0.07028857, -0.041487943, -0.0019517317, 0.0063531175, 0.057554215, -0.04302154, 0.013302639, -0.016394395, -0.049666464, 0.031353354, -0.061667625, -0.0056614205, -0.0630787, -0.032911867, -0.055433583, -0.046341974, 0.060350344, 0.0072870627, -0.0733918, 0.054931864, 0.018407047, 0.038217492, 0.02588892, 0.03825576, -0.0074440762, 0.037853643, -0.0376285, 0.046135746, 0.0051633716, 0.025150567, -0.017989155, -0.068657406, -0.0026916042, -0.012760505, 0.03836342, 0.018949665, 6.379932e-05, 0.054931536, 0.028663486, 0.038982376, -0.010596119, -0.022588786, 0.064209566, 0.026580751, 0.04750696, -0.01567576, 0.032056823, 0.013044313, -0.064542815, 0.021939151, 0.055299684, 0.06165704, 0.023574233, 0.007170871, -0.07550303, -0.04544723, -0.023217618, -0.01952365, -0.039258536, 0.0547871, -0.055351965, 0.020210825, -0.0092243105, 0.07386951, 0.054585293, -0.01710146, -0.06277652, -0.031999044, -0.06040312, 0.04870127, 0.03017407, -0.057960927, -0.0072820038, 0.040089913, 0.01712817, 0.00887493, -0.044873003, 0.030643038, -0.02675318, 0.031212233, -0.051437452, 0.06394993, 0.07640296, -0.07786234, 0.044207737, -0.062065236, -0.03216065, -0.01670067, -0.047969244, -0.009692587, 0.04127609, 0.059270576, 0.034069873, 0.04814741, 0.058649525, 0.06055364, 0.029282838, -0.03381779, -0.07599134, 0.0566829, 0.046650305, 0.06664376, -0.028521229, -0.025327705, -0.07155103, 0.032874085, -0.062117986, -0.034460437, -0.024805818, -0.04401828, 0.035267226, -0.014119841, 0.02774436, 0.027223207, 0.0520273, 0.06374973, 0.05186525, 0.03293819, -0.040713735, -0.041394066, 0.028223962, -0.014434136, -0.055157647, -0.05697705, 0.043381296, 0.06637931, 0.07025008, 0.058973074, 0.012035124, -0.040994566, -0.0065557957, 0.015283383, 0.0055910945, 0.06858139, 0.06410976, 0.062435374, 0.055093363, 0.042670645, 0.02902846, 0.062066607, -0.32798776, -0.1880736, 0.04568567, -0.13186307, 0.10869044, -0.16361019, -0.12412403, -1.9768627, -0.026424918, -0.10004447, -0.23364328, -0.73281085, 0.050144427, -2.1251578, 0.009928934, -0.06097637, 0.00041756724, -0.040399723, 0.17197326, -0.009134319, -0.21073236, 0.13389993, -0.046200186, 0.09706567, -0.23279025, -0.05562275, 0.029915417, -0.024330216, -0.05752895, -0.5621298, -0.01861303, 0.16804433, -0.11724981, 0.38254753, 0.07652061, 0.104508474, 0.16499023, 0.0875788, -0.2632847, -0.78352374, 0.11377018, -0.09597767, -0.015017235, -0.16778451, 0.113761075, -0.16754702, 0.12050936, -0.009436705, 0.038356997, -0.2685704, -0.13612834, -0.062211044, -0.4977114, -0.19369562, -0.42893854, -0.12006972, -0.20310725, -0.03789117, -0.13245384, 0.7728776, -0.03414051, -0.32305318, 0.004172997, -0.057832126, 0.01602851, -0.099159434, -0.21054865, -0.45803607, 0.07326132, 0.00094345, 0.019152163, -0.00911179, 0.3831765, -0.12748672, -0.00260501, -0.20588149, -0.003160738, 0.13678743, 0.067490846, -0.25440994, 0.14965752, -0.041046333, -0.021883262, 0.029640444, -0.45985374, -0.120877914, -0.013452733, 0.010098182, -0.82311904, -0.11379125, -0.054133207, 0.13751303, -0.11090946, 0.052428685, 0.0032630707, -0.08573056, -0.13056785, 0.8017541, -0.16094771, 0.10466822, -0.32058182, 0.03235065, 0.3887104, -0.14433697, -0.2061577, 0.015279675, 0.041462943, -0.15128286, -0.2260724, -0.12046597, 0.18415701, 0.084414646, 0.19891904, 0.05690601, 0.017645217, 0.11432965, 0.2763147, -0.04367251, -0.19300939, -0.10990308, -0.18932627, -0.46663657, -0.25610855, 0.16426834, 0.11846758, 0.15425734, 0.40906784, 0.53757405, 0.10201013, -1.7538966, 0.036048636, 0.02866572, 0.01617837, 0.012130428, 0.01764252, -1.1680042, 0.124999985, 0.08991568, -0.051077444, -0.4122775, -0.10325921, 0.023657631, -0.0021085658, 0.0135976225, -0.14300355, 1.1677495, -0.15069346, -0.49807912, -0.074122526, -0.15726997, 1.1874192, -0.44056317, 0.07900722, 0.262937, 0.012910462, 0.019610416, 0.14277564, -0.090352714, -0.18508436, -0.43466118, -0.08743, 0.031472605, 0.0043003913, 0.067270845, -0.06488643, -0.039910365, -0.14124845, -0.010940852, 0.5952085, 0.08219238, -0.071328804, -0.13084982, -0.25952125, -0.101496205, 0.08578932, -0.01699529, -0.19178414, 0.17900322, 0.07988308, 0.04927229, -0.25264883, -0.01124359, 0.0077821775, 0.10320564, -0.3182638, 0.033805113, -0.078578226, 0.015336393, 0.09444225, 0.7859223, -0.33739293, -0.017448377, 0.12647922, 0.2760929, -0.5306874, -1.7681305, 0.14481486, -0.015185721, -0.0031259942, -0.072415225, -0.18369466, 1.1522703, -0.24299958, -0.070278384, -0.3822046, -0.105704464, -2.1034913, -0.03855631, -0.0043283864, -0.042202316, 0.018185165, -0.045707107, 0.05040859, -0.7200595, -0.036861904, 0.035566807, -0.038588617, -0.056272916, 0.074695274, 0.051644012, -0.6771863, 0.022541136, 0.6948054, -0.049606364, -0.07263907, -0.13549927, 0.06417081, 0.05412076, -0.046041917, 0.011417876, 0.047854554, -0.62910926, -0.33602569, 0.14490762, -0.2736566, -0.06910461, -0.52535975, 0.71989805, -0.03371333, 0.033160284, -0.39741167, 0.06441194, 0.3124815, 0.06166834, 0.026696214, -0.11139284, 0.064838775, -0.18396911, 0.06682702, -2.4355528, 0.052936424, 0.13656856, 0.08177303, -0.15319791, -0.054215517, 0.49430496, 0.02490896, -0.01420182, 0.010590687, 0.06723815, 0.10457108, -0.4520409, -0.09277645, -0.23283328, 0.0073232143, -0.05294512, 0.120666996, 0.08171837, 0.03963649, -2.384959, -0.05873259, -0.0063381405, 0.0058903964, -0.120383136, -0.5893451, -0.055495445, -0.56506443, -0.043322816, 0.00072871, -0.018620072, -0.0463949, 0.097620316, -0.027459428, -0.019040398, 0.0075793248, 0.042165164, -0.045571167, 0.24009272, -0.03849421, 0.39421955, -1.0065295, -0.035731703, -0.14435785, 0.0053691952, -0.063978836, -5.050296, 0.014027602, -0.10363911, 0.023686327, 0.03761102, 0.05308515, -0.08681555, -0.035319936, -0.03364943, 0.038400378, -0.023091478, 0.24881876, -0.01688566, -0.032541856, 0.13482898, -0.05365905, 0.048757073, -0.05832415, -0.012322192, -0.013781601, 0.4902976, 0.020229168, -0.128965, -0.01612667, -0.003321391, 0.039748587, 0.01787925, 0.032533646, 0.029393379, -0.052730076, 0.057359032, 0.03739982, -0.0021133935, 0.5008731, -0.08618913, 0.025143437, -0.2497266, 0.043114886, 0.7128234, 0.0051766722, 0.045767404, -0.026290227, -0.022520782, 0.0005013858, -0.029346786, -0.32878146, 0.021822337, -0.04870111, -0.010933479, -1.7390121, 0.004245538, -0.06772078, -1.436318, 0.028317066, 0.114271276, -2.1845608, -0.012793608, -0.06285814, 1.6354653, -0.082642704, 0.33275932, -0.0033603085, 0.015144633, -0.18472585, -0.0052513084, 0.041705366, -0.6628244, 0.023388008, -0.031152872, -0.02407692, -0.07549314, 0.030248817, 0.19446795, 0.00245291, 0.1837738, -0.056573328, -0.00631706, -0.0071353447, -4.1738315, -0.052919988, 0.02126752, 0.0038331095, -0.028643452, 0.064432085, 0.042694777, -0.009544858, 0.012226359, 0.8222029, 0.36018878, 0.06927901, -0.4369597, -0.0468447, 0.0021660903, -0.069121525, 0.11028305, 0.009048717, -0.3805795, 0.04149512, 0.0035530587, -0.024946658, -4.932565, 0.011690152, -0.04162248, -0.01618155, -0.00060332054, 0.26194873, 1.3507646, -0.11121133, -0.21236488, -0.00063993793, 0.03599505, -1.4608212, 0.02078433, 0.0006915873, -0.03972295, -0.010441126, -0.11221377, 0.009903584, -0.061640188, -0.040578965, 0.023024462, 0.0080250725, -0.017457921, 0.054541595, 0.0041161506, -0.10782577, -0.0077338303, -0.00935559, -0.08576039, -1.0833517, 0.0027830373, 0.047834646, 0.10510451, -0.66758126, -0.013671536, 0.028166316, 0.06577931, -0.06853542, 0.0018037516, 0.01043425, -0.0034336224, 0.010108156, 0.014162494, -0.06524318, 0.055774085, 0.007672298, -0.034263346, 0.13283014, 0.0061703483, -0.04437214, 1.556411, 0.018101847, -0.07244903, -0.449056, -0.036065154, -0.08738621, 0.03422117, 0.0053995457, -0.013834453, -0.047128398, -0.16749547, -0.3629632, 1.613073, -0.07837698, 0.017097995, -0.01804043, -0.011308979, -0.9225955, -0.047535762, -0.013776577, -0.004578661, -0.05831357, -0.017142717, -0.007944072, -0.28465587, -0.000287345, -0.046383966, 0.034931127, -0.020343963, -0.08036069, 0.021972883, -0.017150167, 0.07354172, 0.2252536, 0.11829122, 0.099995375, -0.123675354, 0.0040260116, -0.009006567, 0.0398749, -0.0065269894, -0.014860098, 0.0076630493, -0.12157121, -0.011843564, -0.049074594, -0.098960355, 0.029316027, -0.029786289, -0.009344721, -0.029380709, -0.32826278, -0.17859, -0.089910366, -0.0017124668, -0.012364826, -0.02522437, 0.0021281135, 0.0137112755, -0.010567392, -0.8247289, 0.017527547, -0.036277108, -0.04782259, -0.5222827, -0.018172605, 0.45980856, 0.0094136605, -0.059778128, 0.003091329, 0.07983318, 0.13369322, -0.088730685, -0.012764382, -0.18640473, -0.0007996698, 0.020628281, 0.054451104, 0.0035838748, 0.03187499, -0.27747107, -0.009348456, -0.067204855, -0.06201574, -0.040328536, 0.19896653, -0.07640418, 0.07557853, -0.014630654, -0.013300064, 0.010620388, -0.039545223, -0.30588913, -0.15715158, -0.009716153, 0.021348875, 0.0970615, 0.0011186039, 0.3556122, 0.0102285165, -0.12530987, -0.019289277, -0.0113351885, -0.066629745, 0.040026546, -0.026581874, -0.09220577, -0.054179017, -0.03312659, 0.0028027638, 0.014691251, -0.028362628, -0.08797466, -0.014758944, 0.011452467, -0.0032503328, -0.0907551, -0.11932197, -0.034155566, -0.031240763, 0.41035587, -0.08043556, 0.0170238, 0.0048551382, -0.056837317, 0.0064731315, 0.3569388, 0.046943754, -0.0035807565, 0.0022905683, -0.043811798, -0.0008858857, -0.017372673, 0.02506554, 0.005212798, 0.17215657, -0.0028915599, 0.015479826, -0.0050973115, 0.1554208, -0.12338247, 0.011398573, -0.19774485, 0.017824216, -1.383191, -0.020563917, -0.00931191, -0.002436842, 0.023956725, -0.04270891, -0.06262554, 0.07688602, -0.0014796928, 0.03500505, 0.0043219896, 1.228569, -0.050400104, -0.066119336, 1.026339, 0.015874553, 0.05290424, -2.1777308, 0.0022524502, -0.019865008, 1.5924251, -0.031551506, 0.07348822, 0.018313363, 0.0370374, -0.090462185, 0.03174762, 0.01927998, 0.23572554, 0.00062839466, -0.032977216, -0.04459138, 0.008496033, -0.08931885, 0.2011932, -0.024917025, 0.03831368, -0.017883465, 0.0010888267, -0.0076027378, -4.4787755, -0.060478702, 0.0005211256, -0.017071199, -0.50774235, -0.06444335, 0.061435364, 0.09586602, -0.023172433, 0.042077783, 0.16825739, 0.031694226, -2.1797404, -0.041254763, -0.07324256, -0.073806904, 0.13952644, 0.01585642, -0.5940492, 0.02243394, -0.0023252193, -0.049022082, 0.13238336, 0.026078308, -0.015636498, -0.029994873, 0.019016253, 0.23795526, -1.4946946, 0.033520527, 0.01715717, -0.01416226, -0.054292366, 1.546209, -0.0062495405, 0.005315087, -0.037527665, 0.008318405, -0.105006434, 0.019190278, -0.09358996, -0.023030238, -0.035124876, 0.0141259525, 0.032812208, 0.002119203, 0.0024433273, 0.027581656, -0.0027315323, 0.019954477, -0.0574522, 1.7592376, -0.013630005, 0.0349853, -0.8803305, -0.78046393, 0.027075354, 0.021608539, 0.121408604, -0.03734027, -0.11161749, -0.027619965, 0.01603677, -0.07960846, -0.010804406, -0.0013563242, 0.04484445, -0.050150394, 0.0041676145, -0.06488604, -0.008437972, -0.018002111, -1.3022059, -0.05619575, -0.05819668, -0.13978271, -0.1028903, 0.06605537, -0.024731876, 0.034753103, -0.011844943, 0.017748075, -0.15054952, -0.009594009, 1.4911652, -0.08083946, -0.023589874, -0.07067848, -0.02760896, 0.033441737, 0.005769243, 0.0018708813, -0.019068535, -0.0306598, 0.03684566, 0.019360859, 0.07203195, 0.008014761, -0.029286958, -0.018209068, -0.013968439, -0.08657644, 0.015210207, -0.012539406, 0.03186163, 0.21810465, 0.059375014, -0.0042895423, -0.99705905, -0.018016703, 0.017593386, 0.017594237, 0.005944708, 0.000751028, 0.011824715, 0.07380552, -0.024666829, 0.0056489813, -0.042098433, -0.015363153, -0.43778127, -0.0504625, -0.0026123617, -0.27858245, -0.38076591, -0.06292384, 0.010750997, -0.047832172, 0.0267134, 0.0037432958, -0.08642628, -0.02839475, -0.5311589, -0.03645057, -0.04216127, -0.15633297, 0.0111057, -0.021258786, 0.3244734, 0.010579604, -0.03485608, 0.05816411, 0.13194638, 0.069731615, -0.06127483, -0.027681112, -0.16623673, -0.0465444, -0.067464486, 0.051954962, -0.105945595, 0.010374305, 0.20271197, -0.05245053, -0.03070502, -0.06852813, -0.04038915, -0.62423503, -0.033376683, -0.35942304, -0.0001903662, -0.029951978, -0.015248318, -0.10779648, 0.4144765, -0.17598465, -0.0043973783, 0.02210641, -0.4665717, -0.0157408, 0.29036662, -0.021264648, -0.12437437, -0.4004332, -0.03993773, -0.12984857, 0.033915326, -0.035492968, -4.726187, 0.01802742, -0.010305797, 0.010762191, 0.03279625, -0.0059526726, -0.14462623, -0.010354109, -0.018159667, 0.03828461, -0.035402305, -0.049743168, -0.008736352, -0.047070857, -0.84437436, -0.0140130045, 0.05149909, -0.12628137, 0.044602465, -0.016278768, -1.3934398, 0.037251793, -0.03567027, 0.02365192, -0.022242589, -0.005499429, -0.06624789, 0.002584609, 0.13526289, 0.06132306, 0.017222986, -0.022220649, 0.008811994, 0.4529142, -0.12306148, -0.00021252483, -0.29816973, 0.091044575, -0.8591521, 0.048718903, 1.9116684e-05, 0.03883338, -0.047629375, 0.0153115075, -0.025348475, 0.07764176, 0.0009352966, -0.036907993, 0.004681138, -1.2216631, 0.018174917, 0.0036521994, -0.37720588, 0.017420694, 0.03964706, -2.103324, 0.003987623, -0.016570248, -0.69841754, -0.040766034, 0.22775349, -0.04067707, -0.002290809, -0.37775528, -0.08106512, 0.0014161633, 0.08788604, -0.0050588464, -0.036735877, -0.009999897, -0.06684298, -0.16709405, 0.28165093, 0.08675949, 0.18452375, -0.04606055, 0.02323378, -0.097695686, -0.12015892, -0.016714474, 0.0021457588, 0.0586543, 0.15586272, 0.11369177, 0.037163537, -0.36106172, -0.010637947, 0.69750625, 0.27626964, 0.23377836, 0.3286609, 0.034122698, -0.018545458, -0.07395593, 0.12344767, 0.007920248, 0.05409534, 0.08931482, -0.0014556554, 0.011432269, -5.147695, 0.051225975, -0.037983052, -0.032384045, 0.010228953, -0.29490113, 1.4131143, -0.10284291, -0.14961283, -0.043783773, -0.018476576, 1.6603181, -0.006719014, -0.007257158, 0.017727012, 0.0022369467, -0.16514415, 0.0006092737, -0.08162697, -0.026844319, 0.028194375, 0.0084734345, -0.033514787, 0.019456044, 0.024271537, -0.05338945, 0.0004595598, -0.03924303, 0.041993532, 1.6980532, -0.02518782, 0.08666486, -0.72955257, 0.1096151, 0.015333602, -0.0063026394, 0.033321068, -0.035579357, -0.12338365, 0.059378967, -0.0041740327, -0.04371088, 0.002148488, -0.063943475, 0.041478436, -0.049639188, -0.02519313, 0.118451014, -0.06362825, -0.03418051, 1.4116791, -0.071909495, -0.009404035, -0.31019315, -0.03468477, 0.059342317, -0.018050466, 0.03140664, -0.020126274, -0.00020219795, -0.14012982, -0.36494428, -1.7172139, -0.035581153, -0.019991042, -0.03563192, -0.024423502, -2.5229762, 0.05646, -0.026631646, 0.0011060744, -0.006395842, 0.0018474296, -0.04544839, -0.3764404, -0.03848785, -0.03016768, 0.045371477, -0.021366848, -0.051723823, 0.047229163, 0.04056256, 0.013641438, 0.27778497, 0.0720818, -0.09697797, -0.31978425, 0.011383455, -0.0026297325, -0.0019306802, -0.023147589, -0.043914065, -0.0030254894, -0.91394246, 0.043654658, -0.05236752, -0.08321676, -0.0066906232, 0.47424722, 0.04204288, -0.0044692424, -0.3500927, 0.3010731, -0.082360536, -0.025025306, -0.03178257, 0.028646987, 0.002663715, -0.0257132, 0.014951384, -2.7519932, -0.0031351657, -0.1246418, -0.105109155, -0.053316116, 0.005994732, 0.57360005, -0.0736981, -0.088113755, 0.025129426, 0.20770557, 0.03707799, -0.18837874, -0.0005443028, -0.46355423, 0.012110966, -0.042537518, 0.1699047, 0.05280231, 0.08562648, -2.225103, -0.06461209, -0.04089839, -0.006579921, -0.07585096, -0.6087425, -0.07853245, -0.34773964, 0.041046917, 0.02934341, 0.0017579263, 0.0150011275, 0.1405242, 0.086622946, -0.05859318, 0.049294095, -0.081394374, -0.023164403, 0.34472138, -0.061460212, 0.033671513, -0.65252376, -0.03088909, -0.1386154, -0.015378291, -0.10048999, -3.886801, 0.09496915, -0.10673437, 0.0794404, 0.03951431, -0.04337218, -0.25097945, -0.02936015, -0.04507229, 0.20607752, -0.046782248, -0.0039268318, 0.0062206443, -0.027119085, 0.074740425, -0.09599258, 0.06895846, -0.16766621, -0.056993406, -0.0014986552, -0.1159676, 0.051419694, -0.1767382, -0.027542936, -0.08258547, 0.04470801, -0.026766311, -0.012899692, -0.026331617, 0.18958569, -0.047034644, 0.056820218, 0.017771885, 0.3534613, -0.08759556, 0.002075153, -0.3061757, 0.029303659, -0.34513766, -0.048250537, 0.030513616, 0.03012901, 0.0054908833, 0.036914658, -0.03191301, -0.11246869, -0.026341833, -0.008732503, -0.07048728, -1.0620072, -0.04787285, 0.0032586479, -1.1569114, 0.0979245, 0.1204603, -2.2019315, -0.035026602, 0.007585518, 1.529184, -0.22569941, 0.2083244, -0.10153674, -0.0032277731, -0.41326925, 0.02789992, -0.019573646, -0.01998618, 0.040360175, -0.0037103938, -0.034226373, 0.015079949, -0.33392903, 0.27688858, 0.05858306, 0.25391972, 0.046920825, -0.0807261, -0.14181069, -4.259339, -0.15210773, -0.02458269, 0.07730414, -0.20134373, 0.12993686, 0.006776523, -0.16501758, 0.02568914, 0.97494453, 0.24628596, 0.0878463, -1.5840886, -0.012030904, -0.08403759, -0.03723362, 0.060078826, -0.0026322757, -0.37673402, 0.042780485, 0.05492754, -0.026347363, -4.49211, 0.07340577, -0.0015165776, -0.04352474, -0.02443975, 0.07555064, 1.3586525, 0.012158297, -0.36441982, -0.040616248, -0.116103, 1.5621965, 0.13224663, 0.02379512, 0.052486163, -0.0020867037, -0.14191224, -0.020725284, 0.08972836, -0.10744568, -0.052208893, 0.054181024, -0.03599885, 0.056641407, 0.037146952, -0.0056357123, 0.077721424, -0.039143495, -0.11743091, 1.6520487, 0.038227517, 0.10070822, -0.7559488, -0.7061973, -0.06812635, 0.046288405, 0.077694446, -0.05309721, -0.21553543, -0.006361266, 0.007885979, 0.07447463, 0.030958127, -0.029683052, 0.13617603, -0.08072976, -0.044395074, 0.12815155, -0.058872305, -0.013845757, 1.361673, -0.102064386, 0.115533434, -0.037728112, 0.085783176, -0.0044385637, -0.009889515, -0.010525599, -0.00701866, 0.024554102, -0.16072008, -0.4400659, 1.4558033, -0.06641431, -0.023879126, -0.035447612, -0.011166327, -2.7322736, -0.06067316, 0.012925642, -0.018136363, -0.007282612, 0.077051096, 0.0941988, 0.05296944, -0.027880471, 0.046973363, 0.002029146, -0.011728797, 0.014996217, 0.009962891, -0.06371178, 0.06211832, 0.4010484, 0.3181933, -0.0064931167, -0.62116665, -0.011171201, 0.053501233, 0.04442957, -0.011731564, 0.02059331, 0.11379023, -0.5509125, 0.04246762, -0.0020586273, -0.079449095, -0.032928046, -0.010321238, -0.012320245, -0.056200664, -0.3513284, -0.38164547, 0.14441049, 0.014508265, 0.03620804, -0.040240306, 0.054828208, -0.026532551, -0.066750206, -2.5426283, 0.0171622, -0.12288417, 0.118426256, -0.13332906, -0.01915892, -0.056019615, 0.11833157, 0.008590064, 0.046797477, 0.04875091, 0.13809218, -0.041052967, 0.1213746, 0.048392452, 0.19089863, 0.13060589, 0.0027776076, -0.0072081056, 0.0635077, 0.038370457, -0.06383417, -0.10387514, 0.09589809, 0.0081395125, -0.044667404, 0.042999566, -0.05569826, 0.18601812, -0.008354627, -0.40330827, 0.00049925566, 0.031573825, 0.06712549, 0.15016775, 0.04711209, -0.08674917, 0.019813782, -0.0029380943, -0.15568097, -0.22453944, 0.08175122, 0.03413034, -0.049008302, -0.032805726, -0.06748609, -0.10441338, 0.3320263, 0.20435052, 0.10317754, -0.063537724, -0.2023895, -0.09258742, 0.05128497, -0.056871373, 0.06024199, 0.11502373, 0.12022602, 0.06356644, -0.32721576, -0.100444645, -0.23503515, -0.1531781, 0.0419105, -0.33356643, -0.0055957674, 0.09106022, -0.19714954, 0.0048440024, 0.08322247, -0.1474468, 0.36280948, 0.08742076, -0.21830596, 0.067736275, 0.38753006, 0.050472982, 0.039052878, 0.07084668, -0.2597674, -0.056218084, 0.07275763, -0.07025064, -0.049299125, -0.08794754, 0.007119351, -0.10867483, 0.08918647, -0.36578083, -0.022147618, -0.13183516, -0.07181088, 0.028476674, 0.14213021, 0.012435459, -0.095990956, 0.0070811384, 0.06365757, -0.07396445, 0.13051812, -0.0011057045, -0.26405773, 0.07026898, 0.19471687, 0.22683229, 0.08851161, 0.2506582, -0.16702235, 0.10211253, -0.3018388, -0.031666823, 0.04547493, -0.0066800136, -0.09895106, -0.11602885, 0.015864069, 0.044103276, -0.12747924, 0.12742545, -0.17186898, 0.07384558, 0.42851228, -0.095618784, 0.2868631, -0.3319388, 0.08850447, -0.039026476, -0.041558787, -0.21989472, 0.07305931, -0.12379023, -0.020069212, 0.2625004, -0.16044693, -0.37153384, 0.07524685, 0.022052694, 0.019575194, -0.096594065, -0.33365533, -0.0824315, -0.08845958, 0.04440176, -0.045267828, 0.12126529, 0.17704979, -0.0003500189, 0.11108671, 0.07812827, 0.09248429, 0.09626356, 0.08626129, 0.24094783, -0.11253182, 0.038432803, -0.034108877, 0.22473116, 0.04728227, -0.07605504, 0.11829253, -0.21221195, -0.027951261, -0.012737941, -0.13376248, 0.06704414, -0.0070903054, 0.123985, 0.07881393, 0.19263858, -0.06846532, 0.011835968, -0.025670776, 0.17948996, 0.34539482, 0.06177208, -0.12192993, 0.055272475, -0.0327872, -0.051489606, 0.020886462, 0.04085048, 1.1800701e-05, -0.010323281, -0.10172214, -0.11600967, -0.16078, -0.046725586, 0.03447515, -0.023995131, -0.19054672, 0.10552525, -0.33185285, -0.046001747, 0.09665992, 0.29780546, -0.06108737, 0.3710221, 0.085778, -0.024809845, -0.1975978, -0.25940025, -0.23283115, 0.78027666, -0.096853115, 0.010712239, 0.024594221, -0.12050536, -0.32828438, -0.044270482, -0.057544176, -0.05593617, -0.076980844, -0.19781424, 0.0054020258, -0.14393698, -0.016982757, -0.031852182, -0.03699784, -0.16604978, 0.078685954, -0.0239602, 0.1573201, -0.031769276, 8.1525824e-05, 0.016120736, -0.0124112135, 0.0741739, 0.06230051, -0.38655564, -0.14007036, 0.21663891, 0.23108098, -0.11563812, -0.13785419, -0.059242908, -0.15220612, -0.0056339935, -0.010166725, -0.03596778, 0.1207909, 0.038373932, -0.07482201, -0.021782923, -0.025425786, -0.046569623, -0.06994815, 0.01901883, 0.010955276, 0.06519263, -0.03801571, 0.056669135, -0.022689054, -0.0053934595, -0.030129109, -0.0015634999, 0.121559724, 0.05471326, 0.04904064, 0.048623163, -0.05997811, 0.11403372, -0.033315796, -0.044536877, -0.03915557, -0.04817547, 0.075006194, 0.01497392, -0.075419225, 0.025691964, -0.23817176, 0.070559934, -0.1802227, 0.08649936, 0.19546111, 0.16289957, 0.06803247, 0.048220966, -0.04381379, -0.07863837, -0.049198627, -0.40772027, -0.23363648, -0.11463108, 0.02006464, -0.33087078, -0.20020372, -0.035874095, 2.8922237e-05, -0.2421866, 0.12337435, 0.032215655, 0.1329114, -0.017410967, 0.09542601, -0.09901651, -0.009133743, -0.0557104, 0.024198383, 0.1636815, -0.08975241, -0.0272678, 0.0050328467, 0.040413287, 0.09584138, -0.22138052, 0.20731574, 0.031018902, -0.27034792, -0.047126416, -0.091437645, -0.07585056, -0.09271753, -0.064923294, 0.023259427, 0.006531169, -0.30444205, -0.19605967, -0.15114753, -0.07893951, 0.06216466, -0.37295973, -0.0029511375, -0.10636525, 0.011803501, -0.051103894, -0.08126374, 0.02262575, 0.11559382, 0.22661503, -0.040624518, 0.19835436, 0.1566764, 0.0507848, -0.0868863, 0.09363905, -0.07679711, -0.046046745, 0.07504933, -0.09933486, -0.13895363, -0.044905946, 0.010729028, -0.115368485, -0.07125251, -0.032300603, 0.05688521, -0.11677713, 0.022299528, 0.1527596, -0.21416347, -0.032916207, -0.09987391, -0.14674999, -0.034985423, -0.08412949, -0.09428878, -0.072642155, 0.16193824, 0.038701233, -0.24222039, 0.15405507, 0.28857073, 0.12352318, -0.06034335, 0.06639552, -0.12506291, 0.08294772, 0.15342301, 0.024450593, 0.12892133, 0.1325823, -0.084655456, -0.06725399, -0.10712865, 0.086760715, 0.040047083, -0.0915018, 0.132075, -0.08833555, 0.34802425, -0.025583275, -0.023754902, -0.20824353, 0.1299672, -0.11437308, 0.12544699, -0.043298062, 0.1762147, -0.23366079, 0.17993888, -0.07481773, -0.05566201, 0.01795772, 0.14444393, -0.030745067, -0.12787578, 0.008981232, -0.05546479, 0.20105672, -0.12833863, 0.11837492, 0.11659818, -0.20520881, 0.022815773, -0.23251362, -0.0150466245, -0.21044114, 0.004026667, 0.22057375, -0.004479027, 0.07290488, 0.0058250176, 0.29232493, -0.0054470333, -0.04888049, -0.03013069, -0.02691988, -0.15699835, -0.079384096, 0.031647373, 0.027236879, -0.055143673, -0.119382314, 0.16606307, 0.039578613, -0.032318577, 0.0013030192, 0.060883604, 0.22966632, 0.24520949, 0.007882662, 0.06385306, -0.053404093, 0.043425094, -0.066253014, -0.025736997, -0.061242186, -0.13034382, -0.01962911, -0.1651305, -0.2505681, 0.009401575, -0.06377775, -0.18854533, -0.005153116, -0.26864505, 0.10009995, 0.080203995, -0.066049375, -0.17352721, 0.012894387, -0.03610264, 0.21047033, -0.016038874, 0.06439175, -0.59717554, -0.15550879, 0.010451597, 0.6774248, 0.18461306, 0.12879385, 0.10853152, -0.20086582, -0.19807535, 0.21221414, -0.11161321, 0.006903335, -0.012603702, -0.098965846, -0.08861057, -0.07467102, -0.0029900956, -0.04396088, -0.06623218, -0.124844, 0.0053932113, 0.057234928, -0.060915373, -0.05004362, -0.23727418, -0.00389128, -0.2859902, -0.13726307, 0.14353576, -0.1116463, -0.18362346, 0.19492379, 0.30984592, -0.11504888, 0.075835235, 0.06817943, -0.1878804, -0.033853807, -0.07672131, 0.046679504, -0.11921548, -0.05805221, 0.34388885, -0.031755906, 0.110464536, 0.18298537, 0.10837209, 0.07025167, 0.092557974, -0.27449754, -0.28938124, 0.24324712, 0.0023673892, -0.10550274, 0.05732591, 0.01451629, 0.09254799, -0.048502054, -0.0067031574, -0.025830526, 0.02777553, -0.17183705, -0.03760394, -0.02646082, -0.35485575, -0.084731854, 0.0803471, 0.10193916, 0.049559407, 0.13292709, -0.031542905, 0.08777726, -0.20043701, 0.19995955, 0.21365632, -0.3204509, -0.014989666, 0.039937846, -0.28189197, 0.07342922, 0.13594525, -0.17664315, 0.005542866, -0.09145336, -0.12408747, 0.33419022, -0.04554874, 0.0149781015, -0.0016377189, 0.29201698, 0.020782774, 0.20535329, 0.09293089, -0.016614426, 0.007771198, 0.2446238, 0.16780809, -0.09185082, 0.05408653, 0.168596, 0.057984438, -0.020104593, -0.07415794, 0.0849153, 0.15663774, 0.07879464, 0.25229454, 0.03101867, -0.20631742, -0.034559786, -0.26121563, -0.15950014, 0.16451345, -0.017219914, -0.17500295, -0.01454075, -0.15035732, -0.1519494, -0.46384707, 0.049643382, -0.07569306, -0.05895515, -0.004162621, -0.014564644, -0.056525398, 0.04655007, -0.04765792, -0.048448224, -0.28157684, -0.10214893, 0.005909377, 0.057584696, 0.06622285, -0.026986491, 0.21169798, -0.0040515475, -0.32539603, -0.0005615577, -0.12994839, -0.0055477265, 0.03568934, 0.004026286, -0.028486876, 0.045528293, -0.03418537, -0.1500287, -0.056398485, 0.10393054, -0.006922661, 0.048477106, 0.06386662, 0.08898984, 0.0035007242, -0.019822966, -0.06112528, 0.039693892, 0.08537263, 0.055832013, -0.1879898, -0.1472651, 0.10971292, 0.17154466, 0.12067808, -0.1690326, 0.21807683, 0.06959594, 0.1919798, 0.18741919, 0.01037245, -0.041822348, 0.011662222, -0.0834744, -0.15423882, 0.016709615, 0.085635394, 0.22133002, 0.34691033, 0.048978537, 0.028648058, 0.33201468, 0.40355232, -0.23391694, -0.06334136, -0.11734673, -0.061196417, 0.08536162, -0.27627, -0.11881008, 0.15409279, 0.128759, 0.31140357, -0.0822889, -0.11476302, 0.032793242, -0.07458421, -0.051343888, -0.063029826, 0.19204834, -0.012578803, 0.13834968, -0.064664274, 0.01922414, 0.10010043, -0.1879271, -0.025645144, 0.46838036, 0.025442503, -0.1513121, 0.11641185, 0.09589956, 0.1974145, -0.06387889, 0.04014123, -0.41053444, 0.06516039, 0.0759131, 0.027887035, 0.24915455, -0.11126759, -0.099747725, -0.1728293, 0.020266738, 0.113671236, 0.089786075, -0.025183685, 0.045174204, -0.03519279, -0.0055374405, -0.087832555, 0.16838515, -0.106372245, -0.14998063, 0.014323521, -0.014115993, 0.045899227, -0.14827164, -0.07233576, -0.029177438, 0.044421498, -0.15718883, -0.16564608, -0.17466325, 0.031096043, -0.0122527005, 0.2946752, -0.017902067, 0.077191584, 0.029973531, -0.26369983, 0.017644607, -0.049075693, 0.13375996, 0.0016843945, 0.30847013, -0.0825295, 0.09160068, -0.3099253, 0.051361274, -0.14414941, 0.6393062, 0.08289955, 0.05875935, 0.112289615, -0.1941595, 0.007833736, -0.06423197, -0.06486093, -0.13353509, -0.02980109, -0.087406375, -0.048244596, 0.051609587, -0.010766002, -0.0375933, -0.06110842, -0.0061519956, 0.021925565, -0.6712666, 0.022773195, 0.029537473, -0.16484278, -0.018683348, -0.41282234, 0.011240752, 0.2357841, 0.05112362, -0.25657392, 0.21130112, 0.04067366, -0.17876694, -0.1739114, -0.06352824, -0.103115164, 0.025461059, -0.06116056, 0.033490572, -0.028085167, 0.004356616, 0.02701822, -6.704622e-05, 0.20335005, -0.16351599, 0.31969354, -0.01772698, 0.11669727, 0.022631515, -0.23597826, 0.06497817, -0.24035802, -0.021610025, 0.087436825, -0.15726401, 0.0033288316, -0.018959153, 0.020311367, -0.027869299, -0.04515057, -0.28714576, -0.024661804, 0.041916512, -0.13504782, -0.12607738, -0.10090812, 0.1710702, 0.20402338, -0.007218889, -0.04327709, 1.1734899, 0.077814914, -0.08693387, 0.19501343, -0.061437353, 0.24899144, 0.06761771, -0.04972115, 0.035482287, -0.19028679, 0.06549971, -0.8110473, -0.06439058, -0.04475817, -0.022975288, 0.0950253, -0.13268167, -0.052937157, -0.006296721, 0.05320026, 0.18570347, 0.040114295, -0.4313227, -0.14063604, -0.03327896, -0.21461289, -1.1912621, -0.05409006, -0.38412565, -0.10277289, -0.008450188, 0.012564626, -1.1047709, -0.071358, -0.15445222, 0.194407, 0.036601674, 0.4035301, -0.0051500765, -0.004911975, -0.1344409, -0.030519342, -0.026630044, -0.06948747, 0.12487233, 0.5267762, -0.3155446, -0.25868365, 0.10376642, -0.24737734, -0.2990942, 0.21679477, -0.2600414, -0.07624845, 0.26150987, 0.045251925, 0.014039654, 0.19374602, -0.19247897, 0.14531665, 0.03489783, 0.33007753, -0.15746827, -0.022571336, 0.021556634, 0.21970065, 0.14700119, -0.015083172, -0.026438564, 0.03030616, 0.07121444, 0.07242991, 0.18844017, 0.01364568, -0.2041714, 0.0052095265, 0.13478684, -0.07189429, 0.10439824, 0.022858, 0.04375893, 0.0022728902, -0.029165294, 0.035936825, -0.07820176, -0.118197516, -0.033359177, -2.0021763, -0.13166206, -0.0684902, 0.41162577, -0.004588847, -0.29722595, 0.3064312, 0.07701333, -0.4732485, -0.07781587, 0.054048564, -0.5045016, 0.030900382, 0.21677457, -0.09097894, -0.11236368, -0.33200586, -0.16662116, -0.30043033, -0.23593462, 0.115492076, -0.47016227, 0.4458807, -2.1634805, -0.27730492, -0.24645254, -0.043181915, -0.17436855, 0.24996917, 0.044127382, -0.37827408, -0.11275048, 0.32771114, -0.46111086, 0.13455735, 0.15944025, -0.14735481, 0.243773, -0.2562806, -0.08361713, -0.069685794, -0.09143311, 0.097347654, -0.08301777, 0.044456705, -1.6773254, 0.1534961, 0.04681036, 0.0023944732, -0.40203983, 0.19598821, 0.2507584, -0.012004495, 0.33828887, 0.056596443, -0.0047595063, 0.060132712, -0.18717232, 0.043120634, 0.0049131764, 0.053050816, -0.13963564, -0.050231453, -0.23153895, -0.11219625, 0.2765424, -0.093624175, -0.116353154, 0.0069601475, 0.0072220922, -0.04729554, -0.038454838, 0.23274563, -0.033765096, 0.16535181, 0.083980344, -0.049531583, -0.29654634, -0.3059218, 0.122385986, 0.038716003, -0.086235605, -0.2750219, -0.14532374, -0.09082063, 0.1002884, 0.120840535, 0.008287344, -0.12164985, 0.08063748, 0.22680625, -0.046156045, -0.25466084, -0.19289245, -0.018262642, 0.59779763, -0.23695509, 0.009317204, 0.5779769, -0.019719314, -0.08382058, 1.3363413, -0.021651592, -0.1097067, -0.009371185, -0.21458723, -0.06674582, 0.25680175, -0.063658856, -0.16849476, 0.18166457, -0.20513721, -0.12750491, -0.18099737, -0.03520799, 0.009460891, -0.3062427, 0.15291397, 0.01358489, -0.57989943, 0.1875395, 0.25835115, 0.22672102, -0.014053629, -0.011466174, 0.29614, -0.192638, -0.13118951, -0.5347455, -0.8662, 0.12594603, -0.36407456, -0.19913112, -0.009534912, 0.18445922, -0.029619338, 0.020074429, 0.3106774, -0.1286128, -0.14984924, -0.2815407, -0.03305265, 0.31341708, -0.79669744, 0.19448204, -0.1460871, 0.3287617, 0.2209765, -0.35858643, 0.05303892, -0.03217258, 0.4504084, -0.0010020165, -0.3012447, -0.042824462, -0.17293501, 0.03130526, -0.1862474, -0.01602549, -0.1877828, -0.1636069, 0.022912676, -0.05063986, 0.014489857, -0.0040946947, 0.03536503, -0.0016023524, -0.052818134, 0.01635382, 0.21359296, 0.010477275, -0.0002589835, 0.2178232, -0.049110796, 0.029352287, 0.0078219045, -0.010790665, 0.009488744, 0.0010777204, -0.048183646, -0.099707745, -0.043978687, -0.05932931, -0.019987358, -0.014759495, 0.032417655, 0.016993819, 0.097998925, -0.009183326, 0.025125956, 0.024084654, 0.004446195, 0.002597068, -0.024479829, 0.00037462442, -0.0521245, 0.025631245, 0.009370026, -0.063927695, -0.009437406, 0.022221219, -0.050708357, 0.06395564, -0.1314534, -0.016419178, 0.039805897, 0.06110092, 0.027356818, -0.028006976, 0.004905761, 0.019507442, -0.020882938, 0.015353177, 0.019745173, -0.05154884, -0.018498568, -0.01815484, -0.06670392, -0.00025965105, -0.09195638, -0.069056235, 0.038892537, -0.021064306, 0.02690752, -0.015449245, -0.031203257, -0.03728783, 0.025529124, -0.021187793, -0.0019385526, -0.04627429, -0.031057596, -0.017359987, 0.008181855, -0.048283182, -0.10647865, 0.025214002, -0.0154774375, -0.013052168, -0.004697154, -0.05711094, 0.049632147, -0.0992149, 0.002454265, -0.008750965, -0.02967511, 0.042915422, -0.06972828, 0.02254245, -0.07360779, -0.019240942, 0.06461636, -0.04131744, -0.0022743845, -0.025088325, 0.053635962, -0.53500104, -0.021830287, 0.05022582, 0.0026453144, -0.09255996, 0.05474882, 0.027110454, -0.046154816, -0.09385474, 0.04947717, -0.007891809, 0.081666075, -0.076509744, -0.036898598, -0.09790319, 0.03668649, -0.0035054893, 0.1636831, -0.023322972, -0.03782451, 0.028048184, 0.06336306, 0.2578106, -0.019662935, -0.01793109, 0.03353938, -0.10581406, -0.04710846, -0.09927211, -0.01805101, 0.033931, -0.019229243, 0.057640847, -0.06624271, -0.033677466, 0.0039138184, 0.043679956, 0.09227198, -0.020840447, 0.11343009, 0.008361494, 0.13773519, -0.011398997, 0.01199001, 0.00494613, -0.091330804, 0.021128602, 0.036373705, 0.010931841, -0.012716691, -0.0030940531, 0.06948132, 0.00803493, -0.008065406, -0.034754477, -0.014141318, 0.007847738, 0.04194833, -0.033088252, -0.043566562, 0.013996537, -0.045436814, 0.011340799, -0.029442906, 0.0329324, 0.03317785, 0.06281111, 0.013888265, 0.03963767, 0.008708407, 0.055752873, 0.061802756, -0.049695406, -0.020412175, -0.042140245, 0.003456144, 0.007881291, 0.061359953, 0.007017334, 0.022381973, 0.0055336943, -0.039978072, -0.025978215, 0.0081569655, 0.075373605, 0.056309875, 0.049514204, 0.008936463, -0.07109648, 0.05394684, -0.031209245, -0.04075658, -0.023502031, -0.004336387, 0.0048441584, 0.10641792, -0.018624466, -0.03015564, 0.22211777, -0.13227494, -0.00655563, 0.106937826, 0.019218793, 0.015895003, -0.015715843, -0.13721178, -0.1056595, 0.023631109, -0.048271805, 0.0057660136, 0.045378417, 0.07222452, 0.00567109, 0.030541625, -0.011778622, -0.009195528, -0.026844151, -0.07027152, 0.005634253, -0.05400968, -0.002639816, -0.0053062425, -0.004965263, 0.0031098854, 0.06378559, 0.09720535, 0.08291677, -0.09855526, -0.06745795, 0.114317104, -0.05359982, -0.005038918, -0.007396269, -0.025449187, 0.034091722, -0.022845726, 0.012342839, 0.03372773, -0.05981158, -0.01856133, 0.04785415, -0.021676041, 0.05353401, -0.11354519, -0.047461808, -0.003221285, -0.00027616826, -0.1343881, -0.22203465, 0.024922462, -0.033572964, -0.06987589, -0.001666462, -0.010121156, -0.06641859, 0.008683663, 0.004641061, -0.004696107, -0.05822259, 0.009032573, -0.015422775, 0.1244131, 0.048231035, 0.011882306, 0.05498912, -0.03919477, 0.02631812, -0.03879508, 0.035839736, 0.069277085, 0.051188495, -0.044974368, 0.23398851, -0.054072313, 0.0652962, 0.0044195815, -0.07448294, -0.0017295859, 0.003759155, -0.001163325, -0.07631474, -0.050783876, 0.008652595, -0.06393892, -0.07405777, -0.09000587, -0.032680005, -0.006982085, -0.011238548, -0.018093592, 0.058303334, -0.13935918, -0.018084561, -0.020828044, -0.25296846, 0.014833673, 0.03765858, -0.01622381, 0.025750851, -0.048448674, 0.16209646, 0.0122734755, 0.10582697, -0.12044848, 0.07895521, -0.0028957059, 0.05768842, 0.067554496, -0.1840797, 0.031132378, 0.041404143, 0.04069952, 0.05098954, -0.06849282, -0.049519613, -0.029130127, -0.023150751, -0.04483277, -0.067085326, 0.037622534, -0.065035865, 0.11021107, 0.08669828, -0.010284816, 0.038656775, -0.033644803, -0.025254015, 0.036930986, 0.0019615602, -0.046205312, -0.041894123, -0.0981369, -0.032521542, 0.021260314, -0.08956959, -0.0048320526, 0.040653743, 0.011419233, 0.0028011783, 0.0059480486, 0.04409869, -0.10326916, -0.053376216, -0.010380817, 0.06658049, -0.048245203, 0.008739947, -0.016498623, 0.011890352, 0.009351823, 0.028165286, 0.0030113559, -0.08896801, 0.023755178, 0.007182739, -0.01332526, -0.065813206, -0.018673, 0.05983601, 0.007091602, -0.055902295, 0.09491318, 0.056598306, 0.015505712, -0.06585144, 0.05606344, 0.0016185576, 0.004714597, -0.04731499, -0.019333383, -0.0077505084, 0.053247742, 0.16499537, 0.20411393, 0.02530106, 0.03937094, 0.13024345, -0.07170678, 0.1003418, -0.06905289, -0.13810976, 0.015552001, -0.011895604, 0.031958655, 0.0018887225, 0.06483087, -0.03366259, 0.06360149, -0.005278355, -0.11022659, -0.07693199, -0.0070592337, -0.014088203, 0.04714726, -0.033864733, 0.18849845, -0.011296893, -0.0302027, 0.012552856, 0.0024928474, 0.040446095, -0.073331386, 0.032945797, 0.025679996, 0.0023990266, 0.028520051, -0.027049353, 0.057381645, 0.01593657, 0.012881639, 0.0017881307, -0.16465859, -0.01817336, 0.055756185, 0.06389594, 0.10694864, -0.048170928, 0.042688962, -0.04755245, 0.021989735, 0.008299768, -0.12228502, 0.00528477, 0.06221297, 0.00031485592, 0.001365523, 0.088597216, 0.0905238, -0.025499275, -0.08989156, -0.0573542, -0.031726148, 0.064640716, 0.012254778, 0.020526187, 0.030165387, 0.07720587, -0.028528484, -0.10319559, -0.038638715, 0.064406246, 0.010066737, 0.14700326, -0.01591258, 0.027750067, 0.1252661, -0.003818062, 0.0026462001, -0.030853592, -0.0059952773, -0.025152078, -0.04129797, -0.025437834, -0.01310647, 0.6090624, -0.18691951, -0.06819974, 0.0014651793, 0.05967132, -0.034410086, 0.0066717826, -0.15469596, -0.08727953, -0.10260079, 0.037132107, 0.026515368, -0.0012348767, 0.010236216, 0.008881218, 0.028054856, -0.012957564, -0.0018638838, 0.018885951, 0.082449466, 0.015631272, -0.093989015, -0.0071071787, -0.0033568859, 0.10934852, -0.00313593, 0.13642609, 0.0664508, 0.17799567, -0.16273154, 0.08717742, 0.108108066, -0.05563171, 0.03996857, -0.050757628, 0.0016062679, 0.051894303, 0.007234746, -0.059061285, 0.038981065, -0.059890725, 0.025926473, -0.0072258655, -0.01102731, 0.0280569, -0.11741374, -0.03288211, -0.031932212, -0.037790805, -0.047023762, -0.15091215, 0.019538023, -0.027347924, -0.00026962004, -0.01095411, -0.12273617, -0.031613853,